glottocode,0,1,2,3,4,5,6,7,8,9,10,11,12,13,14,15,16,17,18,19,20,21,22,23,24,25,26,27,28,29,30,31,32,33,34,35,36,37,38,39,40,41,42,43,44,45,46,47,48,49,50,51,52,53,54,55,56,57,58,59,60,61,62,63,64,65,66,67,68,69,70,71,72,73,74,75,76,77,78,79,80,81,82,83,84,85,86,87,88,89,90,91,92,93,94,95,96,97,98,99,100,101,102,103,104,105,106,107,108,109,110,111,112,113,114,115,116,117,118,119,120,121,122,123,124,125,126,127,128,129,130,131,132,133,134,135,136,137,138,139,140,141,142,143,144,145,146,147,148,149,150,151,152,153,154,155,156,157,158,159,160,161,162,163,164,165,166,167,168,169,170,171,172,173,174,175,176,177,178,179,180,181,182,183,184,185,186,187,188,189,190,191,192,193,194,195,196,197,198,199,200,201,202,203,204,205,206,207,208,209,210,211,212,213,214,215,216,217,218,219,220,221,222,223,224,225,226,227,228,229,230,231,232,233,234,235,236,237,238,239,240,241,242,243,244,245,246,247,248,249,250,251,252,253,254,255
abip1241,-3.955288,-6.577364,8.032377,-6.064955,-8.893116,-9.564006,-7.0049143,0.46885708,7.024826,9.239165,-5.0835643,7.475261,5.4980044,8.385875,-8.477689,-9.310005,3.840268,-8.541921,-8.699198,-6.714135,8.20001,4.845472,4.5889964,-6.9984236,2.622783,9.109832,7.118469,6.7416024,7.671458,7.743879,8.763595,3.4025595,-5.400403,-4.5902066,-7.7601194,-7.6568475,4.7184386,-7.001002,7.978071,-8.4386835,7.2726374,-4.481451,7.4451942,6.8788633,7.7933874,-7.493524,1.3739674,4.3417034,9.539825,8.897907,6.2911024,2.908303,-7.810295,8.704779,-8.660458,9.761787,3.7747903,-9.69056,8.634007,7.2390265,-6.1803064,7.4501767,6.9609976,6.3181367,5.146303,8.25163,6.960585,2.4029799,6.691078,1.8768159,7.2407727,-9.318125,4.5003138,6.3009143,4.7185574,-2.4305863,-3.9774497,6.596657,6.3452854,-1.7452836,-4.791716,-1.8104295,7.7009945,9.055066,-4.0594463,4.577115,-1.9743584,4.3733172,-6.455388,-8.137124,8.192099,-6.9683332,-8.6823225,1.4620689,-5.6355376,9.459953,-5.9904046,-4.9783783,8.126428,7.9990644,9.691722,6.0908766,4.3556046,4.8163943,5.9621954,-7.1758356,8.445584,7.739325,6.6514106,7.177747,-9.505472,2.8316584,-8.192291,1.3628626,4.0199366,-9.50905,-7.966079,-0.4396861,7.589635,-8.194759,-3.4351866,6.457171,-8.65673,-5.1494555,-6.9977856,1.1489366,9.197887,6.1926994,-7.787726,6.054136,9.308869,8.28728,-6.2724137,-5.7219143,6.57837,-9.021996,-4.0833845,-9.447222,-5.018518,5.9014044,-7.3503256,-7.0758467,8.071443,-2.710048,-5.604379,7.450928,-9.344632,9.42988,-2.065,5.7534213,8.154605,-5.628459,-9.210335,-6.764084,4.7381516,4.8255577,2.1647048,-9.558012,-8.568694,-6.533738,4.1045866,-4.6344175,-7.264017,-9.43264,3.8262782,4.272596,2.6502671,-8.442012,-7.5331354,-6.0099845,9.382849,-7.006769,-4.2902136,-8.767126,6.766121,8.586958,-6.0227523,-7.672523,5.81544,7.7729874,-4.783959,9.074394,-3.1212602,-7.9834104,-1.7868352,-3.8188899,-4.973379,-9.850831,-5.9491425,-8.708084,-8.394956,8.163517,5.7689805,-6.220783,-4.7507224,6.314014,7.201433,6.989959,-7.0827055,-1.6470231,-5.298699,1.4696381,-6.651878,7.568755,-7.9569716,7.835518,-9.844873,-8.488421,-4.411159,-10.261814,8.430141,8.890402,-8.435001,-7.56331,-9.436465,6.8239717,8.361869,0.8193963,8.46119,-5.539088,6.1244144,3.3284314,-2.875915,5.6251287,-8.737877,-5.1546197,-5.871646,4.4584475,7.064345,5.8616624,9.3466835,4.0257783,8.298058,9.88838,-4.6774435,7.048121,-4.1901484,2.475684,-5.56683,4.49252,8.208918,5.2503543,7.453531,-5.471435,-7.7854443,9.061685,-8.31366,-5.0552506,6.903877,-6.2317605,4.843741,5.3726645,1.3423889,-3.735723,-6.3872614,7.600106
acha1250,-8.700105,-8.868798,8.397557,-0.7632538,-2.4641407,-7.441431,-7.5936923,-5.8659906,8.013798,7.533214,-7.3613796,7.8241153,9.535394,6.377675,-4.9121184,-6.9887943,6.7204866,-7.304326,-9.408813,-8.359492,8.452408,11.51886,10.106209,-1.8378193,8.164189,5.9317117,2.5287676,9.450949,5.945534,3.8568423,8.145242,8.226783,-7.9497547,-11.132013,-9.849697,-7.131818,4.345946,-0.78770304,2.5562463,-3.5462341,9.714283,-10.524697,6.3440537,3.6213331,8.677703,-7.5022874,7.0658946,7.112375,8.453047,7.9605465,9.371131,9.701202,-8.953964,6.9941697,-6.1372976,4.8380647,9.46212,-5.794937,5.5182176,5.6772594,-4.177486,6.9017305,8.015754,9.423947,10.004766,4.637829,4.561716,8.562105,10.471391,6.7622933,4.71103,-5.4193635,6.3407297,9.092534,10.180883,-7.005671,-9.666022,8.137535,10.223766,-6.5650797,-10.459077,-6.3477116,4.9237933,5.0223823,-9.1686125,7.2919602,-7.221667,9.452407,-2.7675152,-6.1821485,2.8853822,-10.002582,-4.2631087,6.8077874,-7.310068,6.420951,-8.112908,-6.870037,6.108845,4.4704905,7.324343,9.774538,10.117326,10.02089,7.7698007,-10.368943,7.1486225,2.6078045,7.6932034,6.3663383,-7.5415363,8.710698,-4.7262154,7.6774545,9.085788,-6.0926323,-2.6444385,5.6253414,4.0197406,-7.750335,-6.8293166,9.051612,-8.64135,-7.4559083,-10.168779,8.048855,6.408555,10.468721,-6.718922,0.09547609,6.5607285,7.956711,-7.5057893,-10.86318,9.253571,-4.940021,-9.67027,-8.763135,-9.826551,8.384953,-6.009783,-2.2940438,7.212766,-8.519855,-6.832974,8.207502,-5.1778502,9.472416,-9.167333,7.2740517,8.418544,-11.14954,-3.3904011,-4.3495574,9.913715,9.468157,7.5458536,-7.838512,-5.4160857,-6.9181976,7.8490663,-10.316217,-6.934471,-6.667124,9.529889,9.075241,6.8440843,-5.674631,-5.4369245,-11.50224,7.8081255,-9.2743435,-10.106832,-8.129725,0.94962937,7.3943977,-0.36351773,-5.3224025,7.703885,4.2502713,-7.9036083,7.1197634,-8.464303,-10.254602,-8.963665,-9.3664665,-8.810703,-7.882803,-9.701355,-4.586317,-9.052515,5.3422546,8.749577,-10.99749,-0.6882395,5.908388,5.452723,8.002683,-5.518061,-8.422362,-0.80497086,6.6660056,-2.1007714,6.0602055,-3.5656528,9.866844,-6.3613815,-5.795674,-10.475029,-8.308044,3.1802413,7.1031065,-8.356828,-5.458194,-6.819811,7.291742,9.142385,-6.650172,8.5961075,-8.457927,5.6183567,9.029605,-8.198608,1.7012172,-6.130188,-10.651154,-9.225921,9.035147,6.7240067,10.489034,7.1015377,9.622227,8.596418,5.727759,-10.474086,11.7950735,-10.679389,8.251345,-8.737464,8.260488,6.274809,10.33096,2.520537,-9.618581,-7.927905,8.507312,-9.730013,0.07498889,5.543258,-2.060616,10.140251,7.6250143,6.889197,-4.7091904,-4.20832,5.842611
ache1246,-3.92831,-6.243101,7.5878835,-5.5835423,-8.255335,-8.937206,-6.5722895,0.26140934,6.636837,8.678171,-4.8196464,7.018559,5.3337913,7.9404535,-7.8372917,-8.717108,3.7207015,-8.0272255,-8.182752,-6.3930197,7.773007,4.6594305,4.507355,-6.4998116,2.5225694,8.50483,6.6675396,6.3451505,7.219075,7.229242,8.249682,3.3614411,-5.147267,-4.4130454,-7.3661795,-7.25142,4.383718,-6.513412,7.4661903,-7.8227243,6.928462,-4.388563,6.9471207,6.4475336,7.354066,-7.030353,1.4249679,4.1575136,8.860172,8.299855,6.0065007,2.85382,-7.3893704,8.114257,-8.13831,9.119553,3.6216342,-8.999966,8.036771,6.724422,-5.862103,7.0196686,6.625912,5.984574,4.96417,7.734156,6.5653844,2.4412606,6.4165325,1.9209198,6.792217,-8.643706,4.2768383,5.974561,4.538687,-2.439721,-3.7921512,6.2783966,6.0795345,-1.7159396,-4.651268,-1.8409739,7.2058406,8.504326,-3.9226277,4.4085307,-1.9773834,4.1775665,-6.0670967,-7.5796847,7.595694,-6.639541,-8.057701,1.4220357,-5.317311,8.837064,-5.7267537,-4.761608,7.565222,7.4659805,9.112416,5.7850275,4.284566,4.687563,5.669202,-6.8090715,7.935799,7.205829,6.1819644,6.763248,-8.849764,2.7578282,-7.600545,1.4465001,3.8635895,-8.828378,-7.4533143,-0.33330694,7.0627403,-7.6794157,-3.3271537,6.1748652,-8.174954,-4.9556837,-6.708356,1.1524427,8.558749,5.903861,-7.3477764,5.5126896,8.694687,7.8080425,-5.93027,-5.466118,6.304631,-8.400484,-3.9697263,-8.844532,-4.879091,5.6808224,-6.823823,-6.616106,7.6153183,-2.6136913,-5.372775,7.0741477,-8.693873,8.8909645,-2.0176463,5.4415517,7.5989437,-5.4499846,-8.558596,-6.3477426,4.5508246,4.676555,2.0526607,-8.966779,-8.026231,-6.1531076,3.9470654,-4.550225,-6.8385735,-8.832383,3.7090912,4.1172123,2.5955784,-7.929244,-7.037133,-5.7245765,8.830811,-6.5985136,-4.201809,-8.225842,6.1509576,8.081707,-5.502277,-7.191445,5.4695463,7.258102,-4.6466284,8.411797,-3.0110912,-7.523195,-1.8090134,-3.686036,-4.757431,-9.236536,-5.7900515,-8.102546,-7.9344616,7.596227,5.5137167,-5.901539,-4.2645135,6.0291924,6.771025,6.6323237,-6.724663,-1.695749,-4.8717127,1.4475057,-6.2137566,7.1479397,-7.4774027,7.3791943,-9.169647,-7.9824157,-4.297992,-9.716717,7.8439984,8.423273,-7.948901,-7.052366,-8.784088,6.441894,7.925263,0.655051,7.9231143,-5.349663,5.7379727,3.215059,-2.8370702,5.224348,-8.132733,-4.9269323,-5.566014,4.3191376,6.666181,5.647171,8.711652,3.9595497,7.7607174,9.218199,-4.4472566,6.667717,-4.090397,2.4714754,-5.3090205,4.307353,7.683193,5.024852,6.9334307,-5.250968,-7.337649,8.459024,-7.7628202,-4.685447,6.553758,-5.8526464,4.7542334,5.0776367,1.3555741,-3.5501657,-5.988165,7.1463685
achu1248,-8.374115,-9.262865,9.381516,-2.3531957,-4.547973,-9.181574,-8.507002,-4.76355,8.712855,9.018319,-7.6600137,8.924475,9.793449,7.762462,-6.5650086,-8.500831,6.7692466,-8.66507,-10.654339,-9.027386,9.52376,11.017439,10.009745,-3.4361613,7.6373434,7.6932154,4.1806903,10.059653,7.0698376,5.447206,9.165725,7.9539876,-8.261764,-10.561871,-10.558244,-8.124803,4.8763003,-2.6788223,4.411994,-5.378527,10.390217,-10.075177,7.647153,4.970774,9.486172,-8.348633,6.538397,7.180239,9.897791,9.104654,9.642352,9.138573,-9.822211,8.100812,-7.5739317,7.0182147,9.415052,-7.7440395,7.1992617,6.78732,-5.229995,8.041096,8.71748,9.934475,9.836589,6.3537016,5.678878,8.009356,10.846939,6.2990704,5.8755193,-7.25838,6.685796,9.357505,10.088618,-6.6963453,-9.500554,8.736495,10.307004,-6.0971622,-10.255612,-5.9596148,6.291358,6.9095907,-8.999728,7.726983,-6.999872,9.385239,-4.192215,-7.4733524,4.907959,-10.626572,-6.172157,6.2595377,-7.8375964,8.2090645,-8.79408,-7.1758595,7.608366,6.159469,9.04743,10.007073,9.982932,9.94313,8.236933,-10.989242,8.366092,4.1908216,8.255902,7.38167,-9.129959,8.234587,-6.2291164,7.0338306,8.924025,-8.151473,-4.249015,4.871127,5.5890827,-8.758072,-6.856069,9.406938,-9.862862,-7.7589664,-10.703012,7.1860285,8.048243,10.709898,-7.942679,1.8406742,8.281146,9.100165,-7.9912815,-10.794355,9.659079,-6.892834,-9.362572,-10.202565,-9.723641,8.793181,-7.1431007,-3.8816423,8.265904,-7.9493365,-7.194852,9.109592,-7.0947795,10.689618,-8.4701395,7.810748,9.395529,-11.151519,-5.4112825,-5.549664,9.81204,9.341359,7.109921,-9.608376,-7.137843,-7.6101685,7.9922695,-10.192,-8.021755,-8.287674,9.20381,8.957127,6.6502013,-7.1966324,-6.688672,-11.488361,9.274947,-9.766621,-9.833227,-9.149262,2.6805773,8.658897,-2.1144314,-6.5445275,8.144071,5.951619,-8.044516,8.572452,-7.9061236,-11.034105,-8.398874,-9.0877495,-8.647203,-9.64755,-9.877227,-6.395121,-10.110212,6.6962523,9.015278,-11.209782,-2.0711968,6.5702596,6.726215,8.744662,-6.781609,-7.6577706,-2.2704778,6.160546,-3.6055486,6.863144,-5.067062,10.621527,-8.338701,-7.163772,-10.225134,-10.106659,5.1840467,8.486195,-9.442796,-6.770847,-8.488267,8.1503,9.962402,-5.702511,9.743769,-8.546246,6.4551635,8.501831,-7.944801,2.8919396,-7.624039,-10.58593,-9.554162,8.752207,7.529949,10.769034,8.857421,9.29999,9.692785,7.658051,-10.399944,12.085561,-10.296034,7.779708,-9.082212,8.384809,7.700994,10.496431,4.2876062,-9.940767,-9.174084,9.979359,-10.648406,-1.196539,6.74411,-3.5486908,9.986857,7.802039,6.315797,-5.097375,-5.387525,7.175109
aika1237,-5.511792,-6.8645988,7.677991,-3.7731519,-5.992472,-8.227596,-6.8577814,-1.8816563,6.914723,8.003072,-5.50748,7.1444526,6.7324123,7.250728,-6.659684,-7.9068327,4.8691554,-7.6540256,-8.377907,-7.0298204,7.8125424,6.8667536,6.492409,-4.5669417,4.4802337,7.4635706,5.045419,7.2566724,6.604974,5.9515176,7.9223638,5.0000916,-6.030326,-6.827431,-8.064326,-7.0548716,4.2186947,-4.4286227,5.553594,-5.9746094,7.7975235,-6.473496,6.5200663,5.2884617,7.649098,-6.905503,3.4847014,5.05861,8.452845,7.832453,6.972212,5.323842,-7.827011,7.282104,-7.183579,7.4031186,5.649986,-7.6405535,6.8240614,6.171866,-5.0650625,6.7958784,6.949326,6.9398584,6.6151814,6.4516134,5.7227116,4.7168455,7.7925153,3.6538844,5.7442217,-7.193453,4.9740295,6.7371807,6.476303,-4.091189,-5.952356,6.8148737,7.329198,-3.5647278,-6.7871933,-3.6596699,6.1587806,7.114436,-5.822146,5.495806,-3.8263328,5.956039,-4.7144384,-6.842429,5.7858887,-7.8094125,-6.5209966,3.243916,-5.8372254,7.872563,-6.570773,-5.3240533,6.875179,6.261793,8.332411,7.0464244,6.4511547,6.5009775,6.2008095,-7.966187,7.4769235,5.3858876,6.4221263,6.452542,-7.999855,4.80542,-6.4474564,3.701519,5.7316294,-7.714868,-5.430791,1.9060173,5.869928,-7.3718653,-4.673471,6.9779463,-8.157823,-5.6705256,-7.9797807,3.543779,7.4321036,7.370203,-6.9392753,3.500576,7.7348347,7.7090697,-6.3377047,-7.3326073,7.1447525,-6.966985,-6.028064,-8.565626,-6.6050506,6.498214,-6.4389153,-4.87069,7.1641455,-4.64742,-5.6460233,7.215469,-7.2593594,8.9031925,-4.6094646,6.0446587,7.6270638,-7.325408,-6.466574,-5.354995,6.4604316,6.3648314,4.0043993,-8.348215,-6.871918,-6.1284156,5.3962235,-6.660763,-6.755807,-7.7974753,5.80977,5.894045,4.2201834,-6.9656143,-6.3327017,-7.6950803,8.127932,-7.3051276,-6.214602,-7.9990916,4.0652704,7.689535,-3.4546118,-6.1732717,6.079874,6.090956,-5.751467,7.785518,-4.918016,-8.256779,-4.2347646,-5.54851,-6.0436215,-8.532008,-7.074153,-6.6803813,-8.130406,6.5416555,6.5662193,-7.6764283,-2.944548,5.8551655,6.297434,6.9091806,-6.1195173,-4.0972424,-3.2890365,3.2648442,-4.580694,6.6379614,-5.8444786,8.204218,-7.8702784,-6.8695893,-6.4772058,-9.100569,5.963931,7.7203712,-7.794634,-6.1705794,-7.8644586,6.5726624,8.129007,-2.114099,8.0722475,-6.329283,5.3777,5.254817,-4.775095,3.7250874,-7.126972,-6.804318,-6.8381815,5.864285,6.4112873,7.3673954,7.9090424,5.9841595,7.9363317,7.8232718,-6.5796385,8.320644,-6.440192,4.4482937,-6.480639,5.837147,6.9454026,6.8827195,5.181373,-6.8123093,-7.542278,8.253109,-8.19459,-2.83074,6.1465964,-4.4520297,6.6897388,5.799021,3.3640149,-3.9513578,-5.115925,6.5662203
ajyi1238,-7.380557,-8.669593,8.991749,-3.2554796,-5.633069,-9.30328,-8.2176,-3.409262,8.252081,9.106104,-7.087251,8.538479,8.876265,8.015138,-6.9786086,-8.689573,6.260172,-8.704301,-10.195532,-8.561819,9.246253,9.482321,8.902808,-4.261303,6.519453,8.091535,4.989778,9.207038,7.253461,6.169357,9.172134,6.8422036,-7.588542,-9.134001,-9.911089,-8.122795,4.8995733,-3.853292,5.4158173,-6.1233606,9.729883,-8.7702265,7.551236,5.447687,9.174677,-8.164676,5.380333,6.526242,9.815487,9.112141,8.876579,7.6032925,-9.359644,8.263986,-7.8542953,7.793792,8.093282,-8.219757,7.6128597,6.86588,-5.456749,7.905398,8.531946,9.14657,8.83735,6.858279,6.1142945,6.8468657,9.906916,5.2871537,6.065483,-7.6811247,6.187483,8.617869,8.920907,-5.732096,-8.157702,8.426405,9.367342,-5.1515293,-9.133975,-5.0309243,6.529019,7.483715,-7.9528775,7.130911,-5.792932,8.175067,-4.75666,-7.635669,5.8536797,-9.836647,-6.729909,5.219423,-7.3949723,8.628448,-8.344988,-6.708923,7.790389,6.5666385,9.361073,9.14001,8.734076,8.858391,7.719386,-10.114603,8.509937,5.0681486,7.9209857,7.3318276,-9.193201,6.9591117,-6.944694,5.653779,7.707656,-8.506946,-5.2093415,3.752301,6.0984964,-8.572572,-6.078153,8.729436,-9.607607,-7.2737617,-9.859766,5.7060103,8.35305,9.697949,-7.995544,2.836913,8.549328,9.003177,-7.637108,-9.604549,8.984297,-7.507989,-8.213222,-10.083624,-8.676827,8.145479,-7.09201,-4.790472,8.293323,-6.5327835,-6.708703,8.750439,-7.59813,10.397404,-6.988193,7.3995285,9.111364,-9.848874,-6.3079767,-5.9436193,8.659633,8.28321,5.9902344,-9.662109,-7.633094,-7.260554,7.2524004,-9.009883,-7.962365,-8.638666,7.9897695,7.9387136,5.904416,-7.4804316,-7.01732,-10.268159,9.294691,-9.007636,-8.528214,-9.090849,3.6380959,8.817144,-2.9564834,-6.6705613,7.6838226,6.370882,-7.3581433,8.78546,-6.754928,-10.4416895,-6.7724676,-7.86697,-7.8280473,-9.831416,-9.0128765,-7.0337467,-9.684058,7.032334,8.419887,-9.978554,-2.6782532,6.562128,6.920841,8.33468,-7.001722,-6.3258476,-2.9502304,5.1019454,-4.4182324,7.131073,-5.917129,10.015962,-8.798014,-7.5600095,-8.738846,-10.228632,6.047774,8.663032,-9.335904,-6.8169746,-8.743905,7.8747754,9.653495,-4.157935,9.536619,-7.809351,6.3326597,7.3105836,-6.7155905,3.5486948,-7.809036,-9.160274,-8.791921,7.706615,7.364501,9.655715,9.049823,8.112484,9.46796,8.336721,-9.081879,10.862841,-9.001719,6.488286,-8.338341,7.4892807,7.8446326,9.369991,4.945242,-8.99507,-8.990739,9.780076,-10.05605,-2.131527,6.9817114,-4.211316,8.821616,7.128097,5.0983005,-4.8986154,-5.593349,7.2600756
akun1241,-5.780099,-7.169956,7.768416,-3.3685043,-5.5979013,-8.0402155,-6.939391,-2.39442,7.0128407,7.8366756,-5.5910673,7.2330494,7.052619,7.195271,-6.416605,-7.6605506,5.070697,-7.4996953,-8.338978,-7.1792254,7.822744,7.2948112,6.7640734,-4.1939626,4.8831396,7.2587585,4.793337,7.4576526,6.5546813,5.750192,7.8920035,5.3266587,-6.294561,-7.2563066,-8.164977,-7.032235,4.246025,-4.111835,5.097189,-5.759596,7.935272,-6.905851,6.503925,5.148877,7.5980268,-6.9366064,3.836421,5.2753024,8.421291,7.830671,7.2236814,5.659246,-7.826745,7.2970576,-7.0651693,7.0446353,6.0513487,-7.3997,6.618645,6.097821,-4.8651323,6.8235717,7.0212307,7.178687,7.0304604,6.169383,5.532661,5.096252,7.942586,3.9771912,5.667325,-6.911784,5.148492,6.940425,6.923477,-4.327041,-6.2769823,7.0041437,7.6713605,-3.946881,-7.108448,-3.9792132,5.8790402,6.836734,-6.1499634,5.6842036,-4.1568546,6.232861,-4.45962,-6.796391,5.4399076,-7.946794,-6.1877394,3.5281684,-5.9391103,7.6180496,-6.7549157,-5.466441,6.794766,6.0244913,8.09575,7.234188,6.7847238,6.8688293,6.2707834,-8.162658,7.3842874,5.108663,6.614195,6.273957,-7.9374495,5.088711,-6.344589,4.1088605,6.0070558,-7.358503,-5.173674,2.2828965,5.641624,-7.4751544,-4.9265437,7.1585407,-8.190817,-5.780421,-8.096849,3.9794362,7.326421,7.5767393,-6.852656,3.1553652,7.559363,7.7060175,-6.4115195,-7.589976,7.336737,-6.7541637,-6.3723536,-8.5263,-6.957803,6.686296,-6.303104,-4.610674,7.1518292,-4.97875,-5.744716,7.343543,-7.019672,8.878867,-5.0795364,6.190029,7.7437806,-7.747668,-6.099056,-5.251026,6.7534113,6.594865,4.4246235,-8.198561,-6.7244654,-6.1927266,5.616838,-6.897377,-6.707261,-7.6463933,6.211633,6.237254,4.5284677,-6.7388353,-6.232608,-7.9510336,8.016534,-7.487982,-6.652833,-7.879898,3.8392437,7.6728034,-3.052068,-6.044948,6.2172136,5.8535666,-5.9935145,7.698648,-5.2301884,-8.41011,-4.677458,-5.915075,-6.3875995,-8.442511,-7.2969956,-6.4130588,-8.162418,6.354398,6.8129387,-7.9268293,-2.6913679,5.855563,6.191319,7.022728,-6.0035987,-4.5580416,-3.0727005,3.6873622,-4.3022127,6.549859,-5.623172,8.180483,-7.672731,-6.837364,-6.8185396,-8.952217,5.681842,7.6146784,-7.85025,-5.999378,-7.7130275,6.6043096,8.158938,-2.5331569,8.059998,-6.456398,5.397667,5.6419883,-5.054199,3.4208903,-6.9859195,-7.1509156,-7.0188956,6.1901393,6.4211617,7.4907703,7.8139954,6.2958713,7.9427843,7.5231886,-6.878564,8.683155,-6.810928,4.8781695,-6.594328,5.960529,6.8265944,7.2892385,4.879064,-7.1030436,-7.4832153,8.279857,-8.365133,-2.4837956,5.94398,-4.0139933,6.9285626,5.946221,3.7647116,-3.949534,-5.045612,6.420545
amah1246,-6.850214,-8.247838,8.88842,-3.637598,-5.9471045,-9.270837,-8.053064,-2.9476252,8.085073,9.116018,-6.69237,8.414631,8.40232,8.072847,-7.1606407,-8.737178,5.9216986,-8.603062,-9.891956,-8.344869,9.054493,8.820745,8.3340645,-4.5450854,6.0318108,8.19661,5.148531,8.870367,7.302935,6.26355,9.015051,6.3884516,-7.2715807,-8.591799,-9.612434,-8.019467,4.7903852,-4.2080216,5.6690063,-6.305327,9.3877735,-8.202987,7.5380707,5.556205,8.892159,-7.971874,4.8272676,6.170766,9.677474,8.936348,8.467443,7.0578313,-9.146813,8.146868,-7.8425303,7.9815536,7.5088143,-8.40825,7.6329684,6.876889,-5.46215,7.8326144,8.186454,8.683177,8.311789,7.011202,6.1681147,6.2772145,9.509414,4.812979,6.185237,-7.846185,5.989739,8.194052,8.37169,-5.3044667,-7.7429094,8.092658,8.870126,-4.6661696,-8.557199,-4.6798763,6.6212544,7.5991416,-7.4050264,6.7937717,-5.2998414,7.602383,-4.9324317,-7.6250544,6.075174,-9.418683,-6.9999495,4.626837,-7.0886893,8.647506,-7.9964676,-6.4218273,7.7680316,6.7107596,9.331428,8.619421,8.195533,8.301535,7.446678,-9.657615,8.424675,5.321461,7.611846,7.326897,-9.097557,6.3652196,-6.9191504,5.1819487,7.269441,-8.631218,-5.394704,3.2447069,6.3112307,-8.476084,-5.7764626,8.395037,-9.47382,-6.8965173,-9.558372,5.0344787,8.327649,9.193565,-7.841366,3.2519574,8.6387205,8.93007,-7.4416842,-9.106706,8.677583,-7.6082745,-7.6158404,-9.89233,-8.207025,7.850948,-7.2013817,-4.951501,8.202076,-6.0982,-6.566019,8.499342,-7.8014235,10.275145,-6.368972,7.160912,8.862494,-9.273625,-6.6295834,-5.9147167,8.234366,7.818248,5.511745,-9.5725975,-7.6821465,-7.077956,6.850168,-8.450014,-7.8372617,-8.659287,7.4601555,7.5118537,5.423326,-7.628404,-6.943567,-9.686202,9.263998,-8.684509,-7.9939017,-9.046554,4.024673,8.696055,-3.3352973,-6.745629,7.319042,6.503405,-6.909837,8.79645,-6.269636,-10.076222,-6.0607157,-7.3200216,-7.4075704,-9.70163,-8.596177,-7.200452,-9.484084,7.1194634,7.9537454,-9.527805,-2.9509273,6.4903407,6.9355197,8.152044,-6.905055,-5.7034273,-3.216438,4.554138,-4.611491,7.101036,-6.0964913,9.703243,-8.908008,-7.536043,-8.212754,-10.204546,6.2125483,8.582971,-9.026464,-6.863025,-8.7065,7.7010174,9.404866,-3.5677369,9.389419,-7.5120664,6.164456,6.7611604,-6.2678113,3.781064,-7.865407,-8.659884,-8.432305,7.288367,7.2383337,9.207079,9.049748,7.550626,9.27362,8.51984,-8.551715,10.337869,-8.317625,5.9310627,-7.932242,7.177837,7.798668,8.806263,5.3469095,-8.461155,-8.79016,9.605749,-9.7939005,-2.4792175,6.952341,-4.4139166,8.413129,6.8589964,4.64694,-4.6972966,-5.6494627,7.360409
ando1256,-8.202963,-8.8997555,8.72522,-1.8845953,-3.9237661,-8.45202,-8.014885,-4.7863274,8.20734,8.340081,-7.2719316,8.360457,9.416844,7.216132,-5.949868,-7.9246597,6.542964,-8.105209,-9.938474,-8.569019,8.915589,10.704662,9.695289,-2.9412673,7.4702435,7.009967,3.7170954,9.454901,6.570232,5.0104985,8.690574,7.7294965,-7.846514,-10.391236,-9.999592,-7.5778275,4.615437,-2.2240448,3.802071,-4.729545,9.898782,-9.827944,7.0784655,4.5528564,9.054816,-7.906135,6.4826474,6.9667764,9.161209,8.492883,9.258458,9.018654,-9.254554,7.6208553,-6.9550705,6.1849203,8.998444,-6.95718,6.4774003,6.253001,-4.820657,7.4990087,8.321309,9.433045,9.597956,5.826479,5.294044,7.9089656,10.341813,6.2183304,5.386087,-6.562646,6.3518276,8.936665,9.807226,-6.5916333,-9.103471,8.410061,9.98291,-6.06933,-9.97145,-5.8728595,5.7926855,6.2622056,-8.740043,7.2867236,-6.751089,9.032987,-3.6732063,-6.922676,4.319948,-10.16659,-5.453955,6.077435,-7.3921833,7.5451236,-8.433469,-6.854763,6.994369,5.6316204,8.346668,9.675219,9.6885395,9.610007,7.899918,-10.369172,7.796255,3.6916146,7.8702,6.804466,-8.4364805,8.05102,-5.659403,6.8872595,8.660492,-7.3228717,-3.7590947,4.900179,5.036225,-8.206073,-6.6483393,9.018958,-9.201675,-7.379899,-10.133517,7.1505804,7.415824,10.312394,-7.4583864,1.3881344,7.626578,8.486353,-7.619666,-10.397845,9.266114,-6.1997223,-9.092793,-9.479223,-9.46125,8.443501,-6.62122,-3.5101252,7.744234,-7.7651153,-6.809896,8.54954,-6.348491,9.997113,-8.313571,7.411445,8.826323,-10.757321,-4.771269,-5.1025443,9.497665,8.977953,6.964241,-8.849112,-6.5490093,-7.1244135,7.717372,-9.914473,-7.4365835,-7.596523,9.103969,8.611565,6.5153823,-6.6082478,-6.236047,-11.091815,8.563333,-9.293807,-9.567667,-8.662414,2.083482,8.132649,-1.5815231,-6.0298767,7.808756,5.345773,-7.7410445,7.90989,-7.783325,-10.508149,-8.083293,-8.862568,-8.478937,-8.957762,-9.563929,-5.7369,-9.490425,6.210148,8.736989,-10.724542,-1.6517719,6.2245164,6.1555843,8.230615,-6.274617,-7.6345816,-1.8116735,6.0430017,-3.1750374,6.566661,-4.6444793,10.098225,-7.565694,-6.660822,-9.888544,-9.299226,4.5379376,7.9242935,-8.915726,-6.1200604,-7.808894,7.59023,9.417289,-5.724425,9.125325,-8.2542,5.991682,8.372526,-7.6734915,2.5068545,-7.002323,-10.1105175,-9.14362,8.523221,7.1301355,10.217632,8.095524,9.088318,9.096029,6.905086,-10.076494,11.478715,-10.02549,7.6698895,-8.677385,8.083666,7.0714483,9.997858,3.663718,-9.53337,-8.531805,9.256181,-10.049153,-0.870074,6.2149005,-3.0903664,9.673109,7.4975963,6.189661,-4.8952417,-4.8265457,6.574298
ango1257,-8.866807,-8.89615,8.547469,-0.70798546,-2.3545747,-7.5134754,-7.6728787,-6.0567493,8.039629,7.5966935,-7.4559293,8.00654,9.77601,6.3347087,-4.9362736,-7.054232,6.8550487,-7.4138265,-9.552023,-8.472739,8.614184,11.749481,10.34058,-1.750444,8.385923,5.980691,2.4806402,9.637276,5.935661,3.8135374,8.155405,8.43582,-8.023966,-11.312825,-10.034011,-7.185467,4.370351,-0.56998265,2.4175293,-3.4950402,9.863597,-10.713278,6.437587,3.5474098,8.844106,-7.548279,7.2790546,7.257373,8.479345,7.9851565,9.444768,9.951588,-9.13329,7.015094,-6.1410766,4.8380165,9.770054,-5.9276714,5.450248,5.726177,-4.1592956,6.9809403,8.058223,9.608204,10.181145,4.633807,4.57524,8.7394905,10.713117,6.9074473,4.688433,-5.394375,6.423633,9.179086,10.439317,-7.2179136,-9.916639,8.146121,10.31885,-6.688841,-10.642813,-6.4564137,4.928627,4.948605,-9.396195,7.4422073,-7.3762174,9.673045,-2.736878,-6.119912,2.793962,-10.231204,-4.330368,6.9022417,-7.368213,6.4835835,-8.200989,-6.9658504,6.13015,4.5015306,7.3288093,9.925475,10.353774,10.202212,7.891912,-10.541858,7.2094574,2.4851058,7.708989,6.542715,-7.5174007,8.971371,-4.6286964,7.944731,9.373171,-6.0895805,-2.5005157,5.7056794,4.0008845,-7.8345137,-6.9506197,9.222784,-8.872803,-7.5146,-10.3102,8.205873,6.435541,10.70724,-6.750672,-0.031384915,6.565862,8.124973,-7.6388955,-11.081561,9.390834,-4.914533,-9.768872,-8.907517,-9.982653,8.55414,-6.098537,-2.224893,7.3075066,-8.795508,-6.993337,8.341689,-5.1695466,9.5996,-9.341187,7.3550053,8.434268,-11.370275,-3.3742397,-4.2865252,10.135784,9.660338,7.729546,-7.954245,-5.4017415,-7.067608,7.9899216,-10.514167,-7.041365,-6.6773334,9.76746,9.288762,6.920588,-5.738811,-5.414478,-11.757637,7.9505677,-9.380469,-10.323488,-8.188193,0.90713793,7.4322996,-0.28910443,-5.393647,7.751361,4.2791348,-8.031325,7.185394,-8.705178,-10.460767,-9.268741,-9.601253,-8.940329,-7.9104176,-9.826148,-4.5703354,-9.166315,5.3312283,8.793516,-11.30291,-0.59443223,5.933277,5.434953,8.136878,-5.491686,-8.651452,-0.74892414,6.770718,-1.9677498,5.987696,-3.4248493,10.1359415,-6.3670955,-5.716906,-10.759353,-8.387787,3.0390759,7.1494107,-8.37669,-5.606718,-6.877119,7.374464,9.25442,-6.9304066,8.713173,-8.671799,5.592675,9.156915,-8.528001,1.6921766,-6.1879053,-10.920582,-9.440842,9.221647,6.855526,10.752001,7.1527324,9.8412285,8.7012005,5.6967983,-10.654808,12.035383,-10.882313,8.425796,-8.947476,8.468534,6.338727,10.489576,2.6218061,-9.75285,-8.03064,8.641497,-9.907328,0.17925793,5.6154003,-2.0117245,10.414051,7.692809,7.078797,-4.812722,-4.2161064,5.9650435
apin1244,-4.8014116,-5.557462,6.102859,-2.4233377,-4.025693,-6.119545,-5.423451,-2.2242951,5.5591254,6.0334773,-4.3376684,5.439145,5.748494,5.5872593,-4.8100004,-5.9873643,4.1938095,-5.78766,-6.422008,-5.7603707,6.0831375,5.9625006,5.6317105,-2.9518778,4.071941,5.520647,3.544738,5.8372655,5.1354,4.458855,6.2003684,4.38489,-5.045848,-6.08556,-6.4829965,-5.5245013,3.2639174,-2.934646,3.746908,-4.237701,6.3685474,-5.5750666,4.906671,3.9900134,6.041271,-5.3759975,3.1958516,4.240535,6.362921,6.051822,5.8049283,4.820232,-6.258243,5.5625606,-5.375883,5.2158546,4.776898,-5.5966845,4.908814,4.7257543,-3.8152053,5.2461443,5.474008,5.6344757,5.656656,4.6643744,4.3458385,4.324569,6.448086,3.3332078,4.310737,-5.1614556,4.05246,5.4017024,5.571782,-3.7148263,-5.1794868,5.5698833,6.089131,-3.3699796,-5.8980713,-3.41416,4.6213098,5.070416,-4.9826474,4.5913353,-3.3507802,5.061498,-3.290154,-5.118192,3.9425874,-6.2516146,-4.6629257,2.830759,-4.595666,5.8429627,-5.347923,-4.40998,5.013896,4.5528193,6.1536837,5.780943,5.609847,5.6143026,5.0106916,-6.340793,5.7944293,3.879767,5.06679,4.976777,-5.8954415,4.244629,-4.7431893,3.4169114,4.9184046,-5.5338054,-3.8608747,1.9292451,4.287053,-5.7324667,-3.9338188,5.6588197,-6.2905827,-4.630532,-6.5827193,3.3651035,5.495886,6.1107855,-5.3672633,2.1133113,5.6417623,6.088274,-5.2308292,-6.2683372,6.0146966,-4.9260035,-5.122019,-6.520791,-5.662351,5.2352953,-4.8620334,-3.413405,5.4342856,-4.2822666,-4.682586,5.646749,-5.1693535,6.9237905,-4.3070674,4.8587356,5.7409773,-6.268987,-4.471542,-4.0062494,5.5004425,5.488909,3.5883381,-6.2022934,-5.0719466,-4.8529224,4.4572687,-5.809383,-5.1906204,-5.8624287,5.167978,5.115746,3.6500921,-5.2500243,-4.7107453,-6.514719,6.147132,-5.860884,-5.337992,-6.2846403,2.5630832,5.9692745,-1.9750558,-4.6392155,4.919803,4.4255323,-5.0324297,5.8006325,-4.4017396,-6.4396257,-3.7252774,-4.773434,-5.227343,-6.2819157,-5.892287,-4.739745,-6.368935,4.752928,5.4834647,-6.463653,-1.8288618,4.8360295,4.7137575,5.452195,-4.613908,-3.8840392,-1.9803447,2.9870203,-3.1299088,5.25751,-4.287634,6.579741,-5.6507106,-5.100059,-5.6284943,-6.8965898,4.064095,5.9323845,-5.919132,-4.4165134,-5.737856,5.116904,6.679762,-2.1961432,6.211564,-5.413001,4.0965734,4.770391,-4.2433596,2.5996642,-5.139937,-5.819062,-5.658244,5.1956306,4.958745,6.034705,5.7247667,5.2629185,6.1783347,5.7957535,-5.5716662,6.830439,-5.7049394,3.9783726,-5.358613,4.9338484,5.2036524,5.910903,3.5989213,-5.6103077,-5.8309717,6.3064885,-6.437057,-1.7649642,4.637166,-3.0665002,5.875116,4.9454613,3.1842272,-3.2114525,-3.7051,4.8416657
apol1242,-6.088936,-7.830157,8.549436,-4.175694,-6.6489787,-9.228688,-7.6560907,-2.195492,7.738271,8.904778,-6.230722,8.03843,7.52054,8.087619,-7.359679,-8.757464,5.3929563,-8.531021,-9.422078,-7.897707,8.690993,7.7914815,7.2102003,-5.176788,5.107639,8.298004,5.650139,8.223053,7.3267717,6.568203,8.818442,5.5203557,-6.780751,-7.5991564,-8.989279,-7.829815,4.7147436,-4.89514,6.1326394,-6.714692,8.706515,-7.282121,7.3560667,5.8668246,8.440544,-7.730583,3.8526871,5.729713,9.413057,8.766722,7.784632,5.856128,-8.620348,8.31582,-8.054585,8.236136,6.4792237,-8.599684,7.771057,6.917466,-5.6111274,7.57466,7.822658,7.982319,7.4654655,7.171957,6.1890516,5.232869,8.644801,4.130435,6.383524,-8.092709,5.6070557,7.6322856,7.2787266,-4.592614,-6.7318587,7.6286507,8.295698,-4.003211,-7.553045,-4.0103216,6.785887,7.9378896,-6.5135083,6.1419144,-4.3971424,6.7163873,-5.216218,-7.709531,6.4530325,-8.692473,-7.2353764,3.7700725,-6.6468024,8.732969,-7.386999,-6.016684,7.782138,6.8559027,9.324939,7.956103,7.112793,7.367707,6.9685917,-8.98475,8.316053,5.952698,7.4130344,7.054005,-9.069343,5.318156,-7.2268124,4.162339,6.339873,-8.62405,-5.9925203,2.2966409,6.493162,-8.26008,-5.187183,7.873265,-9.10046,-6.4026523,-8.727849,3.990045,8.422399,8.344661,-7.724386,3.9420695,8.733236,8.570863,-7.1334114,-8.101411,8.026314,-7.8105235,-6.7772713,-9.691249,-7.3208933,7.337731,-7.1095686,-5.447353,8.038083,-5.166148,-6.215209,8.213327,-8.0973425,9.923503,-5.1511655,6.7628036,8.634295,-8.270151,-7.2542577,-6.039045,7.257224,6.9964733,4.61669,-9.303777,-7.827804,-6.8520336,6.163676,-7.4257774,-7.57711,-8.717396,6.5117927,6.5630364,4.756955,-7.668028,-7.0215716,-8.568995,9.111151,-8.155697,-7.0636034,-8.808505,4.6405153,8.554114,-3.9262276,-6.75295,6.8299413,6.742665,-6.4380493,8.752774,-5.4626684,-9.382586,-4.832364,-6.3502526,-6.762025,-9.61881,-7.859813,-7.5114217,-9.072307,7.3221607,7.398609,-8.584884,-3.3331306,6.394731,6.8922715,7.721743,-6.7623677,-4.6779375,-3.6642303,3.7818298,-5.044986,7.1713467,-6.482657,8.998804,-8.967638,-7.795553,-7.1048665,-10.035242,6.7903876,8.572845,-8.86712,-6.916686,-8.824248,7.3626227,9.078366,-2.3896646,9.047641,-6.9716663,6.165733,5.7996964,-5.2705474,4.1859813,-8.109004,-7.6177464,-7.564818,6.5902443,7.0723796,8.326803,9.110484,6.590844,8.908639,8.691608,-7.419932,9.480965,-7.293334,5.0418563,-7.2352858,6.350238,7.8220873,7.827636,5.701276,-7.669041,-8.361256,9.304132,-9.235302,-3.1235695,6.8101563,-4.7271776,7.4646635,6.37913,3.837618,-4.298069,-5.694292,7.2852187
apur1254,-6.7242785,-7.8732605,8.290465,-3.040146,-5.2041135,-8.424311,-7.439035,-3.2651713,7.6252365,8.213437,-6.31867,7.746471,8.015834,7.3968196,-6.47738,-7.9781604,5.6971993,-7.925932,-9.092649,-7.8087416,8.423089,8.620312,7.949315,-3.948066,5.8228936,7.380823,4.576047,8.319363,6.725901,5.6529365,8.30759,6.197693,-6.9799266,-8.491506,-8.946893,-7.417596,4.3965306,-3.584423,4.8661675,-5.59025,8.740008,-7.965412,6.839531,5.0817246,8.325556,-7.3970356,4.8015246,5.95311,8.862097,8.292929,8.067025,6.833067,-8.510625,7.5869093,-7.278113,7.0081196,7.209888,-7.56756,6.8194866,6.3646064,-4.986409,7.1957088,7.642778,8.163733,8.069783,6.242889,5.5976667,6.1075215,8.981022,4.81251,5.741418,-6.9762845,5.631531,7.8086314,7.997357,-5.2645717,-7.382482,7.618512,8.603665,-4.6720953,-8.215409,-4.6737685,5.997293,6.8109207,-7.2212577,6.381963,-5.0862417,7.317509,-4.3808193,-6.98003,5.248297,-8.894569,-6.1482477,4.5383534,-6.587636,7.783516,-7.4683456,-6.1180506,7.084382,5.9852943,8.477071,8.244258,7.8876734,7.9537773,6.9496746,-9.1275425,7.8161383,4.784314,7.167262,6.670462,-8.2671995,6.180267,-6.283734,5.094021,7.0525513,-7.664825,-4.8249273,3.210523,5.5540776,-7.8907285,-5.5701923,7.8887696,-8.724576,-6.5345187,-9.028321,5.0974298,7.563001,8.715218,-7.197296,2.6429894,7.8052545,8.212323,-7.036465,-8.70032,8.175331,-6.8079386,-7.489371,-9.067783,-7.934159,7.480665,-6.5591784,-4.3322673,7.560835,-5.984037,-6.238847,7.942317,-7.0111175,9.537176,-6.2985897,6.7376294,8.284783,-8.906561,-5.824473,-5.312007,7.819609,7.565004,5.36083,-8.656918,-6.813796,-6.6433415,6.542931,-8.116688,-7.1747227,-7.81961,7.234663,7.1589756,5.2815814,-6.857366,-6.464898,-9.228308,8.386675,-8.275181,-7.7934656,-8.328843,3.323259,7.9947176,-2.695586,-6.0676293,6.8474274,5.8446407,-6.733226,8.033507,-6.195942,-9.322345,-5.9286933,-7.0760427,-7.1816354,-8.892593,-8.192876,-6.3671904,-8.809027,6.462845,7.6502285,-8.9966955,-2.460852,6.1352515,6.330769,7.595683,-6.246606,-5.6259646,-2.7216868,4.5451183,-4.031664,6.6540055,-5.438992,9.082505,-7.8850746,-6.9561744,-7.922556,-9.257121,5.454881,7.908257,-8.384807,-6.28075,-7.87573,7.168463,8.799597,-3.655067,8.65778,-7.2339716,5.7227564,6.6126857,-5.9927416,3.2683911,-7.236688,-8.32143,-7.8956704,7.116104,6.6764116,8.697414,8.175914,7.346565,8.561876,7.5352426,-8.139484,9.87,-8.076997,5.8611393,-7.3991194,6.8156314,7.130889,8.358292,4.5687184,-8.111671,-8.0662155,8.81596,-9.063935,-2.0016038,6.1923976,-3.8337367,8.049231,6.508283,4.65673,-4.315179,-5.056687,6.615208
arao1248,-6.502275,-7.916653,8.547377,-3.597429,-5.946906,-8.95719,-7.7159753,-2.757897,7.828203,8.826208,-6.3949356,8.014799,7.94262,7.815448,-7.044699,-8.450177,5.6175838,-8.332423,-9.539502,-7.9242153,8.702514,8.338072,7.7394133,-4.570443,5.5508885,7.9628053,5.1214337,8.395725,7.11146,6.1169696,8.652496,6.0261316,-6.9533668,-8.106337,-9.1998825,-7.764212,4.592177,-4.30728,5.5729046,-6.2316422,8.932315,-7.727297,7.2494974,5.5282507,8.514833,-7.737016,4.5506554,5.9093986,9.297788,8.682218,8.04142,6.5628448,-8.669862,7.985523,-7.7012525,7.751499,7.038714,-8.172962,7.4281697,6.6596475,-5.3419104,7.5618267,7.7978396,8.150407,7.843806,6.7369657,5.973532,5.8104143,8.902376,4.546633,6.083501,-7.6779213,5.7068796,7.8381824,7.835968,-4.9791193,-7.2522173,7.736531,8.503083,-4.3758554,-8.036956,-4.39468,6.525797,7.4217424,-6.9815626,6.409514,-4.8906393,7.1153045,-4.9131284,-7.462817,5.9871335,-9.047791,-6.7857776,4.1877184,-6.7037144,8.427254,-7.6027617,-6.102411,7.552718,6.6444902,8.97209,8.203219,7.6163015,7.7728066,7.0628376,-9.205919,8.108056,5.376559,7.2880416,7.0740733,-8.826707,5.8981376,-6.840639,4.7586384,6.8087864,-8.320401,-5.3398414,2.7953181,6.208056,-8.201027,-5.506477,7.9110503,-9.115316,-6.5663333,-9.089529,4.6514187,8.075453,8.672968,-7.605366,3.284752,8.471244,8.557582,-7.1452513,-8.607623,8.096742,-7.3697557,-7.166777,-9.499082,-7.756786,7.432837,-6.9496865,-4.910823,7.889625,-5.7301435,-6.3397465,8.219578,-7.6785164,9.846951,-5.8256097,6.8207273,8.612365,-8.73921,-6.532245,-5.7940187,7.706249,7.397382,5.169085,-9.216382,-7.411211,-6.8352857,6.450031,-7.949314,-7.470252,-8.389963,7.011813,7.0701704,5.026207,-7.407432,-6.8459096,-9.090535,8.920096,-8.362547,-7.44492,-8.731362,4.094258,8.411073,-3.4120135,-6.6418033,6.973422,6.4326034,-6.6906915,8.489866,-5.909232,-9.553852,-5.558223,-6.786586,-7.0187845,-9.342806,-8.155768,-7.0012507,-9.208682,6.9601226,7.6643996,-8.996282,-3.0014627,6.294313,6.8095884,7.7377167,-6.589365,-5.18668,-3.2591248,4.207216,-4.5778127,6.9784746,-5.9563375,9.277747,-8.51713,-7.325677,-7.723046,-9.906118,6.2210274,8.381005,-8.69347,-6.728109,-8.4741,7.3812227,9.062261,-3.198948,9.04234,-7.157926,6.0705624,6.361873,-5.941737,3.7291567,-7.6338835,-8.126259,-7.8878684,6.8348885,6.9721174,8.640476,8.70834,7.093265,8.839352,8.244521,-8.036997,9.7464,-7.755987,5.591755,-7.512661,6.745577,7.544496,8.288906,5.3030567,-8.048834,-8.415916,9.276889,-9.4476185,-2.5912755,6.676248,-4.4293256,7.8517537,6.605936,4.3462706,-4.473967,-5.503313,7.0456467
araw1273,-5.4610033,-6.1031537,6.383176,-2.086187,-3.770491,-6.288954,-5.7801366,-2.7672303,5.8855247,6.2736273,-4.811904,5.874289,6.332237,5.746502,-4.8073835,-6.079154,4.6147275,-6.0383515,-6.888998,-6.1335726,6.450165,6.8714514,6.348917,-2.7017224,4.732094,5.5576277,3.3317304,6.4362035,5.2025676,4.366198,6.5134683,4.971065,-5.5124464,-6.9486847,-7.0432987,-5.774849,3.419947,-2.6020308,3.5200226,-4.0430245,6.9181523,-6.40977,5.1022983,3.8942556,6.491225,-5.71237,3.9357219,4.7527995,6.6626697,6.295974,6.3854623,5.6392746,-6.73671,5.7286944,-5.442495,5.083596,5.504283,-5.574355,4.9640484,4.794123,-3.867095,5.5148993,5.9041314,6.176476,6.37766,4.636582,4.3535376,5.029324,7.0715966,3.9850764,4.3252735,-5.2264657,4.431529,5.98352,6.36592,-4.306927,-5.8698063,5.895938,6.7796745,-3.9325757,-6.679906,-3.9719033,4.741165,5.1022925,-5.6971393,5.0146165,-3.9334824,5.7963705,-3.2334523,-5.289036,3.782509,-6.9539924,-4.563178,3.4346426,-4.993889,5.944021,-5.831375,-4.7319984,5.1828775,4.536914,6.3265686,6.472783,6.388594,6.3342085,5.5173407,-6.9615974,5.9818516,3.6793013,5.44045,5.2074785,-6.072943,4.9584556,-4.667824,4.2019744,5.5889134,-5.5821214,-3.6054783,2.482862,4.2702956,-6.0589447,-4.469199,6.295069,-6.7250237,-5.0801907,-7.151655,4.1614337,5.587656,6.8263597,-5.5756216,1.7954522,5.7265053,6.311145,-5.549448,-7.016043,6.417494,-4.8755302,-5.935272,-6.8569655,-6.3985624,5.776498,-5.0539465,-3.1924531,5.668279,-4.9455266,-5.014459,6.0575895,-5.1255145,7.3509097,-5.1376786,5.2923646,6.197684,-7.044114,-4.1736937,-4.037703,6.2342763,6.180946,4.219141,-6.4746537,-5.0706425,-5.0878077,5.0275784,-6.539132,-5.5010715,-5.896821,5.9484615,5.764127,4.1964903,-5.3154917,-4.77925,-7.352057,6.334114,-6.45769,-6.091394,-6.602348,2.2889764,6.11712,-1.6805762,-4.7732534,5.4248667,4.38472,-5.479106,6.002067,-5.103177,-7.066094,-4.5855203,-5.4808645,-5.8177085,-6.5607796,-6.577782,-4.720434,-6.754593,4.869168,5.9963465,-7.239896,-1.6664732,5.0151663,4.837411,5.822006,-4.7589927,-4.5884857,-1.823475,3.5315228,-2.9281614,5.4258614,-4.1725626,7.1100054,-5.6524563,-5.192461,-6.4704094,-7.1674104,3.9119153,6.150617,-6.2910743,-4.5693855,-5.9475584,5.351608,7.0174756,-2.969296,6.6332393,-5.8239174,4.3427243,5.490847,-4.972816,2.3816142,-5.2756963,-6.597787,-6.2697678,5.808971,5.2977962,6.785855,5.8557444,5.9560103,6.5818186,5.691043,-6.4378505,7.6051426,-6.481725,4.752973,-5.945215,5.488517,5.3518972,6.599762,3.4149177,-6.276205,-6.164123,6.6007657,-6.9508033,-1.4463058,4.7476587,-2.8849924,6.5404434,5.346505,3.8250263,-3.5236382,-3.7875354,5.022702
araw1276,-7.034305,-7.0040026,6.787394,-0.73063976,-2.1402793,-5.9933653,-6.063447,-4.736259,6.3943443,5.9826183,-5.7846646,6.2807555,7.5737147,5.243243,-4.0039053,-5.7195973,5.5427084,-5.978052,-7.316563,-6.745083,6.8434706,9.112359,8.066191,-1.4307725,6.4168577,4.817682,2.084037,7.430929,4.884823,3.3716948,6.5683503,6.55309,-6.3850217,-9.07525,-7.888422,-5.8059235,3.4440978,-0.7755867,2.1154819,-2.7810214,7.7553606,-8.394282,4.9780817,3.084112,7.170811,-6.000463,5.5643196,5.690899,6.73718,6.35147,7.5170035,7.85111,-7.394132,5.5830736,-4.9226785,3.9236817,7.2782574,-4.7019315,4.3086514,4.604683,-3.449956,5.5661535,6.459565,7.3737626,8.012499,3.8265295,3.9183025,6.9156675,8.490874,5.4909525,3.8757024,-4.299687,5.065656,7.048641,8.065042,-5.662817,-7.6049967,6.5030756,8.141649,-5.3035417,-8.414391,-5.254709,4.1274323,4.1060038,-7.312794,5.8580475,-5.4988923,7.5132813,-2.2954276,-4.984691,2.3582847,-8.056686,-3.5863721,5.17276,-5.685413,5.3214927,-6.5153704,-5.465641,4.8016615,3.7275534,5.8876452,7.8288603,8.184238,7.949206,6.2384386,-8.088735,5.838267,2.3529809,6.0535192,5.2060447,-5.8569183,6.8286433,-3.837311,6.1061916,7.2994623,-4.8713646,-2.2871158,4.140892,3.3486865,-6.188081,-5.5935335,7.2718477,-6.9667273,-5.891061,-8.229519,6.2764525,5.0806684,8.280175,-5.4914255,0.2044104,5.1459904,6.4455786,-6.1463466,-8.860257,7.4811087,-3.8755534,-7.6661286,-6.9128537,-7.9374113,6.8095617,-4.94465,-1.9924376,5.77038,-6.906792,-5.6897264,6.528276,-4.233486,7.657008,-7.2698107,5.8969173,6.6080604,-8.809591,-2.7526612,-3.4956899,7.8113523,7.7397556,5.9110765,-6.1635294,-4.3339086,-5.542621,6.3125925,-8.259632,-5.5983415,-5.3282313,7.7929425,7.242974,5.4683185,-4.726993,-4.4129667,-9.261637,6.2124815,-7.4613237,-7.9652405,-6.704688,0.7403438,6.0282316,-0.2523731,-4.4215984,6.118108,3.4690652,-6.4274783,5.715181,-6.8616714,-8.019877,-6.8420334,-7.38701,-7.1121182,-6.2473283,-7.9129624,-3.768898,-7.2385254,4.374237,6.906821,-8.866273,-0.5036252,5.0883718,4.6103683,6.4557824,-4.4647,-6.5788474,-0.64718956,5.0871906,-1.7177181,5.2651515,-3.1414201,8.010947,-4.854146,-4.556569,-8.444249,-6.850868,2.5267012,5.7979636,-6.5079136,-4.322315,-5.392376,5.7258325,7.4524302,-5.195451,6.8602448,-7.0017056,4.3929453,7.2861443,-6.597251,1.4460065,-4.868622,-8.516764,-7.35026,7.387378,5.5009637,8.344072,5.536115,7.7633376,6.949039,4.7845235,-8.278314,9.257309,-8.530847,6.513146,-7.059886,6.641495,5.046173,8.061423,2.1812663,-7.5580993,-6.348261,6.702191,-7.613567,-0.12585573,4.523894,-1.7655385,8.250826,6.197093,5.464522,-3.8802116,-3.4510655,4.76067
arhu1242,-9.726198,-9.456497,8.79616,0.027753681,-1.5908047,-7.4427075,-7.949658,-7.219865,8.390057,7.4721794,-8.0783825,8.244314,10.434801,6.1224008,-4.466707,-6.832144,7.283827,-7.472219,-9.942105,-8.894604,8.925484,13.097822,11.300339,-1.1191933,9.216977,5.5411086,1.8844866,10.308331,5.831294,3.1791499,8.304412,9.322407,-8.562538,-12.476397,-10.555284,-7.2501154,4.477765,0.32554126,1.749061,-2.8845012,10.343878,-11.905988,6.4492126,3.1795237,9.226295,-7.8046417,8.045397,7.8492537,8.600454,8.128165,10.2001,11.122667,-9.54837,7.0451584,-5.895503,4.246023,10.799507,-5.538609,5.2253637,5.633663,-4.037579,7.042868,8.424803,10.316446,11.080539,4.1958942,4.286775,9.796243,11.521605,7.7779255,4.5179143,-5.0530453,6.826434,9.856803,11.39481,-7.912723,-10.870103,8.503905,11.190729,-7.4095764,-11.499884,-7.110308,4.6395135,4.477908,-10.322597,7.9412303,-8.236686,10.620365,-2.282408,-6.1149735,2.1714046,-10.84909,-3.8533335,7.894867,-7.747649,6.1602044,-8.577744,-7.444138,6.0437813,4.033944,7.0964284,10.654581,11.341398,11.012043,8.27567,-11.274864,7.2502155,1.811337,8.07221,6.5182905,-7.5918174,9.882173,-4.2166224,9.053004,10.30738,-5.770642,-1.8274212,6.622096,3.5600555,-8.003688,-7.4892993,9.885046,-8.983838,-8.108104,-10.932714,9.475786,6.2982616,11.57745,-6.725387,-0.81986976,6.2884154,8.291779,-7.965148,-12.07934,10.169415,-4.4461517,-10.709265,-9.007013,-10.963829,9.131305,-6.0121455,-1.5483652,7.4652047,-9.77444,-7.295467,8.703154,-4.7038946,9.885223,-10.606726,7.7251077,8.772183,-12.450588,-2.6892529,-4.077069,11.069167,10.576731,8.635463,-7.8687387,-5.0369964,-7.446026,8.696923,-11.468357,-7.131682,-6.533724,10.773509,10.024998,7.609192,-5.5012207,-5.247896,-12.725962,7.94373,-9.963676,-11.486205,-8.381096,0.025972292,7.4790597,0.37237817,-5.1687007,8.299881,3.835187,-8.446184,7.0538473,-9.624244,-11.097065,-10.560226,-10.674126,-9.737653,-7.8101406,-10.553452,-4.2136173,-9.5226755,5.137335,9.289035,-12.186007,0.028259754,5.9534473,5.310081,8.640316,-5.490347,-9.788076,-0.16834894,7.6945558,-1.4573504,5.885205,-2.9124715,10.613124,-6.0209017,-5.484501,-11.910977,-8.286798,2.3174238,7.130873,-8.609061,-5.5652733,-6.6613936,7.632494,9.632703,-8.04028,8.936265,-9.310604,5.791069,10.159439,-9.449323,1.1658442,-6.1053576,-12.030512,-10.125939,10.0707245,7.083738,11.574303,7.0762258,10.725203,8.964781,5.30897,-11.612178,13.055274,-11.909813,9.414849,-9.624705,9.054188,6.2458415,11.418758,1.9787102,-10.5474205,-8.112111,8.809862,-10.325817,0.9432094,5.402676,-1.4857624,11.278431,8.227824,7.959435,-5.061471,-4.0443583,5.9128766
arik1265,-5.7885127,-7.1795397,7.8957415,-3.8081398,-6.067543,-8.503122,-7.1077876,-1.9498249,7.1925797,8.361622,-5.7057905,7.375059,7.0786676,7.486348,-6.837296,-8.164343,5.089063,-7.841766,-8.7751255,-7.314033,8.062312,7.200348,6.8540454,-4.556143,4.8055663,7.6984973,5.116159,7.6249924,6.790877,6.1011686,8.2001505,5.2983036,-6.1982174,-7.1238885,-8.389625,-7.2395487,4.3938026,-4.3861246,5.594299,-6.083081,8.165396,-6.7584887,6.748344,5.318165,7.90391,-7.180276,3.7523956,5.3038454,8.750199,8.098054,7.31092,5.639944,-8.1547985,7.4569626,-7.3784094,7.6577473,5.9948363,-7.865074,7.082507,6.308095,-5.1750727,7.0599413,7.211428,7.407366,6.9329453,6.6692243,5.9257565,5.0603547,8.160794,3.8317504,5.81009,-7.349637,5.181362,7.0539517,6.920948,-4.3184857,-6.2959247,7.1003304,7.5705786,-3.7456164,-7.1393633,-3.8426065,6.290615,7.2310057,-6.14178,5.8793006,-4.060974,6.267459,-4.8327904,-6.9659605,5.9296145,-8.176387,-6.8008585,3.5096838,-6.101198,8.078085,-6.9106226,-5.6176305,7.0792503,6.3690486,8.606577,7.3334866,6.8075233,6.8936706,6.508379,-8.268506,7.7591953,5.445342,6.657392,6.710009,-8.166103,5.1448164,-6.600525,3.9282727,5.995941,-7.9277616,-5.4094167,2.107107,6.0496736,-7.665375,-4.876099,7.262499,-8.468452,-5.900338,-8.250818,3.7274985,7.6789002,7.7844214,-7.2006173,3.5063055,7.961152,8.075399,-6.623311,-7.683188,7.51542,-7.162938,-6.253798,-8.91202,-6.869843,6.7330613,-6.6008267,-4.9385076,7.389024,-4.9347854,-5.8611774,7.466382,-7.336381,9.251108,-4.9491477,6.2839966,7.803396,-7.665671,-6.5888777,-5.570354,6.7422743,6.6431804,4.3214483,-8.676207,-7.172269,-6.2799664,5.632121,-7.078497,-7.033283,-8.028292,6.1304197,6.245338,4.44524,-7.1539207,-6.5040817,-8.127452,8.424925,-7.5577974,-6.48405,-8.223154,4.0872045,7.9109426,-3.477697,-6.33982,6.2811675,6.216692,-5.98701,8.098222,-5.178907,-8.559488,-4.521887,-5.897956,-6.360273,-8.824101,-7.366376,-6.897566,-8.421475,6.7080812,6.905173,-8.068797,-2.9671865,6.073762,6.4447155,7.191661,-6.30907,-4.3906755,-3.2191162,3.4386306,-4.605242,6.76157,-5.964105,8.54656,-8.235287,-7.04541,-6.7429943,-9.361947,6.094357,7.9406667,-8.004158,-6.2590895,-8.000549,6.8472347,8.470552,-2.3780954,8.410462,-6.5483108,5.5148,5.518148,-5.0648603,3.8367996,-7.2503805,-7.1564355,-7.214649,6.125082,6.6208916,7.764399,8.18103,6.2867703,8.253223,8.032876,-7.0475297,8.722093,-6.8378587,4.7325115,-6.7845845,6.1304703,7.2047176,7.257687,5.26087,-7.1293607,-7.8606906,8.504018,-8.572426,-2.818269,6.420966,-4.4405355,6.998188,6.0720205,3.5528638,-4.11057,-5.2704873,6.7781324
asha1243,-6.891423,-8.379253,8.945293,-3.712207,-6.1325397,-9.336548,-8.046436,-2.9358957,8.184892,9.081419,-6.688114,8.421734,8.42084,8.1893015,-7.3598037,-8.734371,5.889929,-8.667165,-9.953479,-8.434721,9.095891,8.874884,8.196963,-4.6651516,6.0127773,8.314121,5.201514,8.939504,7.4368734,6.3132563,9.107442,6.375097,-7.394331,-8.64955,-9.655595,-8.108432,4.775265,-4.317298,5.699612,-6.48169,9.382713,-8.234453,7.5771656,5.6265273,8.900473,-8.059523,4.799223,6.196754,9.790384,9.081139,8.530413,6.995643,-9.151221,8.424426,-8.005507,8.045981,7.5596995,-8.480573,7.758606,6.9579816,-5.5640407,7.8348894,8.262263,8.702266,8.309204,7.116984,6.175521,6.181137,9.457355,4.751791,6.3342013,-7.9324727,6.069647,8.287617,8.332687,-5.2479143,-7.7078834,8.136294,9.031032,-4.693939,-8.571773,-4.644421,6.6701937,7.7399735,-7.4017577,6.7359104,-5.275075,7.6049595,-4.9729376,-7.709957,6.133353,-9.306901,-6.9853044,4.7051544,-7.191336,8.694215,-7.9606442,-6.4462776,7.845368,6.703229,9.392373,8.720018,8.109178,8.312885,7.405445,-9.761739,8.5253525,5.4512577,7.7772164,7.226367,-9.226566,6.295876,-7.124942,5.1011996,7.210637,-8.655699,-5.5524054,3.1706655,6.3581185,-8.5613785,-5.7223167,8.35506,-9.477795,-6.9197097,-9.49252,5.138761,8.443617,9.23402,-7.8700366,3.2859244,8.684281,8.93423,-7.465879,-9.026872,8.563263,-7.7017374,-7.698718,-9.962395,-8.253715,7.8285165,-7.222203,-5.034123,8.261117,-6.0251236,-6.6495047,8.577227,-7.9456067,10.360792,-6.321748,7.270775,9.061027,-9.253703,-6.8197575,-5.9519753,8.164857,7.753122,5.462478,-9.562031,-7.712323,-7.2001243,6.896354,-8.370736,-7.842534,-8.6472025,7.2853384,7.464843,5.414203,-7.7141013,-7.027473,-9.6967,9.328253,-8.849853,-8.002876,-9.006274,4.1642246,8.77241,-3.4017384,-6.7737927,7.3407063,6.601076,-7.0319076,8.882371,-6.258329,-10.082354,-6.071584,-7.332453,-7.4563375,-9.786298,-8.557463,-7.274413,-9.558663,7.2155733,8.048489,-9.455736,-2.986324,6.5290346,6.9799447,8.143548,-6.891371,-5.676424,-3.2825954,4.580848,-4.715267,7.1633544,-6.120776,9.698122,-8.956973,-7.700668,-8.181643,-10.26137,6.344179,8.670423,-9.122384,-6.938035,-8.84898,7.7765727,9.511821,-3.4538374,9.412705,-7.6171746,6.269047,6.7665253,-6.1377,3.8101666,-8.094951,-8.637146,-8.345089,7.2961063,7.2669463,9.229053,9.1719885,7.567881,9.284576,8.542251,-8.426255,10.454958,-8.331344,5.923103,-7.8307714,7.0898223,7.8964777,8.834763,5.359151,-8.479326,-8.838223,9.716589,-9.832918,-2.5610614,6.9505596,-4.4227285,8.336895,6.874215,4.5693436,-4.643684,-5.7491255,7.327663
ashe1272,-7.312211,-8.749338,9.328739,-3.704427,-6.161532,-9.812368,-8.47869,-3.236027,8.486572,9.454568,-7.05214,8.866235,8.892558,8.347564,-7.428051,-9.043217,6.2025647,-8.987143,-10.480092,-8.778121,9.486806,9.472175,8.779709,-4.6376843,6.427357,8.464726,5.190423,9.446118,7.5850735,6.407046,9.397287,6.8722305,-7.6983347,-9.196295,-10.120807,-8.315072,4.951604,-4.1723604,5.6649046,-6.4663987,9.88345,-8.750105,7.9137,5.681593,9.332825,-8.3012905,5.226361,6.6028004,10.163068,9.414059,9.025144,7.4743342,-9.548303,8.615794,-8.165455,8.171425,8.115337,-8.713364,7.992595,7.10374,-5.6553855,8.196701,8.573889,9.332942,8.800547,7.2683845,6.25635,6.754451,9.9760685,5.225651,6.3528614,-8.159737,6.4036117,8.673477,8.937724,-5.6884923,-8.255062,8.50457,9.557365,-5.066986,-9.099792,-4.9842143,6.829839,7.7973375,-7.9366364,7.147533,-5.723551,8.215357,-5.0339274,-7.979561,6.1778936,-9.949228,-7.1499004,5.048088,-7.5377827,8.946967,-8.45343,-6.803405,8.211082,6.9256454,9.7610855,9.27734,8.670288,8.833171,7.8348083,-10.236145,8.760363,5.4256935,8.122016,7.5055895,-9.483815,6.753809,-7.1318107,5.5948577,7.719499,-8.973591,-5.3992825,3.5744824,6.4722514,-8.883371,-6.090727,8.806368,-9.9418,-7.3306212,-9.98576,5.611079,8.7320175,9.779235,-8.163471,3.204183,9.052253,9.259407,-7.6968756,-9.520563,9.078851,-7.9293756,-8.190082,-10.40082,-8.713765,8.271894,-7.4926763,-5.035822,8.596821,-6.473543,-6.8614016,8.96874,-8.060787,10.825623,-6.822102,7.529324,9.440878,-9.828575,-6.8278832,-6.1817408,8.681999,8.207269,5.9695735,-9.996133,-8.037711,-7.4496217,7.3337007,-8.960402,-8.160308,-8.874531,7.9575915,7.9514546,5.748397,-7.927218,-7.2068286,-10.273968,9.689287,-9.170934,-8.580908,-9.379122,4.0820127,9.076835,-3.3448012,-6.920147,7.81235,6.7484016,-7.4192486,9.158324,-6.7495875,-10.640042,-6.664848,-7.940254,-7.822011,-10.100495,-8.979997,-7.4713964,-9.9167,7.4218793,8.414534,-10.151648,-3.0717528,6.726383,7.1493793,8.475048,-7.150554,-6.1940284,-3.2006602,5.0161653,-4.686689,7.309237,-6.153218,10.223242,-9.300804,-7.8872347,-8.748719,-10.6135235,6.399909,8.962907,-9.547127,-7.1976795,-9.027802,8.125506,9.834218,-3.9028056,9.858761,-8.001055,6.562973,7.163694,-6.6826067,3.7890346,-8.372675,-9.264285,-8.910331,7.713331,7.576411,9.806395,9.567794,8.100691,9.689951,8.728383,-9.16227,11.09007,-8.96933,6.4701037,-8.357333,7.5061855,8.187489,9.385939,5.376662,-9.097427,-9.2402525,10.225843,-10.328523,-2.4424953,7.190574,-4.4813085,8.906668,7.243254,4.956685,-4.8999414,-5.8444123,7.4997253
avac1239,-3.899501,-5.2554474,6.251523,-3.7035308,-5.59827,-6.8569903,-5.498502,-0.8294863,5.4959035,6.6912913,-4.0912557,5.6941805,4.995397,6.197001,-5.867995,-6.733137,3.6042867,-6.271454,-6.559551,-5.541669,6.309371,4.712717,4.626841,-4.263737,2.9320683,6.380195,4.6598015,5.428129,5.6858926,5.4207373,6.60422,3.4573317,-4.5688505,-4.8090687,-6.347654,-5.7955303,3.5040631,-4.324237,5.2302527,-5.4454083,6.077834,-4.5432444,5.312393,4.7249165,6.1770124,-5.6346254,2.138985,3.8585942,6.9413877,6.5207286,5.293117,3.5238888,-6.306466,6.173777,-6.179347,6.566618,3.6741192,-6.596392,5.786927,5.140819,-4.452015,5.607627,5.4812603,5.0929937,4.759188,5.7106667,4.984027,3.0514724,5.868429,2.4392655,5.0319796,-6.2769365,3.8117642,5.0162754,4.567542,-2.7268121,-4.03775,5.3710494,5.444699,-2.2974963,-4.849877,-2.4310799,5.490592,6.253563,-4.042715,4.108587,-2.302283,4.136997,-4.3366766,-5.770492,5.2579474,-5.884038,-5.879505,1.7660438,-4.4912825,6.7370267,-5.046062,-4.212041,5.6959834,5.517668,6.999507,5.1560698,4.5962663,4.629661,4.8089476,-5.8980274,6.3031993,5.1126413,5.04474,5.4190927,-6.5798945,3.1476538,-5.6231265,2.1996424,3.9420738,-6.568418,-5.218587,0.5638069,5.3057017,-6.049616,-3.3513653,5.357296,-6.648345,-4.3162785,-6.0452766,1.9261377,6.2661715,5.36352,-5.753703,3.5177112,6.535014,6.3208117,-5.100023,-5.305224,5.538744,-6.1423736,-4.0612965,-6.9503574,-4.814551,4.950483,-5.4907646,-4.62,5.911138,-3.15877,-4.6264863,5.726748,-6.3061724,7.2926087,-2.9179947,4.7100306,5.9645333,-5.1580467,-5.957963,-4.74179,4.518362,4.628919,2.5013864,-6.876485,-5.9734406,-4.944023,3.8017364,-4.7203283,-5.511205,-6.6473804,4.0823817,4.1460395,2.915465,-6.095097,-5.39355,-5.590186,6.815255,-5.634864,-4.23499,-6.691959,4.00286,6.3481236,-3.4000125,-5.4378643,4.7887354,5.3662314,-4.3572774,6.540303,-3.364613,-6.20654,-2.3824797,-3.7079678,-4.5437517,-7.0053587,-5.3892584,-5.9290543,-6.522346,5.6583786,4.9071527,-5.7030993,-2.7937853,5.171586,5.3142986,5.4691277,-5.1787796,-2.4246902,-3.1073694,1.8461274,-4.315419,5.852136,-5.4558425,6.391634,-6.704475,-5.8823743,-4.4958825,-7.69535,5.4661684,6.496698,-6.2391615,-5.129278,-6.6159525,5.227069,6.65867,-0.6491877,6.3937078,-4.884365,4.422125,3.5997486,-3.1952555,3.5413136,-5.9288783,-4.8249164,-5.1720133,4.2604966,5.403906,5.337408,6.464742,4.203602,6.4053183,6.9483266,-4.4854918,6.0419164,-4.4162593,2.911541,-4.8882074,4.242986,5.876962,4.8200827,4.867469,-4.7987356,-6.025461,6.6060967,-6.352516,-3.0873485,5.1478558,-4.1185374,4.866209,4.6507387,2.0208056,-3.1729093,-4.4403596,5.5381527
awac1239,-9.001325,-9.569877,9.335015,-1.5578283,-3.6408932,-8.753865,-8.499457,-5.692338,8.867905,8.7198925,-7.9703784,8.82629,10.267079,7.337784,-5.962675,-8.001972,7.1207166,-8.400453,-10.634303,-9.2220125,9.436007,12.050007,10.715708,-2.7783163,8.523128,7.1145635,3.456479,10.384682,6.725336,4.754563,9.030691,8.580251,-8.569328,-11.505887,-10.816161,-8.066603,4.8725224,-1.6196723,3.572052,-4.6472707,10.620601,-10.985766,7.357133,4.5205054,9.549752,-8.415336,7.2679305,7.676212,9.622974,8.980511,10.163135,10.02526,-9.870004,7.971823,-7.2438097,6.2105923,10.14509,-7.077782,6.680745,6.544984,-4.9254,7.856372,8.842072,10.35528,10.582059,5.618493,5.2982817,8.908706,11.231526,6.9741063,5.4464965,-6.6444287,6.905856,9.833409,10.837062,-7.3089676,-10.266596,8.911792,10.859965,-6.7613883,-10.965326,-6.535608,5.750855,6.1123304,-9.712773,7.88107,-7.6178355,10.008138,-3.6150312,-7.08993,3.9966216,-10.885919,-5.444193,7.037984,-8.101391,7.6887918,-8.918737,-7.415356,7.2498617,5.4654326,8.685622,10.577643,10.653596,10.672083,8.576781,-11.268202,8.130212,3.4756033,8.483824,7.1792603,-8.857578,9.061173,-5.690876,7.8098617,9.541987,-7.5032964,-3.472917,5.7377334,5.038657,-8.725988,-7.215525,9.714433,-9.765139,-8.058937,-10.962937,8.211402,7.631768,11.275705,-7.805868,0.92912155,7.795386,9.079874,-8.190422,-11.513976,10.102034,-6.2364063,-10.118305,-10.109611,-10.342729,9.018209,-6.858886,-3.1450841,8.27786,-8.758056,-7.330136,9.212904,-6.438852,10.641384,-9.44434,7.9643917,9.499568,-11.877657,-4.592559,-5.1147738,10.5119295,9.884298,7.8660555,-9.231756,-6.5717235,-7.7104707,8.503794,-10.906777,-7.869476,-7.874149,9.962782,9.616436,7.159878,-6.74458,-6.294548,-12.213621,9.014881,-10.083919,-10.6357975,-9.06012,1.8530958,8.482525,-1.2758594,-6.182454,8.372486,5.2671285,-8.386698,8.326385,-8.730402,-11.360302,-9.332575,-9.833675,-9.3189,-9.249767,-10.286779,-5.751377,-10.127739,6.2840796,9.426454,-11.79177,-1.4993691,6.459606,6.338502,8.896973,-6.376047,-8.679495,-1.5757107,6.8742185,-2.9359174,6.630303,-4.3421884,10.838829,-7.7824106,-6.737653,-10.937847,-9.656271,4.25707,8.186785,-9.548962,-6.4357944,-8.023436,8.206856,10.09196,-6.667763,9.762982,-9.031388,6.3722906,9.28627,-8.661356,2.4482884,-7.236672,-11.24452,-9.936573,9.4295635,7.4520044,11.311277,8.408565,9.987084,9.614775,7.024334,-11.134611,12.754177,-11.241677,8.454195,-9.454458,8.778403,7.3132377,11.110266,3.5265787,-10.493636,-9.066885,9.868853,-10.804922,-0.43873352,6.3865633,-2.9181201,10.650374,8.089514,7.1063156,-5.221274,-5.0456867,6.914682
awet1244,-4.7729325,-6.057889,6.88053,-3.5712156,-5.5000057,-7.386401,-6.1326857,-1.499778,6.234671,7.178241,-4.710788,6.336326,5.9943876,6.578682,-6.127467,-7.1228595,4.2900615,-6.848298,-7.356075,-6.267516,6.9338284,5.9451113,5.6455045,-4.1201005,3.886078,6.740074,4.584197,6.3930016,6.0326166,5.5874877,7.166087,4.317641,-5.3301954,-5.9791403,-7.1561065,-6.3551974,3.7982972,-4.124435,5.0724697,-5.5167847,6.9351945,-5.508198,5.864784,4.817267,6.8262463,-6.115808,3.014278,4.553039,7.5643787,7.0282154,6.168795,4.596023,-7.0354133,6.593906,-6.4643097,6.712476,4.7156696,-6.9266195,6.1071663,5.523378,-4.6142,6.080142,6.1642327,6.050089,5.7785115,5.9324164,5.2523,4.0290956,6.8631763,3.1303408,5.25553,-6.4906516,4.3736453,5.8829565,5.6442914,-3.5217593,-5.1194515,6.107486,6.4834146,-3.0223076,-5.903275,-3.213896,5.649007,6.421811,-5.026469,4.8750973,-3.155777,5.1485963,-4.3152533,-6.15053,5.272862,-6.813738,-5.979046,2.656945,-5.153121,7.0723147,-5.867239,-4.8135467,6.1099224,5.6618443,7.422139,6.1144404,5.637728,5.68495,5.4478035,-6.8772144,6.7858143,5.0873227,5.679491,5.762097,-7.016455,4.083776,-5.832365,3.0956893,4.871553,-6.953341,-5.0744796,1.391747,5.432389,-6.6074066,-4.0087204,6.137624,-7.272878,-4.9679923,-6.9443736,2.9433916,6.7048254,6.4190784,-6.2128053,3.2340064,6.91615,6.977256,-5.6780276,-6.386445,6.3627625,-6.321411,-5.15785,-7.611443,-5.800553,5.692935,-5.829941,-4.500876,6.379709,-4.0215907,-5.118284,6.3643208,-6.5213633,7.959634,-4.042026,5.3481836,6.638281,-6.2860823,-5.94429,-4.8445053,5.593578,5.504172,3.430751,-7.4231744,-6.2030745,-5.453517,4.6209183,-5.85058,-6.088433,-7.0039883,5.010374,5.1444592,3.6560175,-6.3910966,-5.6422663,-6.762533,7.275072,-6.409963,-5.320116,-7.194168,3.7786777,6.799521,-3.178671,-5.5722494,5.447968,5.5637956,-5.086507,7.043782,-4.2713013,-7.1630445,-3.4350762,-4.7008367,-5.377508,-7.571714,-6.2424335,-6.083502,-7.1910205,5.8786306,5.7401757,-6.7573276,-2.7193358,5.5169425,5.6221504,6.134216,-5.4912825,-3.4196444,-2.9445965,2.6228402,-4.2444425,6.09512,-5.4330277,7.2906613,-7.0846786,-6.22288,-5.531426,-8.155046,5.4031734,6.9661293,-6.857112,-5.3934393,-7.0239153,5.7767487,7.3804383,-1.5882155,7.128114,-5.645442,4.8210206,4.5466595,-4.086109,3.4417045,-6.3120055,-5.88626,-6.0545306,5.1591,5.7892275,6.387194,6.964622,5.239704,7.085163,7.090152,-5.6928725,7.1989765,-5.6225843,3.8378022,-5.7195334,5.117298,6.315507,5.968969,4.812237,-5.8467455,-6.7091737,7.252866,-7.2153926,-2.7475271,5.5467844,-4.0254636,5.8955092,5.227978,2.8350992,-3.5160396,-4.618271,5.9150834
ayac1239,-6.8834944,-8.553634,9.261787,-4.150521,-6.7622204,-9.983188,-8.457029,-2.7173908,8.416322,9.53258,-6.86907,8.836467,8.665054,8.573364,-7.783227,-9.340048,6.0095534,-9.156733,-10.417492,-8.628178,9.446112,8.824348,8.348221,-5.104869,5.9139233,8.861647,5.7435303,9.243426,7.748043,6.771204,9.452609,6.410698,-7.4861507,-8.538686,-9.938997,-8.3997965,5.0272083,-4.800931,6.237693,-7.000507,9.631401,-8.169636,7.97639,6.0400953,9.240546,-8.401746,4.696309,6.30985,10.211039,9.554127,8.617069,6.8426733,-9.466501,8.746621,-8.48014,8.640062,7.64301,-9.138669,8.329585,7.2959023,-5.8432994,8.245608,8.527111,9.026467,8.402946,7.575071,6.5280786,6.127133,9.670519,4.7247567,6.653331,-8.557638,6.135809,8.408866,8.479937,-5.308345,-7.750079,8.378452,9.159416,-4.6212487,-8.570707,-4.621406,7.081417,8.277245,-7.5463347,7.012666,-5.191927,7.739789,-5.3991184,-8.130842,6.7206254,-9.6954975,-7.554367,4.6030455,-7.3667884,9.244396,-8.27995,-6.634616,8.329833,7.220733,9.983631,8.856413,8.18292,8.3873,7.65959,-10.004848,8.867646,5.8863606,8.01252,7.608311,-9.751885,6.2144823,-7.5216856,5.0395403,7.279799,-9.261771,-6.081891,2.9778612,6.7920876,-8.91456,-5.8563085,8.677476,-9.895104,-7.086453,-9.728973,4.972137,9.002222,9.410826,-8.334859,3.8047059,9.2536335,9.337269,-7.7183776,-9.099444,8.883853,-8.37163,-7.6829066,-10.447379,-8.362754,8.091379,-7.5342846,-5.522997,8.748945,-5.881292,-6.75082,9.021194,-8.521114,10.787664,-6.201814,7.434437,9.382449,-9.379225,-7.3798733,-6.37622,8.238399,7.788189,5.419443,-10.152224,-8.297509,-7.4200597,7.0383186,-8.439374,-8.286001,-9.24344,7.405621,7.5298653,5.4337335,-8.225976,-7.482261,-9.77239,9.845917,-9.034154,-8.127515,-9.417158,4.591431,9.284501,-3.8904474,-7.1342783,7.5989428,7.1123285,-7.1207805,9.378714,-6.173679,-10.436111,-5.933857,-7.3652883,-7.5345187,-10.410503,-8.738553,-7.8745165,-9.924196,7.627378,8.249913,-9.66543,-3.4016485,6.735264,7.3650365,8.441225,-7.341716,-5.591174,-3.7451887,4.5144973,-5.175468,7.4358478,-6.6448708,10.06519,-9.593877,-8.253043,-8.277454,-10.795633,6.9459567,9.1540165,-9.595386,-7.438025,-9.401439,8.127593,9.782846,-3.232632,9.886913,-7.7178288,6.556193,6.6659346,-6.1924953,4.219668,-8.536933,-8.759232,-8.577563,7.308755,7.6168137,9.413051,9.788947,7.558552,9.696373,9.153326,-8.546593,10.624396,-8.391059,5.8805103,-8.028637,7.183603,8.384539,8.962403,5.8765855,-8.684317,-9.291066,10.22009,-10.185397,-2.9476933,7.2974005,-4.8535433,8.435427,6.9972143,4.5084114,-4.7938457,-6.0012345,7.754043
bani1255,-8.080422,-8.485147,8.2448225,-1.2714826,-3.004609,-7.570124,-7.3819633,-5.1556234,7.763257,7.5514345,-7.0176578,7.676297,9.02505,6.4706974,-5.2514987,-7.061084,6.4038525,-7.3235273,-9.142714,-8.176528,8.319932,10.675917,9.419446,-2.277268,7.4879823,6.1749234,2.951561,9.00126,6.027796,4.265813,8.056309,7.653094,-7.68337,-10.403895,-9.467588,-7.111425,4.243114,-1.4492288,2.9734585,-3.900131,9.371014,-9.767788,6.386797,3.9412408,8.461317,-7.3395457,6.463522,6.698965,8.453573,7.7968593,8.934334,8.982143,-8.733715,7.035829,-6.261872,5.270358,8.763822,-6.0112123,5.7304826,5.7978935,-4.2702556,6.8948216,7.7452183,8.890598,9.40585,4.9402714,4.6666646,7.851435,9.937921,6.2202854,4.8976626,-5.6668906,6.0472026,8.604299,9.507223,-6.460884,-8.94723,7.8234553,9.726692,-6.0672245,-9.774517,-5.868532,5.139599,5.386664,-8.549932,6.893896,-6.7134776,8.808446,-3.1215198,-6.385923,3.360438,-9.650313,-4.645323,6.0943584,-7.0235233,6.6083117,-7.8572855,-6.5104136,6.1728964,4.769523,7.468214,9.28806,9.466253,9.335697,7.4515734,-9.946928,7.1698565,3.1324766,7.419918,6.2845545,-7.5670633,7.985971,-5.0088744,7.0014334,8.526527,-6.381881,-3.0505316,4.9488716,4.3064756,-7.669323,-6.4925857,8.607944,-8.544055,-7.1063952,-9.68604,7.234848,6.554874,9.882129,-6.7149096,0.7194425,6.691341,7.8635054,-7.2824526,-10.212941,8.751113,-5.22976,-9.016077,-8.701748,-9.232574,8.051446,-6.094158,-2.7599528,7.0720205,-7.8203726,-6.631269,7.9723964,-5.4941998,9.299525,-8.354538,7.0573015,8.339997,-10.477398,-3.8369195,-4.4456286,9.271601,8.93594,6.957769,-7.8782444,-5.639213,-6.6987767,7.4070973,-9.713976,-6.9042716,-6.7573643,8.882963,8.470996,6.400616,-5.8536496,-5.574161,-10.829121,7.8155107,-8.993356,-9.38948,-8.064419,1.4671924,7.364358,-0.94607747,-5.4629817,7.394433,4.553849,-7.455752,7.1955004,-7.814905,-9.845952,-8.100931,-8.649679,-8.333119,-7.918129,-9.2244425,-4.894108,-8.828185,5.464129,8.31641,-10.354123,-1.066902,5.8218007,5.6565194,7.8465185,-5.569973,-7.6385965,-1.2481292,6.0728674,-2.4648745,6.0903363,-3.9076664,9.468762,-6.5497155,-5.9087844,-9.720967,-8.424306,3.636908,7.12998,-8.213602,-5.515182,-6.978817,7.0569735,8.952514,-5.954834,8.455202,-8.04413,5.5806794,8.38981,-7.6067886,1.977916,-6.2749586,-9.950315,-8.767367,8.5247345,6.593528,9.9071045,7.1447363,8.959391,8.4874325,6.011563,-9.741822,11.153259,-9.975915,7.6179233,-8.329447,7.8144717,6.366958,9.673032,3.0415068,-9.116236,-7.832954,8.388275,-9.486847,-0.403389,5.5551476,-2.4276652,9.551261,7.2066107,6.3238997,-4.5476894,-4.405479,5.963526
bara1380,-8.216989,-8.781345,8.385259,-1.3674934,-3.3144875,-7.918353,-7.7251725,-5.0627584,7.8906803,7.9432654,-7.215499,8.022129,9.15483,6.7283583,-5.395662,-7.403419,6.494982,-7.6539326,-9.434575,-8.331474,8.491501,10.76514,9.564481,-2.545695,7.457804,6.461187,3.306949,9.182603,6.253542,4.566442,8.3735285,7.6808767,-7.8106794,-10.505727,-9.673054,-7.1909194,4.4420333,-1.7370303,3.3402274,-4.2803416,9.543762,-9.90887,6.7295094,4.170231,8.771542,-7.568076,6.512871,6.8848352,8.831824,8.113318,9.021503,9.013538,-8.8633585,7.3391685,-6.6390767,5.6221704,8.967191,-6.398332,6.0466385,6.0360208,-4.365252,7.1258564,8.032318,9.13883,9.623532,5.247011,4.8990297,7.9536,10.146751,6.3363442,5.0358796,-6.0613904,6.085911,8.786511,9.682168,-6.5953274,-8.936912,8.028473,9.897678,-6.117474,-9.909021,-5.9098268,5.459692,5.82236,-8.75223,7.1079717,-6.7901897,8.967671,-3.3626075,-6.6831946,3.6853333,-9.933245,-4.987462,6.0764465,-7.116951,6.991111,-8.10163,-6.614022,6.5520983,5.1323586,7.852567,9.523604,9.576276,9.480835,7.667818,-10.250139,7.4109726,3.369944,7.6819677,6.6595864,-8.045044,8.064201,-5.3448157,7.0277143,8.723212,-6.6583548,-3.3921316,4.9532657,4.5250688,-7.864575,-6.808598,8.85207,-8.774998,-7.237067,-9.971516,7.1227713,6.8594365,10.036987,-7.0186725,1.0388387,7.12312,8.090585,-7.539455,-10.394108,9.017363,-5.5654,-9.235688,-9.08747,-9.334601,8.33657,-6.391073,-3.10076,7.457914,-7.745245,-6.6504254,8.268144,-5.7714252,9.506164,-8.233631,7.2716336,8.584971,-10.5505295,-4.1541057,-4.638661,9.293441,9.036654,7.0278735,-8.272832,-5.982869,-6.9025164,7.5863166,-9.790729,-7.117606,-7.1850624,9.04565,8.458785,6.532824,-6.0613885,-5.929407,-10.938087,8.122978,-9.17933,-9.447867,-8.296896,1.6886959,7.8090415,-1.2012072,-5.7039814,7.6277623,4.830794,-7.6212854,7.5215154,-7.7850704,-10.126855,-8.165209,-8.689562,-8.556306,-8.447325,-9.424494,-5.235936,-9.202692,5.9036226,8.638136,-10.537625,-1.2732017,5.980489,5.804371,8.022529,-5.7439065,-7.6052165,-1.5439068,6.096514,-2.70355,6.3725567,-4.23512,9.739798,-6.920997,-6.3062673,-9.905949,-8.775875,4.0594354,7.521921,-8.685339,-5.832327,-7.356554,7.252582,9.116387,-5.869084,8.857849,-8.0952215,5.7873154,8.437331,-7.7037773,2.1975403,-6.599007,-10.079598,-8.905442,8.575949,6.8978524,9.98304,7.5104833,9.025753,8.68962,6.3312297,-9.92158,11.212432,-9.993306,7.7168436,-8.54276,7.9537935,6.6221223,9.790082,3.246105,-9.388663,-8.164669,8.742641,-9.824713,-0.603078,5.8599143,-2.5805137,9.574936,7.3619614,6.347054,-4.752312,-4.6306267,6.234795
bare1276,-7.6988254,-8.098711,7.7955837,-1.2200845,-2.8929522,-7.2040396,-7.056705,-4.814338,7.3619967,7.290477,-6.698514,7.3039293,8.52433,6.315358,-5.0202746,-6.8227625,6.1932554,-7.0061655,-8.65118,-7.745623,7.9674816,10.130272,8.961385,-2.1527267,7.0146513,5.9477525,2.9215968,8.546196,5.816104,4.2060246,7.782694,7.1966696,-7.2569222,-9.916199,-8.987096,-6.74604,4.054674,-1.5603507,3.029589,-3.8451028,8.891361,-9.264071,6.1148763,3.828686,8.1191435,-7.06066,6.1076794,6.402631,8.072027,7.5359373,8.459846,8.517838,-8.409671,6.775674,-6.043353,5.180699,8.226424,-5.864573,5.4580708,5.50195,-4.149871,6.5665684,7.4004536,8.470004,8.937785,4.769805,4.5922694,7.441472,9.46082,5.9090343,4.7287107,-5.4739065,5.749527,8.164002,9.049056,-6.1204004,-8.465945,7.4607563,9.236724,-5.768116,-9.294981,-5.5610304,5.077485,5.271173,-8.11566,6.5747156,-6.2310667,8.388916,-3.0564291,-6.1553035,3.3447037,-9.2067585,-4.5000873,5.730914,-6.59043,6.4144,-7.4669476,-6.198779,5.947481,4.7015247,7.214486,8.78017,9.010014,8.88547,7.074259,-9.444577,6.8499274,3.1510868,7.0676465,6.156835,-7.2870374,7.5235367,-4.886271,6.5507,8.069365,-6.1027136,-3.071051,4.572717,4.2458196,-7.342778,-6.257232,8.285765,-8.204964,-6.7266517,-9.253576,6.7692566,6.2561946,9.370059,-6.4581184,0.84862614,6.5013623,7.55341,-7.071472,-9.688476,8.359198,-4.9845138,-8.539887,-8.31047,-8.760534,7.697577,-5.9294257,-2.7611578,6.7663784,-7.433999,-6.334485,7.6346536,-5.3079224,8.856174,-7.8902693,6.722739,7.8473005,-9.882448,-3.7139227,-4.287402,8.760774,8.532373,6.5741935,-7.5155907,-5.4153852,-6.331107,7.006598,-9.187299,-6.5944443,-6.5434227,8.437061,8.019274,6.1436434,-5.656237,-5.404152,-10.2277,7.5087514,-8.5362,-8.858729,-7.7991753,1.5280466,7.090945,-0.9219351,-5.288685,7.030937,4.460053,-7.206869,6.905615,-7.3420506,-9.357344,-7.5628676,-8.15911,-7.8897023,-7.6613717,-8.861816,-4.8116827,-8.479588,5.3600445,7.935945,-9.879661,-1.1251266,5.667688,5.446337,7.4298577,-5.3461075,-7.080908,-1.2854322,5.697028,-2.4174318,5.97124,-3.8885438,9.033011,-6.2672033,-5.7553296,-9.24154,-8.088982,3.6766064,6.9453406,-7.7850037,-5.2827077,-6.7504816,6.7131715,8.54679,-5.5481606,8.1336565,-7.611454,5.3334155,7.927972,-7.200217,1.9426466,-5.970241,-9.430249,-8.256302,8.073094,6.384817,9.306333,6.814297,8.540126,8.094787,5.7370205,-9.256711,10.499079,-9.403887,7.2537346,-7.973189,7.489547,6.053961,9.197648,2.9692984,-8.590718,-7.521642,7.9548197,-9.025808,-0.49237168,5.440427,-2.3044128,9.06595,6.881862,6.0133543,-4.337404,-4.2363667,5.738232
baur1253,-5.822445,-7.3917136,8.11589,-3.8112152,-6.1261005,-8.531571,-7.1485176,-2.20708,7.330569,8.357962,-5.8426633,7.5379486,7.1211047,7.55597,-6.9256253,-8.170987,5.117503,-7.961618,-8.782878,-7.4239264,8.148614,7.365744,6.8297973,-4.693054,4.8117733,7.714929,5.191534,7.7367,6.8815236,6.1534266,8.279413,5.350869,-6.525488,-7.319894,-8.45002,-7.3758936,4.368996,-4.518729,5.679723,-6.2367325,8.204109,-6.878964,6.901006,5.4442782,7.990477,-7.2945085,3.735108,5.3773866,8.901166,8.265901,7.436617,5.6068764,-8.094302,7.784154,-7.483354,7.6351266,6.092439,-7.9707994,7.177245,6.45006,-5.2152596,7.1328645,7.2882333,7.456361,7.1432996,6.6299143,5.857608,5.0071225,8.097044,3.9745307,5.9878197,-7.480939,5.2943277,7.206353,6.9638968,-4.353937,-6.367559,7.170577,7.841829,-3.8451686,-7.168334,-3.8469138,6.323534,7.324541,-6.1926036,5.738259,-4.1249213,6.3200006,-4.879048,-7.248526,5.970983,-8.233149,-6.722881,3.4980488,-6.1960588,8.180547,-6.961385,-5.6523223,7.2572417,6.459781,8.683579,7.485884,6.790887,6.9359508,6.498916,-8.343645,7.7815003,5.569925,6.8675513,6.6348906,-8.435692,5.015453,-6.7769465,3.9930549,6.0316515,-7.9926004,-5.594215,2.122732,6.0262446,-7.8083744,-4.9693503,7.305905,-8.611663,-6.011222,-8.307851,3.8790832,7.802057,7.8255844,-7.2695084,3.5786393,8.103658,8.103039,-6.666654,-7.704708,7.4814034,-7.2660503,-6.3953915,-9.0414915,-7.038884,6.8725758,-6.683648,-5.047294,7.5125875,-4.967378,-5.9361925,7.6716876,-7.515497,9.329313,-4.990368,6.3293705,8.097579,-7.839369,-6.6404943,-5.607608,6.7954893,6.678715,4.4012504,-8.700845,-7.179609,-6.4542184,5.7207284,-7.041371,-7.0005155,-8.082006,6.1854506,6.2771196,4.4504437,-7.173507,-6.6248393,-8.147041,8.4692335,-7.734579,-6.629235,-8.303877,4.285346,8.054123,-3.539904,-6.411163,6.462164,6.28124,-6.119981,8.143899,-5.2550163,-8.748988,-4.623009,-5.995537,-6.4379907,-9.043207,-7.382003,-6.941955,-8.506198,6.7680526,6.9895277,-8.081957,-3.1039615,6.0526447,6.599905,7.252087,-6.360433,-4.418684,-3.4274304,3.6162944,-4.676961,6.8198204,-6.0289974,8.474933,-8.255739,-7.2290487,-6.79979,-9.435067,6.2381454,8.083007,-8.331029,-6.431742,-8.237673,6.9284744,8.554915,-2.3486826,8.509354,-6.616556,5.7562075,5.5908813,-5.0759363,3.7997246,-7.5052357,-7.240376,-7.175778,6.2482142,6.672858,7.70703,8.285763,6.317845,8.334206,8.060602,-6.9974246,8.920676,-6.879072,4.795282,-6.8365808,6.0296617,7.204932,7.3623657,5.309405,-7.2907104,-7.868155,8.696412,-8.69743,-2.7803268,6.3373814,-4.4232635,7.060025,6.099718,3.628054,-4.084478,-5.3698525,6.7587357
berb1259,-7.3676186,-7.5224442,7.2284675,-0.8326641,-2.416811,-6.327582,-6.460826,-4.9736724,6.8767366,6.37288,-6.1954184,6.66442,8.001405,5.558241,-4.25112,-6.0376887,5.8808064,-6.3283095,-7.853135,-7.1516824,7.2040625,9.603061,8.460199,-1.6285573,6.7874475,5.135645,2.336283,7.9213333,5.18832,3.6001375,6.974081,6.916407,-6.8569875,-9.556618,-8.35336,-6.208483,3.7670615,-0.95146924,2.2960165,-3.0283196,8.221741,-8.789884,5.401583,3.3417747,7.46421,-6.4275646,5.8764434,6.053691,7.2713623,6.8029485,7.9611993,8.169603,-7.641627,5.9953637,-5.273714,4.2278,7.690233,-5.0655575,4.5613685,4.9288535,-3.638369,5.973673,6.7596292,7.822459,8.503333,4.001228,4.134991,7.227396,8.865745,5.754627,4.1846333,-4.5732317,5.3719625,7.5367203,8.534603,-5.875047,-8.072851,6.864564,8.681224,-5.6303244,-8.842605,-5.5284123,4.3393903,4.370063,-7.6907597,6.1377344,-5.856586,7.8771825,-2.51081,-5.326273,2.597788,-8.506275,-3.7216682,5.446413,-6.089355,5.653365,-6.8861504,-5.766658,5.2371764,3.9915128,6.28285,8.210423,8.562302,8.398424,6.5781617,-8.596027,6.181265,2.5088005,6.4816475,5.4347157,-6.3343105,7.2076583,-4.2320633,6.3844485,7.7122297,-5.217913,-2.4990656,4.450781,3.5113306,-6.717589,-5.8950286,7.6648645,-7.3526325,-6.2270083,-8.715464,6.641568,5.4486866,8.680861,-5.8146,0.27607238,5.5637083,6.8253493,-6.42547,-9.229217,7.8874607,-4.1957655,-8.095847,-7.5131316,-8.369104,7.1313453,-5.1709976,-2.0957253,6.1957874,-7.156488,-5.8903975,6.9885907,-4.5062065,8.0613,-7.666914,6.189077,7.154547,-9.35616,-3.0464258,-3.6441255,8.264391,8.109109,6.259557,-6.644895,-4.6906366,-5.9444704,6.612163,-8.713849,-5.8809156,-5.7275414,8.123956,7.713973,5.794851,-5.014385,-4.7335095,-9.662301,6.6487937,-7.930047,-8.4517145,-7.021293,0.9609273,6.4091897,-0.24827236,-4.625014,6.4802375,3.7171059,-6.7697763,6.179414,-7.200541,-8.55999,-7.2883053,-7.7855487,-7.5551724,-6.7268014,-8.157637,-4.0403357,-7.624072,4.638615,7.4041853,-9.339165,-0.70135534,5.262992,4.907102,6.8016863,-4.798451,-6.9595914,-0.8765776,5.454487,-1.9340196,5.481739,-3.282797,8.431066,-5.366551,-4.955679,-8.8129225,-7.198175,2.7871215,6.161961,-7.0173507,-4.6499286,-5.82885,6.1435566,7.8668156,-5.4225874,7.375341,-7.281478,4.7412033,7.670097,-6.9121447,1.5642674,-5.2624664,-8.917311,-7.8191724,7.741932,5.8532257,8.674038,5.8870783,8.128385,7.292153,5.082704,-8.750704,9.871611,-8.979159,6.866071,-7.4436846,7.010715,5.4111137,8.60219,2.4179015,-8.12618,-6.753256,7.258589,-8.199297,-0.10228358,4.7990704,-1.9983886,8.576975,6.5899744,5.8167334,-4.083289,-3.6915026,5.0368958
beto1236,-8.809584,-8.888362,8.5158205,-0.70787835,-2.45447,-7.59023,-7.666695,-6.040084,8.013633,7.515854,-7.4584236,8.021559,9.660063,6.372111,-4.8165636,-7.081953,6.802499,-7.435646,-9.487381,-8.5143795,8.650525,11.679539,10.220759,-1.7508087,8.182433,6.0155644,2.4991565,9.587975,5.89762,3.8194568,8.117897,8.436629,-8.032429,-11.316718,-9.946918,-7.112868,4.271013,-0.644311,2.414173,-3.5043309,9.798584,-10.656644,6.3433514,3.522987,8.842954,-7.507078,7.1230707,7.166103,8.516207,7.944942,9.417498,9.90265,-9.123853,6.893042,-6.1261125,4.8814526,9.727278,-5.8909287,5.5318174,5.6780543,-4.1680455,6.985148,8.0299835,9.586106,10.1163435,4.728437,4.5827646,8.682135,10.729689,6.895395,4.684664,-5.4663386,6.3996835,9.04356,10.301293,-7.1061234,-9.863181,8.04792,10.287738,-6.6099772,-10.547781,-6.468925,4.9502306,5.0279665,-9.300355,7.4575577,-7.305586,9.624983,-2.7438285,-6.2184944,2.8195953,-10.205017,-4.4183445,6.824156,-7.299992,6.5116725,-8.12392,-6.83778,6.087573,4.5226545,7.376943,9.97621,10.236571,10.038635,7.9047055,-10.494545,7.1965885,2.5781589,7.7347507,6.4348087,-7.571897,8.827332,-4.5737925,7.878239,9.392512,-6.138727,-2.5882983,5.631585,3.9446652,-7.8184366,-6.931937,9.3315735,-8.787219,-7.3911643,-10.271202,8.145019,6.4777913,10.646295,-6.6887994,-0.0016157627,6.471053,8.032358,-7.665209,-11.030783,9.380986,-4.915871,-9.721291,-8.832137,-9.932306,8.592783,-6.1160316,-2.2006493,7.2588334,-8.703043,-6.9289894,8.383125,-5.1707997,9.553487,-9.257431,7.4273753,8.464485,-11.327743,-3.4757626,-4.2624817,9.99362,9.627154,7.6260905,-7.927982,-5.488865,-6.99665,7.926238,-10.425222,-7.0223727,-6.67099,9.729312,9.1831455,6.9297447,-5.800399,-5.386975,-11.636483,7.8855743,-9.473738,-10.284791,-8.191269,0.8122437,7.413536,-0.32448822,-5.387638,7.717228,4.308764,-7.9116025,7.131869,-8.646637,-10.325782,-9.171619,-9.492801,-8.897642,-7.893797,-9.944558,-4.62001,-9.133621,5.352802,8.71754,-11.216321,-0.6522988,5.896369,5.517234,8.208939,-5.461256,-8.6298485,-0.80157435,6.7676663,-1.9770224,5.9897046,-3.5457196,10.007884,-6.3412466,-5.7569976,-10.792332,-8.406263,3.1187153,7.0958085,-8.419931,-5.6500597,-6.908722,7.340427,9.2133875,-6.848151,8.687027,-8.611865,5.6792393,9.085821,-8.449533,1.6769649,-6.260571,-10.77182,-9.398616,9.158437,6.813962,10.705128,7.2179494,9.77839,8.739507,5.7030387,-10.547673,11.931975,-10.827155,8.456917,-8.883426,8.461028,6.3852925,10.399156,2.551835,-9.69751,-7.991971,8.600589,-9.873972,0.08374046,5.5256386,-2.0475192,10.321942,7.7133965,7.007761,-4.793881,-4.1610556,5.882302
bord1248,-9.561448,-9.690733,9.15732,-0.5797649,-2.3694372,-8.060554,-8.257993,-6.72747,8.662153,8.135691,-8.222532,8.683341,10.505932,6.6778927,-5.133209,-7.4432225,7.3204684,-7.9339056,-10.414937,-9.109051,9.235175,12.866301,11.250309,-1.7995147,9.040728,6.259051,2.5335937,10.419172,6.2535267,3.818432,8.743163,9.164735,-8.692297,-12.309083,-10.862676,-7.655636,4.70008,-0.3816331,2.4576113,-3.4567857,10.622152,-11.780942,6.914107,3.7094398,9.565366,-8.190756,7.869189,7.903274,9.305425,8.546626,10.291751,10.948147,-9.812464,7.5518317,-6.5016394,5.0552034,10.733888,-6.214107,5.879734,6.0672083,-4.477358,7.456148,8.707204,10.462668,11.103203,4.900827,4.7533593,9.618693,11.642916,7.6342716,4.979953,-5.727534,6.8534827,10.016049,11.345843,-7.757006,-10.754971,8.74414,11.254901,-7.2469053,-11.499426,-6.9895797,5.1751366,5.349643,-10.172173,8.053202,-8.271199,10.62301,-2.8433754,-6.6502824,2.931441,-11.125383,-4.505675,7.670994,-8.066438,6.845454,-8.848123,-7.56105,6.7146506,4.7211103,7.7964435,10.7367525,11.221884,11.08943,8.473722,-11.5344095,7.673897,2.4619162,8.364749,6.9322686,-8.288698,9.729042,-4.8338537,8.75852,10.243687,-6.664408,-2.4694138,6.4090652,4.1958694,-8.381269,-7.599128,9.965257,-9.427204,-8.219669,-11.161561,9.139867,6.88198,11.593675,-7.192276,-0.17325026,7.0697784,8.633029,-8.139157,-12.048816,10.326664,-5.189088,-10.629445,-9.605826,-10.82307,9.278048,-6.4621854,-2.1430833,7.8594437,-9.558194,-7.4295607,9.023002,-5.5017767,10.25682,-10.3120575,7.8612037,9.183539,-12.383941,-3.4450748,-4.5103927,11.008223,10.515587,8.489431,-8.558778,-5.763122,-7.652437,8.747125,-11.489264,-7.513581,-7.143257,10.633423,9.938795,7.6190042,-5.968769,-5.7527647,-12.714245,8.443785,-10.199799,-11.359617,-8.781226,0.7042868,7.920946,-0.21460971,-5.715345,8.473794,4.474365,-8.532229,7.6221924,-9.39511,-11.386177,-10.283022,-10.556926,-9.679863,-8.506838,-10.698039,-4.8912625,-9.964075,5.6546226,9.419702,-12.303933,-0.5578846,6.260653,5.8043895,8.837943,-5.9454303,-9.414275,-0.67583823,7.467772,-2.0567942,6.286604,-3.486242,10.837364,-6.8034787,-6.0570345,-11.726378,-8.920268,3.2058306,7.6302004,-9.136593,-6.0024676,-7.3002205,7.9659786,9.8611145,-7.7442617,9.400494,-9.308631,6.1479764,9.945866,-9.292332,1.6398311,-6.6422677,-11.964439,-10.156741,10.016904,7.4174643,11.618698,7.693188,10.639317,9.4353485,5.9824076,-11.649551,13.132613,-11.81816,9.301498,-9.731147,9.131099,6.7716913,11.453435,2.6589217,-10.628848,-8.652454,9.344945,-10.669057,0.4376354,5.925264,-2.0102873,11.183854,8.312706,7.8134823,-5.1494575,-4.5955315,6.4030313
boro1282,-4.378048,-6.061397,7.0577183,-4.252636,-6.3691535,-7.8516703,-6.185701,-0.8783511,6.326435,7.687959,-4.776431,6.5201197,5.606219,6.9933453,-6.692748,-7.6159797,4.0116215,-7.1946716,-7.579376,-6.246979,7.107952,5.366122,5.2009244,-4.920614,3.3815434,7.298632,5.377437,6.2617116,6.385711,6.0734954,7.448173,3.9349792,-5.2554555,-5.3874593,-7.175126,-6.6300716,3.9704094,-4.969726,5.9407377,-6.2527175,6.86811,-5.050164,6.1427064,5.3838797,6.909131,-6.432783,2.3761046,4.3941946,7.926319,7.3710794,6.044753,3.8365672,-7.0584044,7.0981197,-7.0268474,7.508807,4.2961316,-7.6330233,6.7134285,5.9391084,-5.0530987,6.4132104,6.2480903,5.9509206,5.388931,6.4534216,5.6644516,3.4587274,6.6302805,2.7241755,5.733051,-7.185684,4.293756,5.878667,5.227827,-3.0653305,-4.5562835,6.1429024,6.186461,-2.5243347,-5.3777366,-2.7080817,6.1314497,7.091333,-4.599737,4.6268215,-2.7290676,4.707023,-4.9105525,-6.612198,6.0742497,-6.729961,-6.7475595,2.164701,-5.151074,7.6559534,-5.7563777,-4.7846622,6.621896,6.264406,7.966367,5.86878,5.170805,5.293416,5.4870105,-6.7927103,7.1841626,5.7801337,5.7855415,6.0802794,-7.5849977,3.5079522,-6.4517775,2.4701836,4.4894004,-7.572545,-5.80476,0.7888924,6.0164247,-6.882621,-3.7947667,6.0426373,-7.5434527,-4.8529167,-6.808979,2.2280548,7.2835073,6.1414695,-6.58549,4.0622005,7.510036,7.230649,-5.7036667,-5.952359,6.3162684,-7.0650296,-4.632603,-7.988549,-5.4363112,5.6077976,-6.141669,-5.2278533,6.768241,-3.4859776,-5.135098,6.5646014,-7.226443,8.228934,-3.297573,5.3408346,6.919175,-5.8632793,-6.849081,-5.293167,5.152013,5.1366653,2.9406595,-7.881911,-6.7310505,-5.6091223,4.3325186,-5.3551636,-6.275987,-7.595984,4.4874787,4.7336593,3.2413409,-6.865647,-6.1496263,-6.262927,7.7315974,-6.3475013,-4.7894754,-7.4805303,4.599745,7.2409215,-3.9611971,-6.041046,5.3441677,6.1147375,-4.836404,7.489596,-3.7284565,-7.211002,-2.7244582,-4.2938223,-5.087328,-8.100724,-5.9180584,-6.827729,-7.3950934,6.436047,5.6035533,-6.4168262,-3.3088012,5.6574607,6.0293694,6.2221932,-5.8502855,-2.7291248,-3.6215436,2.1493964,-4.861007,6.379444,-6.158954,7.234758,-7.759342,-6.7533183,-5.0116997,-8.613079,6.308709,7.4232044,-7.1981254,-5.868547,-7.5980134,5.94302,7.5121584,-0.8056289,7.389684,-5.404391,5.0540376,4.0006356,-3.6044803,4.060713,-6.8456116,-5.437544,-5.768038,4.758828,6.0382566,6.0379944,7.5281353,4.697458,7.256391,7.8424287,-5.20194,6.984703,-4.989481,3.2923262,-5.5674806,4.77518,6.6861567,5.555422,5.572212,-5.580759,-6.930659,7.5631604,-7.3030334,-3.4224293,5.9312773,-4.6376557,5.405394,5.1400266,2.250864,-3.4739404,-5.069881,6.3842835
caca1249,-7.4980593,-8.824231,9.289511,-3.2675989,-5.632301,-9.49967,-8.44528,-3.6995451,8.595861,9.26626,-7.1935115,8.786303,9.1304655,8.159839,-7.163775,-8.786144,6.4197993,-8.897106,-10.517234,-8.791447,9.389862,9.816979,9.062848,-4.21777,6.7906175,8.275214,5.0012064,9.558602,7.4329724,6.1154823,9.262709,7.0750184,-7.7862854,-9.46277,-10.174142,-8.29719,4.957806,-3.764983,5.2893934,-6.1903777,10.035749,-9.050404,7.7988505,5.443196,9.356816,-8.256702,5.622542,6.755304,9.991186,9.259975,9.088351,7.956609,-9.608332,8.406542,-7.9793096,7.837726,8.469001,-8.476324,7.7002077,6.9498124,-5.502767,8.057588,8.565414,9.42243,8.983677,6.924518,6.0867968,7.053617,10.151584,5.3556867,6.2563624,-7.798561,6.4176326,8.810176,9.179422,-6.0080624,-8.648286,8.520439,9.669036,-5.302129,-9.424123,-5.218003,6.6174107,7.467873,-8.230656,7.32659,-6.066645,8.450998,-4.733781,-7.659866,5.843136,-10.072021,-6.806366,5.4186707,-7.6082835,8.733609,-8.467336,-6.893765,7.860762,6.688074,9.41477,9.338366,9.005168,9.156433,7.823338,-10.359022,8.573793,5.003891,8.085604,7.442236,-9.365382,7.20884,-6.8348503,5.953747,8.004365,-8.754418,-5.0929294,3.9321005,6.1753244,-8.84683,-6.271244,8.959252,-9.822414,-7.384652,-10.113139,5.973906,8.47271,9.9796915,-8.050516,2.74206,8.770264,9.220219,-7.793187,-9.886191,9.191137,-7.558818,-8.394448,-10.313446,-8.957162,8.350343,-7.2762976,-4.654074,8.493731,-6.9246364,-6.9581103,9.042378,-7.7829256,10.655213,-7.3346553,7.655445,9.265417,-10.133588,-6.4894104,-5.8725452,9.06176,8.446162,6.2472415,-9.795183,-7.692833,-7.45807,7.4668884,-9.364221,-8.193109,-8.72432,8.174421,8.213351,5.966863,-7.693611,-7.0096107,-10.479623,9.520765,-9.266783,-8.831864,-9.163573,3.6789832,8.889475,-3.026989,-6.765803,7.7707367,6.5182533,-7.5700154,8.951011,-6.994455,-10.6221695,-7.0837555,-8.151418,-8.015286,-9.875814,-9.278624,-6.981019,-9.951838,7.100926,8.605092,-10.348906,-2.8077726,6.5940533,6.9396515,8.537589,-6.9657207,-6.536154,-2.9457705,5.2484083,-4.331818,7.0836196,-5.790615,10.288345,-8.890746,-7.585619,-9.10114,-10.394887,6.05894,8.802904,-9.464035,-6.994257,-8.84783,8.068741,9.857506,-4.384573,9.747481,-8.086708,6.4957647,7.5187683,-7.0107517,3.5734806,-8.072794,-9.578828,-9.019875,7.8877344,7.498257,10.086913,9.30097,8.407713,9.574956,8.396032,-9.445716,11.305656,-9.3689,6.7886596,-8.550777,7.75062,8.000082,9.757656,5.117134,-9.26393,-9.166114,10.045672,-10.3311825,-2.078227,7.0533504,-4.196525,9.2152405,7.296935,5.405308,-4.8751416,-5.66555,7.3951902
cald1236,-8.950136,-9.749522,9.597366,-1.982564,-4.216742,-9.33368,-8.849171,-5.369878,8.979215,9.035504,-7.933897,9.154768,10.381536,7.7324567,-6.358837,-8.3840065,7.084167,-8.779577,-10.945866,-9.418512,9.716738,11.7776,10.601099,-3.173762,8.20895,7.599096,3.9825954,10.4925785,7.135378,5.1888094,9.417458,8.4540615,-8.6745825,-11.373831,-10.918428,-8.177925,4.9940696,-2.228921,4.0345945,-5.107168,10.733143,-10.939248,7.712681,4.7763014,9.777025,-8.5773325,7.1023264,7.6891665,10.107516,9.245502,10.065223,9.838212,-10.178783,8.313569,-7.652095,6.7108984,10.163308,-7.6054077,7.139498,6.841573,-5.1142592,8.2428055,9.03901,10.402608,10.508504,6.3104134,5.465881,8.673041,11.365887,6.758338,5.7900352,-7.1869597,6.9335537,9.805633,10.741974,-7.3104753,-10.136666,8.963336,10.975441,-6.5871606,-10.933542,-6.476774,6.2015147,6.84278,-9.694649,8.060733,-7.581211,9.980066,-3.899058,-7.5756717,4.469329,-11.087237,-5.9732966,6.8217406,-8.201324,8.111946,-9.028143,-7.458558,7.6974835,5.9453335,9.101569,10.676502,10.517323,10.55608,8.538099,-11.576427,8.518192,3.8904557,8.638546,7.5021944,-9.328276,8.907655,-6.1278424,7.649704,9.589649,-8.014538,-3.9824362,5.537734,5.379936,-8.966102,-7.3860326,9.943723,-9.991143,-8.073285,-11.177673,7.829308,8.092433,11.303604,-8.010706,1.3538749,8.35973,9.228193,-8.359121,-11.36435,10.100509,-6.7610126,-10.141386,-10.450888,-10.236516,9.322976,-7.30545,-3.630363,8.499816,-8.450118,-7.40044,9.400577,-6.926862,10.985693,-9.085014,8.224054,9.791136,-11.76053,-5.237702,-5.4024386,10.4423895,9.789677,7.722712,-9.677241,-7.1511893,-7.8513355,8.491021,-10.784484,-8.2141285,-8.243795,9.837386,9.337304,7.140346,-7.050169,-6.710612,-12.139008,9.46446,-10.323799,-10.586397,-9.306387,2.2819803,8.916231,-1.7574279,-6.5567183,8.480257,5.7977023,-8.34654,8.710013,-8.481023,-11.49183,-9.134349,-9.73646,-9.278905,-9.764343,-10.430051,-6.2204976,-10.478819,6.740933,9.542299,-11.699538,-1.7345911,6.6225624,6.5429235,9.078532,-6.7328105,-8.380695,-1.958903,6.70658,-3.3754652,6.9637203,-4.873278,10.997427,-8.27166,-7.2575974,-10.909348,-10.170382,4.9814863,8.593692,-9.832823,-6.823105,-8.569128,8.330661,10.195624,-6.374583,10.036036,-9.02009,6.6103783,9.051697,-8.413732,2.6364875,-7.756731,-11.27627,-9.933096,9.319961,7.766617,11.383236,9.02314,9.937555,9.929095,7.515739,-11.014505,12.755226,-11.097194,8.436101,-9.417365,8.835501,7.7946215,11.055344,3.9467518,-10.489273,-9.359304,10.207211,-11.05775,-0.9549438,6.6928077,-3.16707,10.588691,8.00628,6.898186,-5.2942295,-5.376513,7.185028
cams1241,-8.599678,-9.354521,9.157014,-1.8426356,-4.1101217,-8.921473,-8.354228,-5.2384353,8.526686,8.657144,-7.6292195,8.842682,9.877111,7.48145,-6.057286,-8.029598,6.819407,-8.38316,-10.363103,-9.006516,9.334027,11.349906,10.201118,-3.0103455,7.896105,7.3307548,3.811403,9.992437,6.843078,5.0094666,9.014385,8.172857,-8.284016,-10.980444,-10.395079,-7.830339,4.799293,-2.113882,3.8400168,-4.8240485,10.292271,-10.42665,7.2510147,4.5954266,9.485917,-8.202469,6.797801,7.33404,9.591014,8.806698,9.662231,9.442818,-9.781771,7.9396915,-7.359829,6.444679,9.64034,-7.2894497,6.834861,6.5610557,-4.915226,7.8616405,8.704214,9.9288845,10.171111,6.000698,5.4236035,8.347633,10.980132,6.525476,5.5250864,-6.8637366,6.668547,9.285362,10.251997,-6.9352007,-9.654872,8.599892,10.465005,-6.4178553,-10.50012,-6.2190933,5.948147,6.4821496,-9.281199,7.7808456,-7.1330643,9.572329,-3.7287478,-7.2326145,4.3069944,-10.6140995,-5.7668185,6.5193353,-7.8039346,7.7810183,-8.633864,-7.130624,7.302053,5.7295156,8.755979,10.311674,10.095653,10.111282,8.198833,-10.972138,8.0983305,3.7690227,8.264022,7.160459,-8.838279,8.453724,-5.7882442,7.4058046,9.236701,-7.5838904,-3.8091576,5.199983,5.0752687,-8.598213,-7.033736,9.595481,-9.6040745,-7.725008,-10.61663,7.590848,7.736412,10.8003845,-7.6833158,1.275092,7.864308,8.868468,-8.037493,-11.036078,9.792841,-6.4434004,-9.703491,-10.026327,-9.885721,8.95015,-6.9258976,-3.4996371,8.180209,-8.226372,-7.188811,9.046376,-6.5401025,10.488546,-8.768223,7.8746257,9.240956,-11.332855,-5.0507927,-5.192972,9.979013,9.481804,7.329702,-9.20955,-6.8472996,-7.5064855,8.280321,-10.370737,-7.8031774,-7.9069014,9.567559,9.056564,6.8395033,-6.7714148,-6.415327,-11.684465,8.996058,-9.866578,-10.186388,-9.008405,2.156275,8.489047,-1.571178,-6.212818,8.141102,5.517748,-8.14857,8.331578,-8.205458,-10.97944,-8.70223,-9.368822,-8.954892,-9.269852,-10.06963,-5.889287,-9.878585,6.4709635,9.163957,-11.227786,-1.7066866,6.3813553,6.3237963,8.791437,-6.4057717,-8.137634,-1.8037759,6.356097,-3.2096663,6.7411833,-4.7179823,10.558242,-7.874113,-6.90448,-10.45458,-9.715353,4.6578,8.189119,-9.400557,-6.568552,-8.167278,8.016396,9.78221,-6.1512175,9.57964,-8.670126,6.2981176,8.7661495,-8.093979,2.5315542,-7.3728986,-10.690403,-9.5919075,8.989877,7.516339,10.823625,8.541585,9.526899,9.59815,7.171081,-10.584626,12.173645,-10.639868,8.049015,-9.054905,8.458439,7.38485,10.499711,3.6801186,-9.993969,-8.864304,9.672517,-10.472983,-0.8482165,6.422734,-3.0130394,10.18351,7.805722,6.6060724,-5.076893,-5.071605,6.8656373
cane1242,-4.479581,-5.1042094,5.654967,-2.202706,-3.684843,-5.5843763,-4.966112,-2.075479,5.131695,5.6224017,-4.1067085,5.0405397,5.262433,5.159484,-4.460522,-5.5423703,3.9024956,-5.3073025,-5.859706,-5.340431,5.6332254,5.5535145,5.2116165,-2.6532006,3.7609851,5.0787086,3.203443,5.342277,4.767584,4.1943674,5.8141985,4.034351,-4.648783,-5.7286034,-6.0596247,-5.090914,3.0250287,-2.6974046,3.4724638,-3.800529,5.8937225,-5.203798,4.527497,3.6589286,5.6803565,-5.0232754,3.0656846,3.979678,5.93373,5.5332747,5.381256,4.509015,-5.8664002,5.1661024,-4.946816,4.7887607,4.3824744,-5.1120005,4.44892,4.356141,-3.572438,4.8982286,5.062199,5.1441836,5.2976036,4.302962,4.0680847,4.012376,5.9993906,3.17969,4.0045896,-4.761995,3.772276,5.027725,5.1937914,-3.4498947,-4.77287,5.0846086,5.7088203,-3.1913106,-5.50407,-3.1887357,4.379156,4.7422066,-4.6604056,4.2067046,-3.1421726,4.705846,-3.1372929,-4.7186646,3.5955813,-5.8855567,-4.3182325,2.5749314,-4.2604685,5.408365,-4.965933,-4.092396,4.6260433,4.257829,5.729028,5.3332777,5.2831783,5.202795,4.6807733,-5.8306074,5.33482,3.535004,4.6142316,4.664858,-5.413716,3.9289446,-4.36366,3.213122,4.618245,-5.065629,-3.552552,1.6991473,4.0115848,-5.3179426,-3.6819887,5.315091,-5.873815,-4.3037214,-6.1247773,3.1045117,4.975945,5.679793,-4.9787703,1.9843808,5.1890206,5.59377,-4.9036937,-5.8211894,5.5725193,-4.497317,-4.7394,-6.0650535,-5.2658253,4.9234223,-4.58928,-3.150834,5.0081086,-4.001025,-4.3859816,5.212934,-4.740334,6.4319234,-4.098992,4.5174932,5.269712,-5.7713084,-4.048233,-3.6566942,5.0896974,5.1158013,3.3386538,-5.742787,-4.6461787,-4.444804,4.1653028,-5.4521356,-4.7942643,-5.330147,4.889092,4.6528077,3.3939712,-4.923813,-4.403651,-6.046754,5.6822453,-5.432368,-4.941939,-5.9150624,2.3550847,5.48595,-1.8232656,-4.375882,4.604479,4.054404,-4.629352,5.373512,-4.092978,-5.9168,-3.4302244,-4.361043,-4.8611965,-5.812224,-5.519225,-4.399561,-5.8800306,4.4421287,5.057783,-6.1290326,-1.6630526,4.6309695,4.451289,5.0067253,-4.2781034,-3.5446186,-1.8174641,2.7308798,-2.8343155,5.0061975,-3.9696164,6.0867853,-5.205412,-4.666489,-5.2311115,-6.4512024,3.7414758,5.530292,-5.4363084,-4.055679,-5.2761073,4.617234,6.1835895,-2.1008909,5.7853403,-4.987534,3.8182948,4.4476986,-3.9919047,2.3932257,-4.696249,-5.41257,-5.2252865,4.8447766,4.6904974,5.602431,5.123143,4.8985295,5.732982,5.30855,-5.267537,6.284565,-5.255876,3.8251376,-5.020208,4.634306,4.803572,5.3428707,3.3862395,-5.1528926,-5.3094935,5.7454004,-5.9090595,-1.6750531,4.284487,-2.8096423,5.5218143,4.583314,2.9951715,-2.983899,-3.4437144,4.4887285
cani1243,-5.7125773,-7.2997565,7.9731703,-4.037933,-6.321233,-8.635197,-7.1489935,-1.8306525,7.1038194,8.41642,-5.8106227,7.4433703,6.948253,7.654647,-6.99265,-8.372876,5.0332127,-7.928429,-8.685727,-7.324034,8.231386,7.121236,6.645739,-4.8897614,4.590075,7.853505,5.413943,7.511774,6.921728,6.288881,8.390227,5.1399126,-6.2229013,-7.0288,-8.350027,-7.2603693,4.4430814,-4.725485,5.8679166,-6.3979487,8.113737,-6.682744,6.9339375,5.55734,8.040939,-7.2323136,3.4852989,5.2382517,8.945294,8.238098,7.2285333,5.42046,-8.150334,7.706704,-7.5920286,7.8900485,5.835377,-8.014854,7.3273582,6.552611,-5.2767973,7.0914326,7.2757998,7.262296,6.931789,6.887937,6.024471,4.8037815,8.069762,3.7532625,6.094811,-7.6733456,5.1150026,7.0738606,6.6880527,-4.0919204,-6.025921,7.056119,7.675344,-3.675824,-6.9133263,-3.612314,6.53864,7.5567155,-6.028195,5.68451,-3.890367,6.190522,-5.0427756,-7.3214145,6.165762,-8.233151,-6.883427,3.3069143,-6.069469,8.333884,-6.814018,-5.509281,7.2688317,6.6842203,8.845641,7.3043356,6.5591474,6.705821,6.438525,-8.307613,7.8355207,5.771025,6.7945724,6.769825,-8.520144,4.86395,-6.8549643,3.7049167,5.8755336,-8.097517,-5.8288584,1.8787783,6.13827,-7.7998567,-4.8701005,7.324192,-8.561856,-5.9165998,-8.137671,3.5492377,7.924037,7.6631436,-7.2600746,3.8126402,8.203824,8.092267,-6.6651955,-7.612449,7.453685,-7.3665257,-6.123643,-9.035532,-6.7163825,6.8484178,-6.8104987,-5.2310843,7.5220113,-4.732734,-5.813577,7.5212283,-7.5863466,9.291683,-4.597325,6.256436,8.011334,-7.5785966,-6.855552,-5.7085924,6.545907,6.523119,4.15397,-8.786166,-7.35295,-6.3886747,5.557241,-6.8020177,-7.0871906,-8.253101,6.0473075,6.021863,4.356089,-7.2603974,-6.7510934,-7.931425,8.604216,-7.70154,-6.3936753,-8.427762,4.409382,8.077585,-3.7841766,-6.502515,6.4116216,6.373567,-5.9490967,8.2051,-5.0282664,-8.591964,-4.316421,-5.6973104,-6.3081465,-9.0511265,-7.3445473,-7.09489,-8.471668,6.9518666,6.914754,-7.93924,-3.1727164,6.051487,6.551257,7.292754,-6.4085526,-4.149006,-3.5994928,3.3709967,-4.7978334,6.974475,-6.253899,8.452856,-8.466204,-7.3342414,-6.586838,-9.506853,6.4416494,8.106308,-8.216841,-6.571207,-8.273696,6.9004354,8.4631605,-2.1202962,8.438368,-6.4320736,5.7015796,5.41653,-4.7954564,4.024661,-7.580343,-7.0343723,-7.058537,6.1184053,6.7620716,7.5202274,8.357516,6.0439696,8.371469,8.159994,-6.8177114,8.63394,-6.587513,4.6147075,-6.693351,5.98992,7.300489,7.0973587,5.4665723,-6.9897594,-7.7676096,8.579044,-8.665063,-3.0574026,6.373193,-4.5868483,6.8515606,5.964905,3.4525754,-4.0496483,-5.431061,6.8409467
capa1241,-7.7354116,-8.903938,9.127583,-2.9994578,-5.2977495,-9.31,-8.378504,-3.9031713,8.4651575,9.140266,-7.201128,8.771559,9.1201515,7.9797273,-6.9056435,-8.577005,6.4589896,-8.679414,-10.369247,-8.649996,9.350324,9.969775,9.148712,-4.073563,6.861103,7.9901066,4.772509,9.503256,7.2708244,5.9081545,9.104116,7.2118883,-7.8473444,-9.687968,-10.1444025,-8.073434,4.8562274,-3.5115747,5.030213,-5.942353,9.89559,-9.2405815,7.6078315,5.3530536,9.264713,-8.242379,5.83976,6.8147283,9.78149,9.153447,9.094636,8.137442,-9.527227,8.289077,-7.901655,7.554785,8.583444,-8.215106,7.464518,6.8454137,-5.3612227,8.044704,8.441897,9.432437,9.27872,6.6647477,5.923579,7.145982,10.186397,5.5984306,6.052787,-7.6629167,6.309568,8.783055,9.20774,-6.1509953,-8.605717,8.383095,9.7309065,-5.4378476,-9.455029,-5.394164,6.5352488,7.328723,-8.34149,7.304881,-6.1726375,8.52898,-4.5877967,-7.6712203,5.3909407,-10.129604,-6.5819607,5.4228783,-7.5342183,8.484307,-8.318366,-6.7953315,7.765746,6.6197853,9.276355,9.492796,9.078055,9.143553,7.8335686,-10.461773,8.363875,4.8452306,8.006956,7.3989477,-9.239829,7.3307514,-6.6856494,6.134287,8.147387,-8.397001,-4.8472986,3.9976692,5.9886265,-8.6828985,-6.4645386,9.009115,-9.656905,-7.399267,-10.165999,6.1522846,8.177828,10.025298,-7.978991,2.5131998,8.618791,9.0467205,-7.8209333,-9.894507,9.138943,-7.3603516,-8.641414,-10.173476,-8.931952,8.431879,-7.280389,-4.4355392,8.355554,-7.018742,-6.9229984,8.906906,-7.527147,10.561714,-7.355861,7.557987,9.3091545,-10.246804,-6.1494617,-5.720723,9.076323,8.671611,6.374973,-9.62379,-7.4634914,-7.4205055,7.5372305,-9.395424,-7.939892,-8.510187,8.386199,8.235778,5.995765,-7.4400053,-6.941678,-10.593227,9.364752,-9.38354,-9.008163,-9.114218,3.413907,8.783085,-2.7161388,-6.7062564,7.8861756,6.306673,-7.64069,8.755352,-7.1420383,-10.613904,-7.2911525,-8.228645,-8.187707,-9.756407,-9.31159,-6.8525143,-9.964858,6.961845,8.642678,-10.427886,-2.5780234,6.518327,6.7996078,8.514184,-6.760378,-6.656729,-2.8493152,5.471831,-4.184479,7.048632,-5.6650643,10.242672,-8.658684,-7.442829,-9.265556,-10.216324,5.794404,8.6179085,-9.397378,-6.995265,-8.68386,7.945348,9.763898,-4.626315,9.660587,-8.079482,6.466856,7.6348867,-7.159131,3.369129,-7.8509383,-9.687705,-8.925089,8.110915,7.5043173,10.101966,9.041928,8.464054,9.465275,8.017168,-9.543037,11.297437,-9.428449,6.970457,-8.557378,7.8694677,7.7982388,9.638858,4.843974,-9.35881,-8.948875,9.87274,-10.372746,-1.8731573,6.83285,-3.9134133,9.311606,7.337411,5.426392,-4.902118,-5.494703,7.2620754
cari1276,-6.725778,-6.7298613,6.526476,-0.8023765,-2.0169382,-5.761843,-5.9867806,-4.6065655,6.214158,5.8419676,-5.5893474,6.07804,7.3250036,5.137677,-3.8118095,-5.653351,5.363406,-5.8391685,-7.1387186,-6.613938,6.5919356,8.810492,7.762144,-1.252975,6.196373,4.6274457,2.024667,7.214928,4.8142357,3.2723386,6.3642683,6.3452554,-6.16766,-8.6789,-7.671864,-5.6010976,3.2890742,-0.86661583,2.0197675,-2.7525408,7.5962157,-8.067288,4.8230004,2.9750865,6.931502,-5.782641,5.4390984,5.524495,6.460739,6.0547814,7.198047,7.566149,-7.187556,5.3060675,-4.801512,3.740936,7.00022,-4.570168,4.0606146,4.2779236,-3.2968576,5.4086537,6.119294,7.1680994,7.5740223,3.8190084,3.8055985,6.610974,8.279441,5.2196145,3.7543473,-4.2139244,4.9045215,6.7704077,7.7899046,-5.4860835,-7.4172835,6.293401,7.901346,-5.078456,-8.066487,-5.1144047,4.109787,3.9141564,-7.073004,5.6986027,-5.3025527,7.2824807,-2.1740673,-4.7704344,2.3226836,-7.8278193,-3.5571527,4.9486036,-5.4650626,5.0877924,-6.2598786,-5.387991,4.534964,3.6555247,5.6553183,7.541684,7.9762573,7.6599627,5.991887,-7.7492075,5.6539493,2.2434158,5.746771,4.986121,-5.603663,6.556117,-3.6800582,5.9048724,7.048139,-4.656022,-2.163884,4.021901,3.2522318,-5.9446526,-5.374317,7.182569,-6.6683874,-5.605541,-7.9677377,6.006792,4.9685354,8.059535,-5.307748,0.14928335,5.012543,6.234622,-6.04142,-8.501239,7.270816,-3.6602213,-7.304635,-6.7094507,-7.6449842,6.5926747,-4.762629,-1.9222271,5.535697,-6.720818,-5.53771,6.3041162,-4.0305066,7.370675,-7.028883,5.6331067,6.2836475,-8.527534,-2.7250154,-3.384103,7.5127754,7.4068604,5.629477,-5.974342,-4.2411284,-5.322802,6.091625,-8.083643,-5.470958,-5.1562524,7.5569205,7.0461574,5.2221494,-4.7413554,-4.246308,-8.890678,6.0584106,-7.2356334,-7.605794,-6.471437,0.63330245,5.7686453,-0.21945292,-4.2171407,5.8782015,3.4761891,-6.302229,5.462213,-6.634496,-7.620494,-6.6228986,-7.1222286,-6.8949995,-5.8605227,-7.6943626,-3.671099,-6.9812655,4.188357,6.7160134,-8.58749,-0.46004963,4.97574,4.382741,6.144818,-4.2864747,-6.3747563,-0.53733003,4.935304,-1.6689558,5.0317802,-3.0449996,7.724568,-4.715453,-4.35192,-8.212248,-6.672533,2.3881335,5.6393814,-6.2626753,-4.08667,-5.245056,5.4611764,7.256146,-5.0581427,6.6262665,-6.865663,4.24525,7.0188065,-6.381938,1.497325,-4.65365,-8.176802,-7.0957403,7.1521544,5.3258934,8.149924,5.369474,7.6280007,6.647536,4.6620417,-8.053286,8.929148,-8.2829685,6.446136,-6.9106116,6.55111,4.882267,7.8699074,2.1872833,-7.294436,-6.1443996,6.4699717,-7.382673,-0.18350635,4.4768534,-1.6938742,8.044792,6.058586,5.273668,-3.7732205,-3.3113947,4.4872437
