glottocode,0,1,2,3,4,5,6,7,8,9,10,11,12,13,14,15,16,17,18,19,20,21,22,23,24,25,26,27,28,29,30,31,32,33,34,35,36,37,38,39,40,41,42,43,44,45,46,47,48,49,50,51,52,53,54,55,56,57,58,59,60,61,62,63,64,65,66,67,68,69,70,71,72,73,74,75,76,77,78,79,80,81,82,83,84,85,86,87,88,89,90,91,92,93,94,95,96,97,98,99,100,101,102,103,104,105,106,107,108,109,110,111,112,113,114,115,116,117,118,119,120,121,122,123,124,125,126,127,128,129,130,131,132,133,134,135,136,137,138,139,140,141,142,143,144,145,146,147,148,149,150,151,152,153,154,155,156,157,158,159,160,161,162,163,164,165,166,167,168,169,170,171,172,173,174,175,176,177,178,179,180,181,182,183,184,185,186,187,188,189,190,191,192,193,194,195,196,197,198,199,200,201,202,203,204,205,206,207,208,209,210,211,212,213,214,215,216,217,218,219,220,221,222,223,224,225,226,227,228,229,230,231,232,233,234,235,236,237,238,239,240,241,242,243,244,245,246,247,248,249,250,251,252,253,254,255
abip1241,-2.2843852,5.2690477,-3.8483093,-7.3934326,-10.175892,-6.891422,-0.29032815,-8.303354,-6.7350097,6.9881725,-6.0902543,-3.5759804,7.295804,-5.776701,-4.6519027,-8.721921,-7.164113,-9.663122,7.7899847,-8.750327,-6.7158256,8.864561,7.8341355,-4.0591254,-2.8010788,6.6851377,-5.302549,-9.603384,-4.8298464,-7.559991,6.845129,-7.6924543,7.294163,-6.6089344,5.6547318,4.338645,6.436773,-7.69103,5.110771,4.915466,-7.5378265,7.1113133,2.7774627,6.234814,-5.0733027,6.195305,-7.7529488,4.263132,-8.519387,9.09001,-8.61194,-6.190055,7.1051817,-6.8422365,-5.550562,-5.0898137,-6.6420393,6.461021,7.957057,-7.1572914,8.301547,7.5871596,5.388752,3.766693,-9.167042,8.834764,6.863428,-2.5500288,7.006778,-7.082725,5.740834,-6.6949205,-7.468545,-5.7698855,5.7550635,6.1580005,-4.4288163,7.5830135,-4.8244443,-8.534049,7.410579,-3.9481227,5.771244,-7.9880524,4.991919,-5.7792726,1.1334811,-4.3032413,-2.509242,-7.647946,-3.7610805,-5.799408,-4.1605997,6.891767,-6.4854836,-7.5659876,-6.5946813,-7.8522754,-7.202882,5.938187,3.2829962,-3.9146013,-5.941773,7.599674,-5.9798794,6.954574,6.9532285,-5.9500804,7.9370813,-8.014357,-8.59596,4.8417253,-7.961899,3.143176,7.362116,7.8558106,5.5812697,-7.71314,9.093143,4.447361,5.806521,7.894534,5.773614,-4.9159555,9.479891,-8.367622,-6.759568,7.3461547,-5.980299,0.96146864,8.8507595,4.371118,4.883669,-5.2989507,-2.9895554,-1.7692347,3.1292663,-8.135295,8.251749,-5.4042654,7.7734714,-4.0141525,8.456922,-7.466285,-5.367849,8.774726,7.1486607,-5.348282,7.5571337,-6.1748466,-6.0877867,6.755286,5.575468,6.054756,6.8479323,-6.2557273,8.404399,5.095006,-7.043099,-6.4827924,-4.7123504,-5.614097,-7.537142,-7.6842813,-7.9187446,7.8394876,-8.356757,5.851571,-6.270983,-7.0825424,-6.813368,7.326703,-3.7877398,5.1292896,-5.9427934,7.4711785,-6.343869,-7.732362,-2.0984151,-5.701521,-8.073865,-5.924953,-2.7188203,5.397502,9.253286,-6.287289,5.1791916,-2.1025832,-1.880316,-7.600565,4.6523046,-7.533719,-2.4527447,6.0280643,6.844998,-8.66821,4.5621643,-7.3446856,-4.163588,6.8174787,-7.0975122,0.35396022,-8.053607,-8.465751,-5.0588627,-6.5988226,-8.183495,-6.9269276,-5.083769,7.5195856,8.2441225,-4.183293,4.0749345,-8.8215685,7.105946,4.630518,-5.401956,5.827013,3.6376538,7.6632996,6.031956,-3.8171613,-6.1519847,0.85212606,0.46069157,-8.493992,4.2307577,-5.6248546,-4.5647593,6.295247,-9.632832,-9.792308,7.0888143,4.679662,-8.720569,-6.278537,-5.507244,-5.4983554,9.763615,-7.4694905,-4.9407296,-8.96531,-6.248038,4.3680563,8.216888,-10.516897,-4.7838125,4.4194603,-7.8516345,6.7757306,9.346048,8.496757,9.073555,-7.6787424,6.094984,4.3030133
acha1250,-8.462721,7.854968,-9.849654,-2.907341,-10.717076,-5.49319,-4.458399,-7.677021,-10.724668,12.538502,-8.184914,-9.456737,6.8531604,-11.896419,-9.469433,-5.660613,-5.5872855,-9.582951,8.394603,-7.6164327,-8.020927,6.0315666,6.9030075,2.082199,-9.2316675,8.079215,-10.601666,-5.8171988,-10.009399,-4.559191,7.980287,-4.109126,3.345752,-1.854155,1.5927684,10.839483,12.063898,-5.0201273,11.378559,7.591271,-6.8868914,2.8080246,7.9582405,4.8916044,-6.913025,3.9160786,-4.795988,8.494069,-5.858659,6.9081745,-6.5458536,-5.9663534,10.057616,-2.9194503,-9.187344,0.8644731,-9.624074,6.270339,4.766933,-5.8889194,8.260569,8.373157,9.893689,10.451123,-6.66691,6.241118,5.3046236,-8.4688835,11.706928,-6.612801,10.533095,-6.3340774,-4.8021154,-7.919102,10.600547,3.5868847,-2.7964323,7.7278023,-4.4474163,-5.64353,3.3951135,-9.173152,7.2180796,-6.4099574,5.153618,-10.979119,7.5130053,-8.085453,-8.151455,-4.3842163,-9.096564,-4.5426764,-6.8912454,9.408545,-4.1478286,-2.999439,-9.32082,-4.7421045,-5.8075905,7.893356,8.934903,2.1138022,-9.53874,9.549661,-7.5275483,4.9859333,8.726676,-10.891281,5.8750825,-4.057224,-5.337294,10.60933,-8.148034,8.65282,3.9018614,10.808702,9.062998,-8.9796295,7.093993,9.318632,9.106572,5.7786226,11.355331,-10.728044,7.9913144,-5.5754795,-2.544355,3.030504,-9.87049,6.034421,6.4946747,9.101365,9.134263,-8.663702,-3.9168887,-7.943613,7.6788282,-5.7705464,5.249591,-0.32284388,6.524936,-9.781088,5.4735327,-7.0520053,-7.162314,4.1812663,5.163949,1.4803454,3.3838909,-9.818213,-7.76689,2.139302,1.9364997,4.943732,6.1047873,-10.092166,4.585374,9.183673,-5.933544,-1.5626234,-8.421867,-8.833655,-3.9203598,-9.930809,-9.579275,10.133788,-4.017769,9.950102,-6.3042545,-7.069738,-5.3640356,3.664185,0.78354275,1.0876325,-5.6380873,7.1027412,-2.0722084,-5.5735693,-6.8219805,-8.720919,-4.433625,-10.746192,2.6052659,11.404781,6.3628125,-1.7017038,-0.15551758,-7.547453,-7.9673934,-7.9400406,8.301696,-4.251807,-7.6622767,5.1252756,6.8753443,-7.538619,8.506373,-3.4663785,-8.705069,8.038142,-8.665132,-4.8192263,-7.155773,-6.683309,-9.969618,-7.4551826,-8.388826,-2.4380524,-7.2901087,7.536152,6.437268,1.6637824,8.699371,-8.86455,4.9464364,-0.46521997,-8.861099,7.466394,9.002714,6.149402,6.239876,-8.86827,-6.661688,-5.8098593,7.017887,-7.7626195,-0.31947297,-9.716825,-10.169936,-0.0070879906,-5.1174974,-7.5393863,8.789839,9.290535,-4.439371,-3.3198266,-10.797751,-7.378722,7.7440133,-6.9908137,-8.797804,-8.966524,-4.2658606,8.179803,6.325583,-8.794869,-10.568077,6.418887,-5.442626,8.250513,7.6791396,5.619256,8.144128,-4.2460294,10.85546,10.535237
ache1246,-2.528067,5.2197747,-3.9405382,-6.770555,-9.60748,-6.424302,-0.5202673,-7.9183817,-6.462984,6.9391704,-5.806135,-3.6504562,6.867692,-5.738313,-4.5365634,-8.155147,-6.695782,-9.068141,7.3335123,-8.125022,-6.36574,8.234484,7.4241724,-3.6941857,-3.003463,6.4215565,-5.315043,-8.815381,-4.757557,-7.1275425,6.55152,-7.1043005,6.722964,-5.998189,5.289092,4.4667163,6.2449446,-7.1264367,5.06148,4.8108582,-7.06656,6.6009574,2.892146,5.8543687,-4.827491,5.7928576,-7.157678,4.3462768,-7.9367733,8.558857,-7.9928656,-5.8358803,6.9426193,-6.389115,-5.4469347,-4.6091285,-6.4125004,6.123499,7.3425403,-6.8160443,7.9102077,7.300804,5.2728825,3.825181,-8.56062,8.195279,6.434686,-2.6610863,6.73646,-6.7384963,5.6623335,-6.401283,-7.049089,-5.6005273,5.5502024,5.70635,-4.1622066,7.14315,-4.56757,-7.9055924,6.8210206,-4.0601044,5.6235266,-7.442206,4.6850147,-5.6573443,1.3758469,-4.37197,-2.656102,-7.1378055,-3.8094118,-5.3719525,-4.193049,6.568634,-5.9710135,-7.0234246,-6.3348575,-7.2733827,-6.743186,5.8174634,3.4448214,-3.4362996,-5.822017,7.3463883,-5.765478,6.548038,6.606705,-5.901899,7.5206547,-7.4138055,-7.915428,4.791544,-7.5305467,3.2055707,6.8519177,7.5736604,5.467267,-7.257081,8.396042,4.4570637,5.577415,7.3636866,5.820278,-4.866397,8.837624,-7.7957706,-6.246147,6.7957973,-5.8281474,1.1483915,8.20553,4.4208703,4.926744,-5.210887,-2.8442447,-1.9810218,3.1405826,-7.6473513,7.66282,-4.9785814,7.269403,-3.9960268,7.9610777,-7.0323586,-5.1634445,8.124921,6.616439,-4.7493677,6.9793043,-5.940204,-5.7512474,6.164323,5.127808,5.7514257,6.376047,-6.0868917,7.7534156,5.092873,-6.6895514,-5.898474,-4.675797,-5.429413,-7.0336514,-7.374507,-7.5827703,7.488342,-7.6476984,5.7742667,-5.8992214,-6.758349,-6.4257994,6.806699,-3.4569898,4.6948605,-5.704033,7.0394316,-5.886071,-7.1265774,-2.1676426,-5.5193334,-7.436319,-5.912398,-2.4288037,5.4234867,8.549183,-5.8432145,4.7278376,-2.2700608,-2.0148888,-7.12223,4.545059,-6.964798,-2.5408628,5.6968966,6.4291654,-8.127433,4.4596767,-6.7928042,-4.122861,6.5338407,-6.779318,0.122388065,-7.5470047,-7.9001637,-4.9297514,-6.3309445,-7.746342,-6.3203683,-4.978301,7.1138535,7.7173867,-3.7423375,4.0559874,-8.411295,6.606708,4.090622,-5.2753563,5.627774,3.701027,7.2460513,5.684676,-3.8244367,-5.8287063,0.46816403,0.63822114,-8.022359,3.8197963,-5.529161,-4.529963,5.673149,-8.946622,-9.2061825,6.7648916,4.524107,-8.044722,-5.87137,-5.4555907,-5.365179,9.032268,-7.0430684,-4.8398857,-8.442097,-5.8111706,4.357477,7.786204,-9.818538,-4.804199,4.3449774,-7.32277,6.4314666,8.706287,7.8861227,8.507959,-7.0542374,5.9871855,4.3667984
achu1248,-8.086563,8.434845,-9.794236,-4.254148,-11.944853,-6.5521545,-4.101908,-8.891312,-11.260556,13.099611,-8.7329235,-9.486095,7.9862223,-12.065729,-9.722178,-7.1421037,-6.647956,-10.785622,9.4964285,-8.846068,-8.8531,7.3844633,8.010566,1.1493409,-9.014328,8.94477,-10.794382,-7.438155,-10.150502,-5.777089,8.901147,-5.4059997,4.618507,-2.9760687,2.3359494,10.933269,12.502133,-6.305357,11.649043,8.064837,-8.015584,4.155732,7.929188,5.7434583,-7.491206,4.94342,-6.1639714,8.738915,-7.1608086,8.231816,-7.8008695,-6.7211246,10.698415,-4.1898317,-9.610486,-0.36909965,-10.275457,7.011371,6.0483418,-6.9259014,9.296448,9.401605,10.263034,10.545208,-8.203507,7.653023,6.2612257,-8.453193,12.249926,-7.4681644,10.893604,-7.3000007,-6.0279655,-8.496047,11.008382,4.4939194,-3.4979644,8.555759,-4.964873,-7.1276546,4.89354,-9.155447,7.904403,-7.584164,5.7753143,-11.263205,7.2933,-8.204763,-7.88578,-5.5658083,-9.07241,-5.3115654,-7.150589,10.070865,-5.142528,-4.4132113,-9.901991,-6.136645,-6.83244,8.392955,8.938845,1.1083076,-9.978998,10.255787,-8.300036,6.009203,9.59979,-11.288634,7.1041784,-5.4841194,-6.657482,10.834227,-9.277813,8.621988,5.0834436,11.650002,9.449987,-9.835382,8.3543825,9.534645,9.56478,6.8793488,11.684919,-10.913426,9.44052,-7.0374327,-3.6514273,4.327415,-10.252665,5.894746,7.8411393,9.225135,9.151777,-9.226494,-4.1776943,-7.576371,7.9782324,-6.9988155,6.590985,-1.412296,7.566186,-9.985207,6.7330256,-7.8276258,-7.802234,5.616233,6.2406883,0.10699056,4.695393,-10.273823,-8.539125,3.448119,2.9429197,5.779485,6.9445286,-10.596333,6.0828314,9.486273,-6.863702,-2.7344484,-8.740537,-9.23758,-5.1375046,-10.738564,-10.28706,10.917938,-5.5442986,10.307753,-7.118097,-7.7980175,-6.350293,4.840149,0.18047838,2.0616133,-6.2577963,8.245465,-3.2593732,-6.6435375,-6.7147465,-9.219839,-5.8738985,-11.0116005,2.0571837,11.669701,7.837579,-2.9758751,0.88703525,-7.404271,-7.940055,-8.811276,8.569253,-5.5639315,-7.527977,5.94773,7.6573277,-8.793629,8.734094,-4.705055,-8.923132,8.863721,-9.585525,-4.403763,-8.31819,-8.041823,-10.351249,-8.266621,-9.466349,-3.6073585,-7.9044557,8.413233,7.666731,0.77198726,8.969251,-10.028037,5.8847456,0.61665136,-9.459494,8.1041765,8.84601,7.3392024,6.926589,-9.060647,-7.404766,-5.066428,6.503166,-8.845051,0.55611825,-10.063711,-10.342159,1.3422278,-6.8050303,-9.027887,9.448568,9.471131,-6.0068426,-4.288193,-10.900331,-7.852495,9.17386,-7.9396534,-9.283513,-10.27004,-5.2756557,8.576244,7.627293,-10.284009,-10.688549,6.7212563,-6.7531257,8.895134,9.160132,6.934758,9.325468,-5.620782,11.279154,10.576183
aika1237,-4.3223486,6.0464196,-5.759671,-5.5669665,-9.983397,-6.1922593,-1.7202475,-7.868731,-7.8060527,8.624616,-6.5904393,-5.460178,6.931264,-7.6099396,-6.05775,-7.414551,-6.313819,-9.23721,7.5004454,-7.9711046,-6.8294406,7.4609714,7.1694794,-1.8710759,-4.8271537,6.9171357,-6.93954,-7.7635064,-6.4008837,-6.298199,6.9171767,-6.08679,5.745772,-4.770642,4.103072,6.341569,8.018376,-6.594314,6.983863,5.6642914,-6.8674254,5.4522915,4.395473,5.4977283,-5.519251,5.2869363,-6.399076,5.6419864,-7.383997,7.975539,-7.4450135,-5.864822,7.8803606,-5.306472,-6.7417636,-2.8285382,-7.4534254,6.1944036,6.534993,-6.522112,8.023388,7.599169,6.774405,5.832683,-7.970293,7.5560017,6.105087,-4.4962726,8.218994,-6.6843224,7.107024,-6.389277,-6.317199,-6.3386183,7.2633386,5.09297,-3.6616194,7.205282,-4.465137,-7.2610445,5.8049912,-5.625664,6.1229534,-7.140314,4.9885616,-7.342894,3.2305443,-5.5135756,-4.385825,-6.2505875,-5.4080014,-5.152911,-4.9868364,7.430977,-5.2731295,-5.807978,-7.2752104,-6.4804435,-6.3481812,6.4549026,5.0990686,-1.7275147,-6.976071,7.9425907,-6.4309945,5.969779,7.3035374,-7.484494,6.9481506,-6.461921,-7.1152754,6.540819,-7.8321095,4.892383,5.8997874,8.446847,6.5653296,-7.7361083,8.005175,5.92782,6.721835,6.7964606,7.5611176,-6.694439,8.646469,-7.045447,-5.1116743,5.624475,-7.036284,2.6660454,7.807167,5.8035793,6.060331,-6.2834797,-3.170248,-3.7996838,4.6510873,-7.103288,6.9000325,-3.4764655,6.97869,-5.9447327,7.17082,-7.0042357,-5.833485,6.890394,6.1269336,-2.992909,5.9684024,-7.086798,-6.4374967,4.8472457,4.1186953,5.404192,6.2810936,-7.2686086,6.8023634,6.344143,-6.3889227,-4.518295,-5.8027067,-6.41854,-6.039953,-8.054571,-8.223019,8.243497,-6.639679,7.0346065,-5.9977355,-6.834432,-6.0926294,5.7873497,-2.074138,3.6363616,-5.597833,7.1069956,-4.6340637,-6.6705213,-3.5625424,-6.5635667,-6.550243,-7.347215,-0.8609877,7.3006473,7.8878126,-4.603757,3.2010384,-3.9601755,-3.8891118,-7.2456303,5.712648,-6.146391,-4.1253867,5.4683847,6.5727134,-7.8977776,5.719457,-5.8288984,-5.606741,6.9548736,-7.32997,-1.4282258,-7.486254,-7.4295397,-6.5855317,-6.695041,-7.9588904,-5.1998024,-5.6757026,7.2076826,7.266974,-2.1433632,5.5461664,-8.59806,6.0961127,2.656182,-6.38134,6.258529,5.238326,6.7590175,5.839135,-5.440068,-6.040996,-1.4187983,2.5694928,-7.876481,2.3726783,-6.7421627,-6.235914,3.9287763,-7.862875,-8.556902,7.4374046,6.07757,-6.985482,-5.0222077,-7.1226773,-5.97288,8.649403,-7.0971303,-6.0186067,-8.649529,-5.3654737,5.6264706,7.311464,-9.446127,-6.5360565,4.9395022,-6.789473,6.809934,8.331133,7.177981,8.392501,-6.2765265,7.4911337,6.2047234
ajyi1238,-7.1692243,8.078796,-8.873685,-4.8608465,-11.725816,-6.7054296,-3.5189798,-8.92248,-10.578387,12.081052,-8.33747,-8.502545,7.9595103,-11.038813,-8.942962,-7.482783,-6.7559648,-10.642447,9.116028,-8.863186,-8.333355,7.737253,7.9711003,0.32998186,-8.135502,8.696621,-9.957408,-7.9713817,-9.195521,-6.2882185,8.537706,-5.8567257,5.213004,-3.6463773,3.0007176,9.924402,11.550103,-6.6303463,10.428286,7.6213365,-7.8858867,4.691432,7.239576,5.8547673,-7.0860977,5.1764855,-6.539453,7.988115,-7.422722,8.407827,-7.9363337,-6.7648487,10.134993,-4.6312346,-8.997086,-1.2502705,-9.75898,6.9724374,6.457689,-7.081534,9.201898,9.097008,9.569338,9.477566,-8.494082,7.865696,6.4167757,-7.5531907,11.19926,-7.423087,10.101598,-7.394109,-6.1792903,-8.186745,10.011237,4.8368454,-3.556568,8.402799,-4.9611726,-7.3322644,5.4373684,-8.386384,7.5330005,-7.8107734,5.744062,-10.335941,6.1873455,-7.6469626,-7.025895,-5.897339,-8.221278,-5.4513288,-6.6620984,9.479105,-5.3370237,-5.0759053,-9.2779665,-6.498476,-7.0786104,8.016428,8.069169,0.339492,-9.309918,9.835191,-7.9294276,6.2462025,9.227965,-10.466655,7.273015,-5.9219894,-6.9981136,9.712475,-9.145385,7.749296,5.412825,10.996648,8.88709,-9.481238,8.405129,8.735163,8.949943,7.0242844,10.795111,-9.900827,9.336183,-7.4063616,-4.2875147,4.8293033,-9.568351,5.085476,7.9920554,8.432027,8.589066,-8.723499,-4.0597286,-6.694363,7.1566367,-7.3233004,6.9439735,-2.1492405,7.5782313,-9.008653,7.0398307,-7.882198,-7.400992,6.254134,6.4017158,-0.85024244,5.0710106,-9.53492,-8.03074,3.910303,3.4220204,5.8380165,6.986264,-9.883509,6.5503845,8.800624,-6.934867,-3.396483,-8.037123,-8.496502,-5.427751,-10.198148,-9.9858265,10.25428,-5.981453,9.619567,-7.0996823,-7.9017425,-6.563571,5.376032,-0.5941233,2.6486418,-6.29789,8.3061285,-3.8099413,-6.8694687,-5.911274,-8.591754,-6.1965804,-10.224949,1.2570859,10.662461,8.135631,-3.7642288,1.7336022,-6.6189914,-6.8209834,-8.539336,7.931937,-6.03201,-6.6903996,6.0839,7.621573,-8.830369,8.073468,-5.141485,-8.208384,8.574912,-9.181501,-3.5898426,-8.31742,-8.160992,-9.595462,-8.14086,-9.262961,-4.1813726,-7.5380673,8.439868,7.8228292,-0.107830055,8.246847,-9.891143,6.1894946,1.1905918,-8.804523,7.828036,7.9207,7.365729,6.830657,-8.258615,-7.2427597,-4.096751,5.4989595,-8.911831,1.2277864,-9.358227,-9.3907795,2.2445538,-7.4201584,-9.145315,9.175323,8.774363,-6.594041,-4.696628,-10.034283,-7.6286626,9.341656,-7.8515844,-8.6006155,-10.169773,-5.451147,7.937357,7.819973,-10.321176,-9.780793,6.477302,-6.9731536,8.557326,9.292332,7.281846,9.271713,-6.0741615,10.332851,9.58006
akun1241,-5.432579,6.301156,-6.701859,-4.3115807,-9.4864025,-5.4640074,-2.5287535,-7.3282485,-8.194166,9.233654,-6.6412845,-6.416285,6.413869,-8.69122,-6.8072243,-6.4352345,-5.6427703,-8.5994425,7.3354235,-7.282503,-6.807001,6.547079,6.581943,-0.52655447,-5.8751225,6.838639,-7.675542,-6.5980353,-7.2057962,-5.3622475,6.8163395,-5.105594,4.5439377,-3.49678,3.0905073,7.4370074,8.741506,-5.518181,7.9558535,6.0282187,-6.508759,4.217871,5.2744513,4.97731,-5.5577407,4.5104938,-5.378866,6.217609,-6.426428,7.062566,-6.640913,-5.5743546,8.208029,-4.2725215,-7.1644735,-1.3972454,-7.5800385,5.7355394,5.5863347,-5.946691,7.496685,7.340272,7.4251966,6.863666,-6.9008465,6.7111993,5.428039,-5.406119,8.858701,-6.2585955,7.736706,-5.923147,-5.434636,-6.440566,7.917578,4.2288513,-3.170225,6.790616,-4.1906567,-6.3101854,4.5866766,-6.4266696,6.1632977,-6.3724957,4.6951838,-7.947435,4.4374514,-6.136651,-5.498576,-5.2792697,-6.2887793,-4.5969987,-5.374101,7.661436,-4.5094743,-4.5359473,-7.480171,-5.537763,-5.8688045,6.5770326,6.0179663,-0.45948398,-7.3189955,7.870304,-6.4089575,5.2812457,7.3580933,-8.222002,6.159275,-5.1923327,-6.0909,7.342052,-7.34889,5.7713914,4.8751974,8.621688,7.0156636,-7.587627,7.206619,6.702469,7.054839,6.0250607,8.184845,-7.509331,7.716274,-6.072818,-3.9080164,4.4414005,-7.414931,3.5639417,6.8891883,6.529775,6.7577605,-6.6179886,-3.241448,-5.047968,5.2863984,-6.309693,5.8712583,-2.1868834,6.3848886,-6.8001804,6.2758474,-6.603472,-5.9301457,5.630335,5.51137,-1.2320328,4.783132,-7.502412,-6.4094477,3.6210198,3.1234517,4.9388533,5.7747545,-7.668477,5.6656947,6.9003773,-5.9116216,-3.3511665,-6.4145074,-6.8714604,-4.8346643,-8.145501,-8.085663,8.28836,-5.320302,7.603245,-5.72118,-6.563936,-5.3856635,4.627203,-1.0571603,2.5292165,-5.362744,6.5524926,-3.4249759,-5.753565,-4.4193926,-6.794756,-5.356528,-8.028128,0.32655114,8.155305,6.8330936,-3.3946579,1.8872823,-4.795084,-4.8868594,-6.879367,6.170319,-5.144106,-4.965046,5.0358906,6.3459177,-7.1797805,6.2118034,-4.6823053,-6.249295,6.8344464,-7.240556,-2.5258534,-6.8803725,-6.6438212,-7.3140025,-6.5805135,-7.5261054,-4.028546,-5.9302897,6.8396735,6.4272337,-0.9774348,6.1422105,-8.051863,5.376442,1.4326041,-6.7345543,6.295952,6.1898956,6.2086415,5.6075273,-6.1707144,-5.904242,-2.713805,3.6827478,-7.495469,1.3646398,-7.188003,-7.0940475,2.444303,-6.44167,-7.758151,7.3139324,6.6430306,-5.6428185,-4.247842,-7.94776,-6.0368495,7.6405478,-6.6175556,-6.5695086,-8.199812,-4.5418606,6.1496744,6.513607,-8.580072,-7.5220375,5.161305,-5.933069,6.829338,7.472866,6.192734,7.799015,-5.0869465,8.157916,7.152782
amah1246,-6.3655806,7.6090584,-7.968689,-5.3958545,-11.586485,-6.8428497,-2.983487,-8.89529,-9.91398,11.253447,-7.989784,-7.7405114,7.837755,-10.196039,-8.203287,-7.9002495,-6.998648,-10.601649,8.939825,-8.877844,-8.205202,7.969781,8.01136,-0.5810896,-7.1029377,8.360903,-9.108385,-8.23623,-8.478413,-6.5354466,8.284729,-6.2273955,5.56487,-4.291458,3.5000267,9.008964,10.647832,-6.8830595,9.580399,7.1858277,-7.83704,5.218869,6.4188066,6.0364084,-6.830433,5.4752517,-6.7665296,7.4553638,-7.7972584,8.571466,-8.087016,-6.654754,9.605547,-5.163037,-8.530321,-1.946456,-9.267849,6.8953743,6.775511,-7.1899877,9.135274,8.904126,8.862085,8.453776,-8.7396755,8.188586,6.518158,-6.6344204,10.567635,-7.353571,9.330175,-7.3443646,-6.5603933,-7.809548,9.365848,5.130629,-3.815644,8.278945,-4.9251995,-7.6910133,5.8797984,-7.534577,7.363248,-7.918447,5.751486,-9.4641905,5.3211,-7.0591197,-6.23007,-6.334612,-7.4309897,-5.525809,-6.336875,9.033882,-5.560292,-5.568609,-8.88447,-6.7771077,-7.104756,7.6875424,7.2044353,-0.49017608,-8.709421,9.531847,-7.6866302,6.4080477,8.8960495,-9.748049,7.490545,-6.44075,-7.3536797,8.952728,-8.989425,6.849755,5.8899136,10.443567,8.288064,-9.245599,8.6264305,8.003807,8.471541,7.234637,10.008027,-9.089338,9.56895,-7.586736,-4.758611,5.3756313,-8.91459,4.384899,8.319382,7.8298664,7.997117,-8.136147,-3.9431863,-5.7971606,6.5751414,-7.560859,7.2930746,-2.8146727,7.647478,-8.188427,7.4165325,-7.8617578,-7.1901517,6.733506,6.605214,-1.823555,5.669565,-9.022414,-7.8179116,4.4829965,3.8855016,5.970566,7.0369067,-9.315939,7.0107245,8.14097,-7.0226145,-3.988398,-7.557625,-8.060476,-5.962919,-9.777384,-9.592844,9.929997,-6.4626255,9.06018,-6.9329605,-7.740518,-6.6159945,5.7367144,-1.1682634,3.2118282,-6.226066,8.189503,-4.377727,-7.1793056,-5.204911,-8.11223,-6.6667614,-9.451072,0.5458447,9.781638,8.356783,-4.3373566,2.375959,-5.7641807,-6.0076046,-8.396579,7.412016,-6.3516545,-5.975084,6.1230087,7.4812093,-8.876035,7.5447936,-5.682469,-7.541721,8.269368,-8.937264,-2.906624,-8.305061,-8.315767,-8.818026,-7.884032,-9.270204,-4.7950478,-7.1112337,8.317885,7.994395,-0.9086461,7.560041,-9.798036,6.3731794,1.8595527,-8.255972,7.4741282,7.1932254,7.4934063,6.6678066,-7.5809355,-7.1245656,-3.190776,4.5292015,-8.933096,1.7688525,-8.735652,-8.59681,2.9756613,-7.9251337,-9.321986,8.793321,8.088091,-7.1485095,-5.021796,-9.226399,-7.3170133,9.433177,-7.919944,-7.9749517,-9.96965,-5.651004,7.338569,8.098394,-10.438124,-8.858494,6.0923066,-7.202213,8.223623,9.338006,7.5113826,9.333368,-6.3943143,9.627861,8.627072
ando1256,-7.342404,7.8509974,-8.9220915,-4.1631474,-11.215438,-6.190721,-3.7190893,-8.312987,-10.434747,11.900217,-8.0856085,-8.483976,7.530828,-11.06522,-8.854875,-6.7851048,-6.265163,-10.104449,8.664062,-8.361129,-8.123865,7.014955,7.4781933,0.81968814,-8.233842,8.27597,-9.924877,-7.1351695,-9.177109,-5.6466646,8.146951,-5.242764,4.4947734,-3.033666,2.4986765,10.036787,11.342454,-5.9362726,10.415173,7.398392,-7.433352,4.021637,7.18986,5.4651117,-6.79205,4.6961403,-5.850753,7.9656477,-6.8214126,7.7251782,-7.2951994,-6.36601,9.959731,-4.0098877,-8.878829,-0.5997072,-9.4777,6.519827,5.8320746,-6.5929756,8.684101,8.649384,9.53137,9.510437,-7.7417026,7.2146664,5.9790754,-7.62015,11.162075,-7.004987,9.938519,-6.88056,-5.613075,-7.922611,9.978163,4.357439,-3.2641973,7.997131,-4.6312404,-6.707918,4.7586613,-8.4059,7.256027,-7.1838446,5.4425406,-10.337348,6.390958,-7.5913177,-7.215433,-5.378428,-8.277294,-5.054231,-6.6182857,9.249864,-4.858667,-4.3045363,-9.069196,-5.913037,-6.434411,7.7516947,8.10251,0.7645297,-9.237091,9.496686,-7.6634574,5.685627,8.897041,-10.430432,6.6277027,-5.274245,-6.358569,9.646442,-8.655706,7.8033967,4.8578777,10.703318,8.719203,-9.085047,7.8666587,8.692416,8.718877,6.5289516,10.619923,-9.857338,8.714346,-6.749306,-3.5899968,4.2168093,-9.396926,5.146929,7.393292,8.436514,8.564418,-8.52695,-3.905425,-6.950682,7.169627,-6.7667623,6.256599,-1.5548154,7.154356,-9.106077,6.3728433,-7.372941,-7.108835,5.479947,5.917355,-0.1723478,4.5040817,-9.383129,-7.7324295,3.2849789,2.8561044,5.433901,6.5274315,-9.699703,5.7233934,8.672086,-6.5502605,-2.7501466,-8.023182,-8.409593,-4.9332156,-9.81119,-9.595677,9.976518,-5.383471,9.508354,-6.706946,-7.4500737,-6.089235,4.8026166,-0.19004613,2.1538465,-5.949254,7.656881,-3.1918576,-6.362499,-6.068607,-8.444603,-5.616299,-10.155832,1.5775816,10.592259,7.4964347,-3.038335,1.1248814,-6.7300363,-6.9797063,-8.142498,7.838808,-5.3510594,-6.732513,5.6606503,7.2328386,-8.182122,8.046323,-4.535647,-8.209224,8.17674,-8.83098,-3.878195,-7.8003054,-7.571327,-9.46825,-7.6896,-8.777417,-3.618352,-7.2928343,7.959265,7.1660304,0.3367029,8.143224,-9.384546,5.774575,0.683226,-8.604172,7.5612054,8.099619,6.8073726,6.548315,-8.2267685,-6.8728666,-4.54002,5.7577286,-8.372451,0.7435308,-9.246637,-9.406771,1.5473622,-6.5487185,-8.494676,8.811199,8.672005,-5.879579,-4.1861963,-10.074495,-7.326985,8.605854,-7.5047827,-8.458752,-9.5912075,-5.0348043,7.7774487,7.2301884,-9.624269,-9.72782,6.3255315,-6.369537,8.215565,8.563723,6.677737,8.75693,-5.3695226,10.296354,9.583258
ango1257,-9.119011,8.163644,-10.517865,-2.5523963,-10.895845,-5.3045654,-4.813919,-7.6525187,-11.242815,13.297133,-8.417439,-10.230684,6.7947445,-12.548814,-9.973848,-5.369825,-5.5756216,-9.680704,8.47743,-7.496008,-8.241573,5.841274,6.8771663,2.6204367,-9.916281,8.320052,-11.160417,-5.560138,-10.586238,-4.3155475,8.213414,-3.9137661,2.991436,-1.388183,1.1286191,11.551361,12.77494,-4.8177457,12.142107,7.806751,-6.789128,2.4783757,8.598302,4.812543,-7.1683426,3.6204603,-4.649918,8.910192,-5.611907,6.7966914,-6.3944473,-6.0374303,10.324318,-2.4676282,-9.652069,1.4394721,-10.045947,6.4364557,4.5239406,-5.882076,8.29365,8.576649,10.412709,11.115869,-6.4731436,6.119888,5.2697277,-9.118822,12.301606,-6.44612,11.148666,-6.3302135,-4.613271,-8.205823,11.098198,3.4358933,-2.5929396,7.815859,-4.471272,-5.378095,3.0358427,-9.815824,7.4130135,-6.2875934,5.192576,-11.560472,8.288087,-8.510447,-8.643535,-4.1454277,-9.695679,-4.4073005,-7.1987996,9.668819,-4.179796,-2.5797648,-9.705937,-4.529911,-5.682042,8.120271,9.521467,2.7282767,-10.004707,10.008812,-7.723907,4.818292,8.868097,-11.526197,5.6876073,-3.8146772,-5.0067863,11.312328,-8.266883,9.173933,3.625863,11.242632,9.389296,-9.159996,6.980438,9.846062,9.546169,5.609499,11.870117,-11.3840065,7.9844146,-5.380069,-2.1304824,2.7155688,-10.335667,6.5723586,6.412885,9.555601,9.511264,-9.144461,-4.05651,-8.523411,8.337008,-5.4959245,5.0631013,0.22507651,6.4386554,-10.377055,5.3064146,-6.982066,-7.3748236,3.8347127,5.0701227,2.1926436,3.1215951,-10.348812,-8.068719,1.7444731,1.6715131,4.8817835,6.0524178,-10.617417,4.245785,9.652824,-5.808339,-1.2176071,-8.900211,-9.244241,-3.5927653,-10.275739,-9.750888,10.49999,-3.691109,10.397201,-6.407371,-7.111753,-5.1724067,3.3572874,1.2412544,0.8245425,-5.6338744,7.233692,-1.7129114,-5.5151167,-7.3743744,-9.114083,-4.1125245,-11.349673,3.1635668,12.089548,6.1582913,-1.2790467,-0.72111225,-8.072062,-8.614078,-8.129948,8.703375,-4.0352473,-8.313344,5.1116877,6.911312,-7.5418315,9.081641,-3.2346635,-9.171287,8.1658125,-8.865925,-5.358966,-7.237471,-6.585247,-10.46451,-7.517149,-8.48393,-2.175444,-7.5467463,7.6116524,6.432146,2.3355963,9.181952,-8.949231,4.8893356,-0.92895544,-9.198936,7.7271347,9.517998,6.0486584,6.193438,-9.319856,-6.8512273,-6.536194,7.685231,-7.6827626,-0.7042363,-10.161382,-10.837624,-0.6094498,-4.720071,-7.4206123,8.96113,9.819096,-4.0751915,-3.131519,-11.346701,-7.5937033,7.7027445,-6.9949136,-9.239534,-8.980039,-4.188458,8.568512,6.2202253,-8.685455,-11.124761,6.626535,-5.1870646,8.42932,7.7251787,5.5514536,8.21226,-3.8995671,11.432072,11.281472
apin1244,-3.9652762,4.847867,-4.8154774,-4.0511374,-7.8376694,-4.6594405,-1.5876241,-6.0666084,-6.2467437,6.937039,-5.346406,-4.5479703,5.386783,-6.412025,-5.026946,-5.65349,-4.7308526,-7.0313506,5.731904,-6.0605454,-5.4259176,5.770154,5.6155314,-1.4043618,-4.103489,5.355333,-5.7530775,-5.9010997,-5.313973,-4.9904857,5.422021,-4.644876,4.2580643,-3.402606,3.2821577,5.3477335,6.4533525,-4.9294167,5.7281237,4.5351996,-5.244811,3.9450905,3.7722166,4.346148,-4.3664436,4.0127516,-4.8907375,4.6162376,-5.6405315,6.0752535,-5.6025248,-4.6920185,6.4208183,-4.0443144,-5.5867233,-1.8799078,-5.9266434,4.8366113,4.9762797,-5.1065006,6.1095257,5.9009094,5.556757,4.8026767,-6.0413294,5.7270875,4.7170506,-3.6711123,6.703758,-5.165214,5.781685,-4.9393163,-4.770576,-4.994355,5.9794903,3.919725,-2.762138,5.675827,-3.424342,-5.5296187,4.1118746,-4.691849,4.94689,-5.503493,3.888928,-5.8618655,2.7535865,-4.753673,-3.8591683,-4.727362,-4.4996595,-3.970774,-4.1558,5.965158,-4.0073814,-4.266544,-5.898983,-4.9533796,-4.865635,5.339796,4.2797213,-1.1975393,-5.6905327,6.341548,-5.019877,4.421872,5.735321,-6.227682,5.296155,-4.700302,-5.390603,5.4176464,-6.043844,3.9825275,4.477392,6.8144875,5.350336,-5.999336,6.119279,4.9371934,5.43413,5.3316336,6.0007324,-5.441858,6.5353556,-5.184332,-3.7941275,4.1735296,-5.6264257,2.1279442,6.0627103,4.863562,5.262711,-5.022404,-2.590147,-3.362681,3.663402,-5.508758,5.240543,-2.4592447,5.5010614,-4.854773,5.597155,-5.547991,-4.6387496,5.240182,4.7708936,-1.9068903,4.5184746,-5.733737,-4.941822,3.607483,2.9240294,4.1795254,4.828546,-5.769651,4.994959,5.2909575,-5.1343045,-3.3816166,-4.8121085,-5.1910563,-4.4928565,-6.4890566,-6.5379376,6.554357,-5.0377426,5.8288913,-4.671276,-5.5252523,-4.6310167,4.3437743,-1.6161344,2.6798568,-4.40821,5.2438216,-3.3153572,-5.259393,-2.97141,-5.40565,-4.862721,-6.123402,-0.4021824,5.975813,5.906363,-3.3125143,2.284196,-3.2158792,-3.2705483,-5.572107,4.6386013,-4.634823,-3.4064522,4.2634606,5.240571,-5.9611816,4.629549,-4.433319,-4.7204123,5.4648585,-5.6941886,-1.3155096,-5.8618746,-5.579581,-5.325442,-5.152317,-6.1830134,-4.0118284,-4.513136,5.7044578,5.570837,-1.5916386,4.447785,-6.670058,4.818164,1.8162973,-5.005649,4.9900255,4.3679276,5.189832,4.7085824,-4.313522,-4.8141026,-1.623847,2.2237766,-6.2400303,1.7367007,-5.555594,-5.1520176,2.851075,-5.950343,-6.669509,5.946458,4.9079046,-5.2488985,-3.8181438,-6.0944524,-4.6944246,6.5683966,-5.533801,-4.827978,-6.715719,-3.9408693,4.5840893,5.591668,-7.166761,-5.3950114,4.112725,-5.172592,5.465645,6.4071684,5.522862,6.478655,-4.6112137,6.1731114,5.1079254
apol1242,-4.8520765,6.802105,-6.5316067,-6.0789795,-10.945492,-6.8625755,-2.023666,-8.812314,-8.667262,9.735195,-7.3147945,-6.247424,7.7086015,-8.520081,-6.9050894,-8.216381,-6.9847,-10.183555,8.5779505,-8.812502,-7.6979127,8.209496,7.987392,-1.8223298,-5.579012,7.660698,-7.8225117,-8.584974,-7.323167,-6.7826505,7.8100467,-6.72304,6.1733756,-4.985684,4.241372,7.3054605,9.224731,-7.1760144,8.035396,6.5133195,-7.8538523,5.928413,5.143147,6.103252,-6.2554035,5.7877455,-7.034757,6.334288,-7.9914684,8.7700205,-8.274091,-6.516976,8.755055,-5.7350755,-7.5032997,-3.0520363,-8.271717,6.7616196,7.1752367,-7.159794,8.958746,8.445872,7.643559,6.8472023,-8.794648,8.3650675,6.6516037,-5.1870065,9.284077,-7.315817,7.9730806,-7.134894,-6.883934,-7.1094203,8.204746,5.475019,-4.031971,7.9766827,-4.9646425,-7.953973,6.47542,-6.2300243,6.894982,-7.9203286,5.446751,-8.262042,3.8698096,-6.1503787,-4.966128,-6.8046536,-6.196344,-5.6951885,-5.5244203,8.307695,-5.869122,-6.3168797,-8.088903,-7.0962834,-7.269524,7.1348453,5.8223133,-1.7186109,-7.6674347,8.812868,-7.145249,6.6733375,8.276192,-8.387731,7.6350427,-6.9554915,-7.8586917,7.50952,-8.597662,5.6100636,6.3365555,9.567643,7.4217825,-8.688347,8.746907,6.761295,7.6052103,7.539865,8.476173,-7.604895,9.4576,-7.774462,-5.4648066,6.1278925,-7.7996116,3.2630358,8.43614,6.510497,6.9280567,-7.0582323,-3.5571308,-4.398807,5.2755547,-7.850359,7.668888,-3.700044,7.705925,-6.7564325,7.7972975,-7.7962728,-6.522493,7.52503,6.7537613,-2.9791002,6.3607383,-8.036156,-7.1808257,5.318617,4.4544053,5.9598904,6.8589973,-8.283573,7.524656,7.0797167,-7.087819,-4.8473454,-6.520023,-7.202401,-6.5130463,-9.0572605,-8.937033,9.211787,-7.096778,7.9105244,-6.649914,-7.4609585,-6.681447,6.1647363,-2.0705817,3.8353043,-6.1877027,7.893856,-5.056912,-7.2508516,-4.1715784,-7.3366885,-7.1741366,-8.274905,-0.67074966,8.200178,8.6928425,-4.9494934,3.3512046,-4.5129976,-4.4894705,-8.058677,6.437547,-6.7759094,-4.6765213,6.078745,7.147453,-8.8156395,6.3818183,-6.292617,-6.3551345,7.8249702,-8.180626,-1.7650726,-8.238895,-8.279854,-7.4692907,-7.4424376,-8.751831,-5.503339,-6.5047855,7.9980726,8.071841,-2.1060581,6.249526,-9.3687105,6.669541,2.785158,-7.2925806,6.782959,5.972898,7.555211,6.44307,-6.258904,-6.8168426,-1.5961225,3.1270518,-8.836902,2.5245829,-7.5671105,-7.1467233,4.1559086,-8.550248,-9.506031,8.230568,6.9276657,-7.6585217,-5.529507,-7.9892616,-6.722613,9.505471,-7.7138076,-7.0058646,-9.650253,-5.8126583,6.361142,8.07555,-10.487326,-7.460024,5.5235205,-7.430601,7.7138233,9.277948,7.866617,9.261743,-6.8537564,8.354018,7.056131
apur1254,-6.169656,7.077473,-7.660454,-4.7264504,-10.606406,-6.1642904,-3.0223215,-8.085935,-9.211914,10.489135,-7.413681,-7.3496213,7.229294,-9.753335,-7.749061,-6.986871,-6.269415,-9.55957,8.18496,-8.135167,-7.5573864,7.0774627,7.383229,-0.22273844,-6.8396354,7.674504,-8.717368,-7.253157,-8.113716,-5.796547,7.6121135,-5.472215,4.9142823,-3.6466691,3.1142144,8.565758,10.035337,-6.163153,9.051641,6.8304825,-7.1887484,4.528205,6.1499043,5.4519405,-6.3092976,4.823173,-5.9684777,7.0546355,-6.9539566,7.7501154,-7.2634106,-6.1076593,9.076642,-4.448901,-7.993272,-1.3959577,-8.574127,6.331724,6.0719624,-6.5034523,8.394983,8.148448,8.383553,7.9988804,-7.6925054,7.3010187,5.9862304,-6.3251653,9.918428,-6.874421,8.79327,-6.6304183,-5.8536263,-7.239097,8.855212,4.600427,-3.4142132,7.548237,-4.6083426,-6.7895384,5.1133184,-7.245349,6.8322196,-7.1231313,5.2048736,-9.101027,5.175235,-6.8300147,-6.1023207,-5.613206,-7.156562,-5.0466933,-5.8393517,8.504247,-4.96279,-4.8719587,-8.348293,-6.0108185,-6.5173845,7.277166,6.911494,-0.17711437,-8.269379,8.775319,-7.1927032,5.787632,8.231316,-9.24714,6.723024,-5.5840654,-6.622572,8.441659,-8.181105,6.597743,5.197471,9.813062,7.8954296,-8.457224,7.861578,7.6597567,7.952836,6.5867295,9.380882,-8.594999,8.538616,-6.637352,-4.141667,4.6910005,-8.336173,4.239388,7.479073,7.3620634,7.6326737,-7.585997,-3.6475213,-5.746863,6.0895863,-6.8348746,6.461545,-2.269911,6.9705133,-7.8279576,6.686343,-7.2224393,-6.6272764,6.005607,6.0520935,-1.1698301,4.98198,-8.401069,-7.1297607,3.8401659,3.3480601,5.3860974,6.392919,-8.717079,6.1431227,7.7202063,-6.4069314,-3.3855367,-7.1774397,-7.6533594,-5.241916,-9.031524,-8.960783,9.222927,-5.725635,8.538978,-6.2881947,-7.1316357,-5.9596705,5.0753636,-0.902794,2.6711411,-5.787521,7.350964,-3.69673,-6.374563,-5.140733,-7.6438875,-5.896051,-8.981783,0.60306203,9.267063,7.463809,-3.634701,1.8772061,-5.553086,-5.751684,-7.65712,6.9664884,-5.5966625,-5.669093,5.4844494,6.882,-8.029283,7.097334,-4.9683766,-7.1057553,7.710193,-8.158816,-2.9584148,-7.5927706,-7.437574,-8.346705,-7.283618,-8.321137,-4.2711773,-6.6089563,7.5904183,7.1361237,-0.73760813,7.050561,-8.945376,5.8112,1.3927675,-7.687014,6.9109254,6.950375,6.806032,6.1871495,-7.2248187,-6.5883303,-3.1837144,4.4159994,-8.235986,1.3677111,-8.1767,-8.143375,2.419516,-6.9603114,-8.452862,8.202024,7.6455226,-6.2305145,-4.533565,-8.890196,-6.8010974,8.529872,-7.2198954,-7.501858,-9.162687,-5.067034,6.9656053,7.1773415,-9.482343,-8.495871,5.71554,-6.515377,7.599579,8.320923,6.71879,8.474703,-5.73963,9.094509,8.240956
arao1248,-5.794191,7.2028623,-7.3884726,-5.373498,-11.082288,-6.606047,-2.6344566,-8.5909815,-9.341997,10.529613,-7.5800095,-7.041926,7.594599,-9.508251,-7.5781612,-7.7113595,-6.756968,-10.112458,8.590119,-8.573934,-7.871748,7.8020134,7.854772,-0.9262707,-6.4640894,8.003161,-8.51574,-8.042631,-7.9462557,-6.4470778,7.8633127,-6.166631,5.608942,-4.282882,3.703485,8.304655,9.920872,-6.644694,8.88243,6.798371,-7.6536093,5.209134,5.8064127,5.9337416,-6.435033,5.3185997,-6.6289663,6.948512,-7.5969977,8.3628,-7.852937,-6.38257,9.185037,-5.1802087,-8.002889,-2.0804992,-8.718443,6.6613336,6.6894693,-6.960799,8.780294,8.542532,8.275218,7.779321,-8.499537,7.98465,6.391217,-6.115903,9.961784,-7.189266,8.6823845,-7.0049133,-6.480062,-7.3724394,8.804382,5.0931463,-3.8406246,7.938916,-4.738079,-7.516235,5.755492,-7.03472,7.0221853,-7.5909863,5.4757175,-8.952809,4.7819085,-6.6360946,-5.801764,-6.3500876,-6.894016,-5.3602705,-6.0719833,8.656198,-5.3702116,-5.5556726,-8.396979,-6.6896377,-6.944529,7.37364,6.650666,-0.7963004,-8.203239,9.08154,-7.2933817,6.239542,8.52119,-9.085997,7.2958183,-6.391418,-7.259971,8.282808,-8.57243,6.393159,5.8372827,9.917093,7.7971845,-8.837131,8.384514,7.4149218,7.969382,7.137975,9.229608,-8.372331,9.235277,-7.346212,-4.8099785,5.397286,-8.350241,3.91434,8.138077,7.2553134,7.444738,-7.636033,-3.701619,-5.363781,5.9661746,-7.407542,7.133877,-2.958429,7.4494734,-7.5868382,7.323879,-7.620038,-6.789957,6.710926,6.512898,-2.0664775,5.7374063,-8.495393,-7.426614,4.5555573,3.9509091,5.8122706,6.8682513,-8.769517,6.8928156,7.673856,-6.9007864,-4.105926,-7.1718616,-7.601445,-5.869188,-9.298219,-9.241695,9.507893,-6.422995,8.469559,-6.6573787,-7.4662523,-6.5030518,5.7068,-1.5103109,3.2473955,-6.0607595,7.832058,-4.4206595,-6.950698,-4.7702684,-7.619318,-6.5146303,-8.949549,0.095410824,9.043273,8.209938,-4.3857126,2.5331361,-5.281417,-5.365922,-8.060515,6.966715,-6.209346,-5.4572954,5.9515166,7.193199,-8.519357,7.0677586,-5.6960697,-6.868655,7.8569584,-8.466315,-2.5760791,-8.016282,-7.980417,-8.242777,-7.487488,-8.843847,-4.824772,-6.752117,7.912301,7.7068253,-1.2692497,6.966934,-9.352963,6.2800374,2.0400126,-7.6980977,7.137547,6.760871,7.3631053,6.4105268,-6.928989,-6.8493953,-2.7563264,4.018031,-8.643539,1.8891681,-8.124023,-7.9577436,3.1612327,-7.778315,-9.0931835,8.380434,7.4383335,-6.9964705,-5.093624,-8.656053,-6.8969493,9.08769,-7.680173,-7.424094,-9.600211,-5.4995804,6.90814,7.761503,-10.117963,-8.292268,5.7706404,-7.0080686,7.830628,8.981271,7.405495,9.07018,-6.221183,9.005967,7.9827905
araw1273,-5.107557,5.5414066,-6.076662,-3.548041,-8.286945,-4.6703725,-2.427804,-6.2254343,-7.2767434,8.242027,-5.926694,-5.654022,5.6019545,-7.7989936,-6.073837,-5.431329,-4.748651,-7.4109044,6.127699,-6.223643,-5.951347,5.5137925,5.6303635,-0.35326326,-5.3635755,5.86573,-6.929916,-5.510616,-6.4505124,-4.634508,5.8079796,-4.2105317,3.8076935,-2.8537846,2.722501,6.655582,7.707419,-4.6605387,7.02341,5.272674,-5.483476,3.4716616,4.7884645,4.2976894,-4.887167,3.8201573,-4.5938425,5.569857,-5.470441,6.0243692,-5.497101,-4.7942677,7.262646,-3.5938401,-6.430395,-0.97539026,-6.7204423,4.973882,4.6441875,-5.1157007,6.4052258,6.299365,6.680936,6.129373,-5.9024844,5.584433,4.67619,-4.8690104,7.8404317,-5.402322,6.868098,-5.1104465,-4.5954237,-5.617864,7.0694523,3.682794,-2.5745068,5.9582167,-3.4738033,-5.3741446,3.7158651,-5.802097,5.430217,-5.4534154,4.102696,-7.1074142,3.9102857,-5.50142,-5.0220947,-4.4317045,-5.6335883,-3.9382217,-4.82697,6.680399,-3.6949463,-3.6758938,-6.607885,-4.657273,-4.8514647,5.847287,5.5122786,-0.17010503,-6.5696254,6.9255238,-5.556263,4.3194523,6.3976955,-7.3664246,5.2571964,-4.395695,-5.1804204,6.5773997,-6.3587914,5.111544,4.106995,7.6354885,6.230808,-6.504721,6.0608077,5.9171386,6.183248,5.2438655,7.2158585,-6.701312,6.567441,-5.0006804,-3.2491517,3.6323032,-6.543417,3.0695598,5.9731145,5.8399057,6.102555,-5.8794384,-2.8699796,-4.6613164,4.7323246,-5.3659635,4.9801016,-1.714185,5.544462,-6.069999,5.344028,-5.682107,-5.1041255,4.668978,4.630307,-0.96357965,4.0397024,-6.6254845,-5.498715,2.9880648,2.4743233,4.229355,4.919218,-6.6559105,4.617717,6.1460705,-5.0924306,-2.7253385,-5.707203,-6.0362873,-4.173653,-7.143937,-7.1227045,7.257786,-4.554931,6.7871647,-4.9256907,-5.683923,-4.6230583,3.946442,-0.8601187,2.083573,-4.602065,5.46393,-2.7362294,-5.0805473,-3.9648633,-6.0179276,-4.495295,-7.2516136,0.42930752,7.2292314,5.7722974,-2.7428133,1.4678202,-4.3500357,-4.510981,-5.929424,5.4823184,-4.3102317,-4.430534,4.267533,5.5144587,-6.0131063,5.551557,-3.978339,-5.742484,5.936081,-6.2484884,-2.2826695,-6.0539556,-5.596519,-6.4543095,-5.587722,-6.554264,-3.3906083,-5.15742,5.8840556,5.4736733,-0.7115602,5.478451,-6.99932,4.662859,0.99710864,-5.9107385,5.4784274,5.5391846,5.171363,4.950437,-5.44038,-5.108493,-2.7699838,3.3820603,-6.4026427,0.97697145,-6.4899836,-6.4464192,1.9245418,-5.399936,-6.5329275,6.4667783,5.906001,-4.8098483,-3.5836103,-7.1430087,-5.285471,6.547497,-5.756976,-5.662885,-7.03873,-3.8593466,5.400432,5.510607,-7.2357755,-6.6168046,4.6394677,-4.9467654,5.944217,6.4720383,5.2677393,6.7129397,-4.2512655,7.3076267,6.417045
araw1276,-6.882938,6.6193614,-8.019537,-2.8933365,-9.196676,-4.8299847,-3.5025878,-6.6317043,-8.856624,10.217286,-6.822252,-7.613122,5.928705,-9.842707,-7.690301,-5.2301474,-5.0001135,-8.238876,6.8749022,-6.581476,-6.752715,5.3987856,5.958422,1.1182142,-7.368719,6.8290167,-8.788139,-5.225098,-8.200087,-4.3353043,6.638142,-3.772752,3.2407088,-2.0650065,1.9495766,8.686224,9.809807,-4.549543,9.063071,6.377349,-5.812673,2.8831542,6.4191008,4.4049435,-5.7949405,3.6403596,-4.3106546,7.0079722,-5.334595,6.178416,-5.661952,-5.2094254,8.497114,-2.8322139,-7.8287253,0.27122146,-8.060612,5.4723296,4.3993735,-5.294449,7.0833864,7.1113105,8.179915,8.173741,-5.8727756,5.625706,4.8278403,-6.702622,9.6358,-5.7942176,8.653619,-5.4672704,-4.3796635,-6.6719227,8.750154,3.3961508,-2.4753916,6.534171,-3.8597853,-5.0807366,3.200165,-7.486506,6.1407046,-5.6791058,4.485585,-8.999097,5.8487372,-6.8076315,-6.684183,-4.13879,-7.3410525,-4.0347867,-5.725141,7.8610034,-3.762776,-3.04786,-7.8750825,-4.4160824,-5.0398493,6.7420015,7.211417,1.215278,-7.9989314,7.983529,-6.3699985,4.3324986,7.3278666,-9.0563135,5.1807017,-3.8994398,-4.898775,8.54509,-7.030607,6.9125867,3.667389,9.015839,7.589575,-7.479001,6.293639,7.5626163,7.592503,5.2205853,9.297778,-8.725893,6.8900733,-4.9137173,-2.6127622,2.9487553,-8.086764,4.6598167,6.030652,7.4426804,7.4970865,-7.205883,-3.3796868,-6.3269715,6.1738987,-5.2923017,4.792226,-0.603209,5.7480564,-7.980408,5.1386533,-6.1435714,-5.9974184,4.094916,4.5999646,0.5635516,3.4783726,-8.076039,-6.4460087,2.171256,1.9560597,4.3540363,5.313567,-8.252329,4.2483435,7.605046,-5.279297,-1.7649527,-7.0060697,-7.343551,-3.733337,-8.320595,-8.154747,8.54402,-3.990196,8.225959,-5.3754745,-6.199593,-4.7279463,3.4895058,0.1432808,1.3856021,-4.9137125,5.9717073,-2.0595615,-5.07758,-5.5128317,-7.341755,-4.060364,-8.940804,1.6711941,9.307819,5.620822,-1.8508424,0.35864824,-5.977693,-6.1750555,-6.7126737,6.848835,-3.9292772,-6.029369,4.440271,5.9486227,-6.424994,6.981398,-3.390566,-7.210744,6.8587275,-7.1818686,-3.6759162,-6.326514,-5.777519,-8.167519,-6.2493014,-7.2022715,-2.7307515,-6.1002436,6.467898,5.6536846,0.7066126,6.989591,-7.649435,4.650907,-0.03003136,-7.2357426,6.3534956,7.318699,5.246985,5.3454947,-7.164812,-5.7233725,-4.548607,5.4101954,-6.769527,0.11170148,-8.004513,-8.24022,0.60184205,-4.905983,-6.698411,7.387746,7.617386,-4.297286,-3.2664976,-8.979365,-6.151526,6.7929554,-6.1237803,-7.140647,-7.6927314,-3.8106518,6.783057,5.522444,-7.63706,-8.623136,5.434041,-4.9179688,6.828633,6.666438,5.1340623,7.082929,-3.9588952,8.982156,8.497551
arhu1242,-9.564008,8.533646,-11.027195,-2.5763242,-11.4466505,-5.638274,-5.030444,-8.003134,-11.817509,13.992261,-8.838021,-10.712059,7.2064447,-13.153994,-10.52138,-5.670059,-5.817459,-10.230962,8.968537,-7.9612684,-8.706711,6.1658506,7.2060285,2.8742867,-10.50022,8.78005,-11.7351675,-5.821214,-11.096936,-4.475061,8.683937,-4.0732927,3.1724417,-1.4060397,1.1078315,12.1981535,13.410735,-5.0361414,12.792082,8.319619,-7.2045765,2.5561616,9.136878,5.024652,-7.566983,3.8245711,-4.917691,9.421102,-5.855074,7.161691,-6.728443,-6.3586,10.871691,-2.6077201,-10.065954,1.467983,-10.6198225,6.774109,4.731221,-6.0663605,8.728685,8.991384,10.85083,11.848903,-6.8014,6.404958,5.5369997,-9.713495,12.972439,-6.8106275,11.703883,-6.6776752,-4.7725763,-8.598593,11.650507,3.473988,-2.772004,8.200804,-4.671581,-5.575102,3.1641994,-10.275565,7.773471,-6.627131,5.417926,-12.211213,8.720772,-8.959994,-9.0408535,-4.280415,-10.23612,-4.680845,-7.540338,10.228941,-4.3852243,-2.7150757,-10.179956,-4.7504086,-6.00821,8.474541,10.036652,2.8938375,-10.53128,10.436875,-8.115946,5.064335,9.382575,-12.032211,5.9919505,-3.9483762,-5.151726,12.0017605,-8.701793,9.780948,3.6882248,11.853659,9.901339,-9.614241,7.328704,10.447704,10.003691,5.8156204,12.607647,-11.995934,8.388441,-5.5969024,-2.17304,2.8216424,-10.839776,6.951757,6.593702,10.060743,9.953859,-9.509828,-4.2597866,-8.988958,8.715644,-5.73303,5.2311645,0.23590672,6.7598,-10.997475,5.4633317,-7.35096,-7.7601376,3.9458654,5.318807,2.3288915,3.1612096,-10.839191,-8.47252,1.7619963,1.6510153,5.080029,6.351429,-11.166117,4.4352527,10.187328,-6.058918,-1.0937206,-9.324169,-9.7506895,-3.7284658,-10.832552,-10.3201065,11.045753,-3.8648844,10.955678,-6.619085,-7.46145,-5.4603987,3.4869509,1.4502012,0.8223091,-5.8574314,7.5951743,-1.8159989,-5.6648297,-7.7217393,-9.615976,-4.365735,-11.907354,3.3691654,12.7975,6.4955335,-1.2843885,-0.8093581,-8.629727,-9.062553,-8.564262,9.119737,-4.2067494,-8.762213,5.325999,7.223905,-7.972619,9.476088,-3.2838252,-9.664251,8.648769,-9.396456,-5.651535,-7.5284014,-6.9904647,-11.070847,-7.925711,-8.86657,-2.1869197,-7.957795,8.005036,6.6765833,2.5942185,9.668751,-9.367025,4.9900985,-0.97615343,-9.786259,8.028468,10.017793,6.361319,6.569414,-9.834129,-7.0660954,-6.8289223,8.197808,-8.003714,-0.78116536,-10.746613,-11.411142,-0.7742977,-4.963344,-7.783358,9.38728,10.377493,-4.1578712,-3.1618571,-11.993546,-7.9408083,8.110342,-7.330304,-9.754343,-9.537062,-4.4750934,9.0463915,6.465948,-9.146033,-11.791817,6.932842,-5.4898562,8.937747,8.03873,5.703699,8.560448,-4.1599965,11.959976,11.94216
arik1265,-4.8529115,6.3223085,-6.270065,-5.2991405,-10.117533,-6.1057434,-2.0331833,-7.953698,-8.126545,9.101376,-6.8521647,-5.9746,6.9580464,-8.133681,-6.4873314,-7.2634153,-6.20092,-9.260564,7.574412,-7.9291267,-6.9833274,7.360678,7.145958,-1.488963,-5.3302436,7.051065,-7.3669195,-7.6568465,-6.8381906,-6.2718067,7.0130477,-5.9462075,5.4718304,-4.430225,3.84598,6.976308,8.48504,-6.469603,7.562682,5.829309,-6.911689,5.131261,4.897029,5.4994383,-5.6328235,5.1173534,-6.3510594,6.018889,-7.2173615,7.860633,-7.303136,-5.908726,8.138426,-5.1366687,-7.079783,-2.4149413,-7.709686,6.095854,6.3370204,-6.50107,8.027502,7.77931,7.2061615,6.36868,-7.919444,7.4696484,5.99298,-4.9856744,8.616988,-6.7010016,7.5439677,-6.471935,-6.228695,-6.5262823,7.6594543,4.9605427,-3.5119205,7.3039036,-4.435236,-7.170743,5.5921836,-5.953136,6.291292,-7.1638684,5.066245,-7.6659856,3.7465217,-5.796037,-4.7902036,-6.0539045,-5.828073,-5.017553,-5.247774,7.6425867,-5.110661,-5.524335,-7.4886804,-6.3209896,-6.3321896,6.6439004,5.6177497,-1.340196,-7.2229185,8.165232,-6.5832953,5.82531,7.531466,-7.931457,6.8759756,-6.168666,-6.930617,7.043231,-7.9142437,5.18863,5.7052903,8.76553,6.8332515,-7.8787565,7.883529,6.3767548,7.068355,6.6835394,7.976627,-7.177593,8.585073,-6.953411,-4.831324,5.304677,-7.365851,3.1071463,7.7456117,6.2769794,6.554153,-6.6635413,-3.2502964,-4.2986813,5.0679965,-7.001985,6.827051,-3.1466908,6.8971834,-6.430519,6.9578767,-7.0219264,-6.0290775,6.659268,6.0588937,-2.481682,5.6598587,-7.4652042,-6.575037,4.6008024,3.87053,5.382296,6.2812347,-7.5905895,6.5530467,6.68512,-6.410052,-4.225999,-6.133416,-6.660046,-5.8186946,-8.298832,-8.27999,8.466649,-6.3276987,7.4944034,-6.1234508,-6.9051986,-6.0328536,5.551509,-1.756635,3.3777275,-5.6710987,7.1326346,-4.362122,-6.7051716,-3.8776104,-6.837948,-6.3046565,-7.741231,-0.37649524,7.697707,7.657648,-4.323113,2.8654084,-4.3182726,-4.4322677,-7.3072324,6.0411777,-5.9965854,-4.517889,5.4662833,6.6481233,-7.8952107,6.0886865,-5.647816,-6.0410414,7.080762,-7.5068626,-1.7561059,-7.4863076,-7.396976,-7.0600414,-6.791739,-8.062768,-4.8920794,-5.8999095,7.2956405,7.2547145,-1.7096632,5.9335485,-8.667007,6.0034595,2.2506237,-6.6921844,6.4239044,5.602719,6.700064,5.8967977,-5.843183,-6.2133374,-1.9768364,3.0760868,-7.9072685,2.1430473,-7.145793,-6.6998935,3.6016624,-7.5575705,-8.4929695,7.561622,6.4186454,-6.822852,-4.8232036,-7.5559845,-6.1400385,8.5685425,-7.14008,-6.378326,-8.675138,-5.195923,5.940467,7.372197,-9.385851,-6.995997,5.1334534,-6.5961885,7.0161552,8.397321,7.0189147,8.367528,-6.1229677,7.9017415,6.6667786
asha1243,-6.289922,7.535262,-7.919548,-5.2396326,-11.422798,-6.7278957,-2.968862,-8.805239,-9.770663,11.080593,-7.880715,-7.6581235,7.8093843,-10.120562,-8.172221,-7.7458954,-6.844328,-10.302795,8.891087,-8.760792,-8.027157,7.8261333,8.000663,-0.48741323,-7.0522585,8.203875,-9.077525,-8.061906,-8.474779,-6.358212,8.181633,-6.0787005,5.4600725,-4.175733,3.442847,8.896535,10.534023,-6.7773294,9.566725,7.180495,-7.8090196,5.0703716,6.3826137,5.877822,-6.7647247,5.3570857,-6.6252728,7.39593,-7.583074,8.44636,-8.060771,-6.6001472,9.539515,-5.052747,-8.4424,-1.8166945,-9.131654,6.8038774,6.654003,-7.0365047,9.047767,8.851299,8.737845,8.399014,-8.551409,8.009601,6.4499526,-6.5772347,10.513062,-7.3754296,9.27401,-7.1766634,-6.4463673,-7.649998,9.345027,5.0409894,-3.7987864,8.160958,-4.93626,-7.550206,5.7440157,-7.518079,7.2540383,-7.7642517,5.5886884,-9.504601,5.296535,-7.034805,-6.2336793,-6.151091,-7.410042,-5.5135336,-6.2087145,9.064333,-5.4561276,-5.4732585,-8.8353195,-6.5833735,-7.0615587,7.670422,7.149141,-0.4717845,-8.629747,9.365213,-7.6460886,6.356721,8.747506,-9.665903,7.367609,-6.2374406,-7.288551,8.855796,-8.822742,6.8421125,5.8404202,10.445184,8.202674,-9.167115,8.514054,7.8680463,8.391692,7.133688,9.896519,-8.981818,9.391293,-7.3785896,-4.6850524,5.2768054,-8.862648,4.416149,8.113211,7.756488,7.9679146,-7.9820213,-3.8895502,-5.8369756,6.394089,-7.439537,7.1132274,-2.759257,7.5510383,-8.108553,7.297638,-7.853266,-7.074754,6.682705,6.5243874,-1.6158798,5.5362086,-8.929176,-7.6885433,4.374456,3.8299468,5.851972,6.936006,-9.246394,6.8702245,8.1474905,-6.9361935,-3.824154,-7.507765,-7.9865713,-5.887492,-9.697567,-9.504621,9.843879,-6.354736,8.985723,-6.7776027,-7.6061044,-6.526088,5.6089835,-1.1373312,3.0816853,-6.183401,8.007456,-4.2786436,-6.962249,-5.2169547,-8.018227,-6.5111866,-9.387845,0.5289292,9.703269,8.206367,-4.1739902,2.2707918,-5.7591505,-5.937362,-8.298455,7.30903,-6.1573844,-5.892513,6.0108647,7.3657393,-8.792213,7.4378295,-5.5191298,-7.381746,8.189144,-8.772057,-2.9489958,-8.208663,-8.23185,-8.760063,-7.8347197,-9.046274,-4.676969,-7.073193,8.166611,7.8523197,-0.84119725,7.477738,-9.654833,6.29322,1.7203714,-8.176945,7.3788004,7.2010107,7.4333196,6.670666,-7.556011,-7.043088,-3.1427128,4.5298347,-8.814143,1.670245,-8.612884,-8.47514,2.874985,-7.7750344,-9.221694,8.746618,8.0871525,-6.936259,-4.945601,-9.161993,-7.1874366,9.276304,-7.705847,-7.9485607,-9.8755045,-5.5293093,7.3492584,7.919603,-10.345187,-8.877507,6.020831,-7.087356,8.166905,9.151266,7.3203583,9.139414,-6.2699094,9.522673,8.534564
ashe1272,-6.4374795,7.849107,-8.178306,-5.404934,-11.729545,-6.924956,-3.017818,-9.13056,-10.034233,11.451884,-8.09802,-7.895224,7.9838667,-10.406143,-8.373715,-8.063394,-7.091027,-10.678097,9.122244,-9.050744,-8.372671,8.098755,8.228993,-0.49983045,-7.217811,8.5552,-9.28577,-8.398597,-8.676205,-6.5869985,8.509995,-6.365144,5.6195207,-4.238384,3.4986567,9.177309,10.9482765,-6.9817677,9.895328,7.400153,-8.047106,5.3378997,6.5158186,6.06956,-6.987213,5.5686736,-6.9939995,7.6664877,-7.8475204,8.742046,-8.293403,-6.8273354,9.804295,-5.229499,-8.74807,-1.8316715,-9.403929,7.036337,6.8899965,-7.2450933,9.29413,9.167547,9.047152,8.605932,-8.881165,8.350999,6.755615,-6.774557,10.855753,-7.561914,9.537387,-7.356362,-6.6758175,-7.885148,9.675397,5.1639094,-3.881776,8.491568,-5.096394,-7.8290176,5.9897175,-7.684599,7.486194,-8.110113,5.848856,-9.781542,5.4980707,-7.2126245,-6.380411,-6.3709474,-7.624182,-5.599268,-6.4734573,9.329122,-5.6278973,-5.6360226,-9.126207,-6.868189,-7.2028565,7.8407493,7.332803,-0.528978,-8.911625,9.674513,-7.854671,6.5552745,9.073542,-9.996461,7.6366043,-6.4539213,-7.5120215,9.129889,-9.118545,6.960003,6.0327005,10.701768,8.499915,-9.377791,8.748623,8.183761,8.635985,7.36144,10.1662,-9.232527,9.673936,-7.746802,-4.8456016,5.4378657,-9.14368,4.5801845,8.397484,7.981154,8.167551,-8.305322,-3.908621,-5.9655604,6.7371187,-7.651931,7.3940344,-2.8329287,7.8213096,-8.410827,7.560895,-8.027694,-7.3453,6.891226,6.7236395,-1.7284515,5.801626,-9.239635,-7.9525967,4.5783577,3.97336,6.066957,7.088831,-9.501391,7.1296716,8.337123,-7.1757903,-3.9690673,-7.704715,-8.284827,-6.033595,-10.056535,-9.739335,10.156017,-6.548627,9.228619,-7.083348,-7.8441014,-6.753653,5.768694,-1.1732858,3.1883361,-6.380467,8.357923,-4.4016495,-7.164834,-5.357733,-8.255653,-6.7799525,-9.676664,0.58208466,9.968125,8.506668,-4.2620735,2.352364,-5.9076686,-6.1408744,-8.581095,7.5852485,-6.4669456,-6.0825434,6.173875,7.581839,-9.124814,7.6302557,-5.773946,-7.649937,8.462007,-9.164142,-3.05846,-8.373683,-8.539094,-9.022668,-8.043342,-9.367297,-4.888773,-7.290337,8.441982,8.086157,-0.80589414,7.7648764,-9.973456,6.4743824,1.8785357,-8.425538,7.653964,7.351578,7.6483045,6.8403306,-7.730223,-7.310669,-3.238764,4.720053,-9.145904,1.7191018,-8.888583,-8.787596,3.0743127,-8.037893,-9.543787,8.970929,8.324443,-7.219925,-5.073781,-9.430387,-7.445246,9.611125,-7.980611,-8.290435,-10.204872,-5.7149696,7.5564804,8.198237,-10.616215,-9.129419,6.14092,-7.3544474,8.393976,9.561796,7.653119,9.584876,-6.5129275,9.877847,8.800766
avac1239,-3.3803911,4.774331,-4.3318624,-4.704724,-8.015494,-4.938598,-1.1129869,-6.318826,-5.941211,6.55804,-5.2264924,-3.993228,5.5768185,-5.896728,-4.567207,-6.152585,-5.0255427,-7.305598,5.814674,-6.4219728,-5.4163504,6.255205,5.7767134,-2.1177342,-3.5178165,5.3446207,-5.338441,-6.4265404,-4.8581295,-5.3919096,5.386062,-5.1254954,4.767687,-4.0789433,3.7846432,4.7797093,5.979645,-5.3298235,5.185768,4.301589,-5.4625134,4.5698256,3.2319355,4.579783,-4.2319193,4.4166594,-5.28527,4.2955647,-6.107061,6.5884147,-5.958012,-4.7346063,6.3146915,-4.6100016,-5.2322483,-2.6086326,-5.765453,4.976778,5.4078226,-5.38128,6.3161564,6.051091,5.1963763,4.2009444,-6.469217,6.209369,4.999798,-3.106328,6.3598766,-5.451056,5.424278,-5.113551,-5.2418118,-4.935709,5.5553164,4.29266,-3.0141098,5.8131304,-3.6063335,-6.032906,4.665041,-4.2310877,4.9360914,-5.7824707,3.96167,-5.4159408,2.0981393,-4.3942714,-3.277411,-5.2096567,-4.025328,-4.126712,-4.025057,5.8629794,-4.3502126,-4.891574,-5.7091556,-5.402546,-5.0324683,5.1961966,3.7619781,-1.8505187,-5.4483304,6.3199344,-5.005799,4.816178,5.7241874,-5.7764835,5.7159133,-5.367414,-5.9423084,4.865021,-6.161472,3.4899726,5.067212,6.57026,5.2236595,-6.07218,6.4563146,4.486831,5.1678233,5.7078056,5.660658,-4.975807,6.979032,-5.6587477,-4.3392987,4.695928,-5.4015326,1.6602459,6.4844265,4.533972,4.805002,-4.8412066,-2.528124,-2.7342827,3.3910704,-5.8804355,5.670053,-3.055893,5.7217326,-4.3311124,6.0748787,-5.723081,-4.5715604,5.836317,4.9968724,-2.7264404,5.1369743,-5.4999804,-4.9378786,4.192168,3.4122157,4.420661,5.003331,-5.4664536,5.512817,4.982837,-5.330007,-3.9481916,-4.5446987,-5.007,-5.102003,-6.407522,-6.5370793,6.495035,-5.677972,5.547797,-4.7670975,-5.639857,-4.92307,4.906046,-2.1405487,3.1405492,-4.6064987,5.465749,-3.8859334,-5.5596476,-2.5135643,-5.139909,-5.3888874,-5.8033175,-1.0034143,5.469115,6.364032,-3.9275723,2.8888059,-2.7403312,-2.678098,-5.824959,4.381988,-5.0529337,-2.940608,4.430094,5.3777766,-6.2369533,4.290146,-4.9590383,-4.3590403,5.50972,-5.67772,-0.655867,-6.1581817,-5.930947,-4.921161,-5.1754384,-6.405897,-4.5111065,-4.394228,5.845838,5.948995,-2.1228027,4.0599675,-6.857782,5.141997,2.4195144,-4.77554,4.91677,3.947179,5.4075594,4.7606964,-3.884297,-4.8465147,-0.86071867,1.6236274,-6.397896,2.2023926,-5.2609715,-4.6198397,3.635093,-6.5349107,-7.0149016,5.858992,4.5519276,-5.7794003,-4.2341275,-5.493213,-4.512436,7.0208793,-5.7331934,-4.410843,-6.88085,-4.2523646,4.205583,6.0003977,-7.5139437,-4.8762918,3.9581494,-5.4888554,5.4792805,6.803463,5.975224,6.891249,-5.1416802,5.860163,4.584118
awac1239,-8.734027,8.628879,-10.462762,-3.7594433,-12.043224,-6.444799,-4.554225,-8.624133,-11.647314,13.633482,-8.968143,-10.113767,7.898553,-12.714311,-10.150736,-6.7483053,-6.596063,-10.874617,9.479795,-8.737502,-8.85564,7.1257815,7.782576,1.853028,-9.721672,9.118478,-11.353629,-7.1303906,-10.618751,-5.498851,8.936456,-5.080909,4.313913,-2.537842,1.9751284,11.656083,13.005876,-6.073706,12.230385,8.308705,-8.000313,3.6198156,8.47865,5.6485944,-7.6291494,4.587649,-5.9345365,9.141592,-6.826016,8.054153,-7.5793695,-6.734283,10.904418,-3.6804502,-9.924025,0.18130359,-10.620476,7.1293077,5.671613,-6.746934,9.349403,9.462843,10.686319,11.258285,-7.8574886,7.3855686,6.167802,-9.10708,12.674355,-7.295818,11.428554,-7.3140574,-5.6200914,-8.758257,11.357399,4.2048,-3.3544166,8.546847,-4.986676,-6.65558,4.5235233,-9.793205,7.8590236,-7.5148597,5.846182,-11.780443,7.979553,-8.666385,-8.368732,-5.181187,-9.562944,-5.1703916,-7.4032316,10.274166,-4.994339,-3.9475696,-10.099646,-5.7949686,-6.687557,8.5189295,9.534731,1.8183229,-10.397207,10.527901,-8.392297,5.7888517,9.719503,-11.804219,6.8238363,-4.98687,-6.18223,11.372144,-9.2099495,9.211394,4.7297845,11.94629,9.788793,-9.947277,8.24473,10.080603,9.86518,6.625562,12.280428,-11.429132,9.226448,-6.824614,-3.1733048,3.895765,-10.657142,6.3929434,7.512176,9.664771,9.581891,-9.559137,-4.2893553,-8.146451,8.428585,-6.6707864,6.2376976,-0.88144684,7.3667965,-10.554968,6.3763275,-7.7958493,-7.9922986,5.1710787,6.050556,0.8823565,4.1339617,-10.621086,-8.664912,2.959322,2.5207772,5.697676,6.8372025,-10.941492,5.6484227,9.793503,-6.652208,-2.2381012,-9.058235,-9.514893,-4.85139,-10.921709,-10.564804,11.0699005,-4.968507,10.744326,-7.1066074,-7.853208,-6.1853185,4.444658,0.5436392,1.7171758,-6.2080092,8.226382,-2.8019307,-6.4787345,-7.235311,-9.575293,-5.4216967,-11.455478,2.5086887,12.189026,7.573575,-2.5813966,0.37684438,-7.9963884,-8.452715,-8.917366,8.917367,-5.1835423,-8.134822,5.847867,7.7186794,-8.685471,9.269512,-4.2940836,-9.384556,8.910184,-9.650172,-4.863352,-8.239747,-7.8878355,-10.749621,-8.350926,-9.446023,-3.2794757,-8.043841,8.457597,7.5195303,1.4391699,9.44315,-10.08632,5.804455,-0.002132088,-9.711632,8.29138,9.401539,7.114963,6.9060326,-9.570139,-7.4697866,-5.7520475,7.2409325,-8.701694,0.122528225,-10.532725,-10.82545,0.6706028,-6.253068,-8.841055,9.578674,10.009297,-5.5599556,-4.055605,-11.517787,-8.077585,9.0193,-7.8849163,-9.598807,-10.254414,-5.1693745,8.956015,7.3564744,-10.168521,-11.232718,6.9303613,-6.52813,9.078106,8.966302,6.676898,9.196627,-5.2439017,11.722169,11.242229
awet1244,-4.0880494,5.4382067,-5.245782,-4.8431473,-8.861347,-5.374499,-1.6250157,-6.8442473,-6.9463916,7.7007527,-5.9062343,-4.881553,6.135029,-6.9874268,-5.4832525,-6.546737,-5.464698,-8.038862,6.5369697,-6.923936,-6.1285043,6.613322,6.2961674,-1.6299195,-4.3841853,6.0755877,-6.286883,-6.7864704,-5.7605352,-5.6903086,6.071885,-5.309212,4.965557,-4.079281,3.7475042,5.843211,7.187231,-5.7151456,6.2946815,5.034064,-6.0154543,4.664843,4.077768,4.9171596,-4.89472,4.6152816,-5.6409073,5.108018,-6.4397426,6.9816365,-6.478026,-5.191188,7.141877,-4.671951,-6.1389637,-2.3529074,-6.5894513,5.3810654,5.701663,-5.810577,7.0103455,6.673702,6.1661525,5.2250156,-6.970133,6.5962286,5.378642,-3.9812524,7.43112,-5.927821,6.4045568,-5.549317,-5.5934343,-5.5993347,6.573454,4.476543,-3.134063,6.371833,-3.8859932,-6.407861,4.9104853,-5.1505046,5.4976563,-6.273571,4.361636,-6.5343504,2.8702433,-5.03703,-4.0627003,-5.426899,-4.9393296,-4.4822187,-4.554857,6.6166143,-4.526377,-5.030554,-6.520714,-5.666726,-5.5167537,5.905429,4.72385,-1.4449257,-6.3106074,7.0345626,-5.609658,5.1917677,6.450071,-6.787753,6.1557374,-5.6131988,-6.2469263,5.9434605,-6.843479,4.362747,5.2223334,7.6113577,5.98771,-6.798401,7.0074043,5.384858,5.9712167,6.051587,6.6863737,-6.01364,7.502141,-6.037363,-4.440931,4.863674,-6.270304,2.2947829,6.898975,5.335776,5.6277666,-5.6504135,-2.8538756,-3.593935,4.1319184,-6.2341313,6.0411644,-3.009341,6.2281694,-5.3121862,6.31159,-6.2459025,-5.160062,6.0353694,5.30711,-2.470032,5.249424,-6.3711267,-5.567549,4.2060556,3.4540832,4.7837195,5.4979076,-6.4530406,5.801692,5.7670016,-5.7498884,-3.8804688,-5.277009,-5.858602,-5.240136,-7.2360544,-7.2574496,7.3619313,-5.8089004,6.4609613,-5.285784,-6.1232586,-5.329724,5.098253,-1.8466958,3.0806842,-5.0134425,6.0694156,-3.9838984,-5.910195,-3.2382586,-5.8752413,-5.622309,-6.7363644,-0.6072047,6.549984,6.8652205,-3.9547448,2.7149076,-3.4761617,-3.5337129,-6.405489,5.154453,-5.3330317,-3.6942956,4.8209505,5.822449,-6.8580933,5.0923095,-5.080242,-5.125758,6.1677437,-6.53717,-1.3094659,-6.618076,-6.540393,-5.890912,-5.9121594,-7.0976543,-4.5411615,-5.0885463,6.405989,6.3849897,-1.8191352,4.9709325,-7.633601,5.3760843,2.2246325,-5.649411,5.5323205,4.790908,5.877459,5.2762136,-4.855096,-5.368806,-1.5060353,2.348325,-7.0358186,2.0476599,-6.143136,-5.7011633,3.423697,-6.826639,-7.5311103,6.6523633,5.45201,-6.1448565,-4.337503,-6.460408,-5.2177973,7.4732184,-6.242216,-5.429877,-7.6443653,-4.5752244,5.00161,6.4404354,-8.203392,-5.9767423,4.4955344,-5.8635907,6.1585913,7.3806853,6.329119,7.4213924,-5.402575,6.760485,5.561856
ayac1239,-5.849585,7.5908294,-7.5544786,-5.9643416,-11.828926,-7.284423,-2.6010938,-9.26443,-9.742628,11.044636,-7.950061,-7.312379,8.2214575,-9.813168,-7.913632,-8.413463,-7.3294153,-10.814,9.268732,-9.251462,-8.331616,8.459093,8.439063,-1.1383152,-6.652224,8.546122,-8.879999,-8.876195,-8.267019,-7.019228,8.520242,-6.8353662,6.175882,-4.775096,3.9443786,8.660263,10.413823,-7.3419375,9.383662,7.2211375,-8.254351,5.8207946,6.10777,6.3371716,-6.8199396,5.7704206,-7.3307123,7.2750344,-8.216193,9.044983,-8.580971,-6.8547535,9.63501,-5.7604513,-8.384361,-2.621149,-9.173444,7.1318374,7.342883,-7.4523354,9.468754,9.171323,8.698531,8.0955,-9.247069,8.722406,6.9506354,-6.2708716,10.3602705,-7.6867704,9.119928,-7.6208935,-7.073537,-7.827496,9.2558155,5.5373607,-4.0834713,8.494861,-5.120033,-8.223793,6.513002,-7.2152586,7.4119267,-8.294488,5.884238,-9.38505,4.8290377,-6.85023,-5.8544683,-6.862362,-7.1341834,-5.864795,-6.200315,9.166201,-6.0066648,-6.2214074,-8.84943,-7.338042,-7.506161,7.6709423,6.8349233,-1.1419384,-8.711671,9.592109,-7.859709,6.846752,9.027188,-9.506377,7.9476485,-6.9609966,-7.8888164,8.634123,-9.22777,6.559655,6.404588,10.445324,8.205773,-9.348242,9.022716,7.8262014,8.410965,7.693497,9.669424,-8.730254,9.991993,-8.157665,-5.279437,6.00985,-8.692362,4.1001577,8.665337,7.508347,7.7917957,-8.023034,-3.944105,-5.4417944,6.239844,-8.037261,7.8080316,-3.4387345,7.9747257,-7.8179274,7.9480195,-8.158682,-7.22037,7.522342,7.080288,-2.461347,6.2418923,-8.96324,-7.8853273,5.0949206,4.4178185,6.241743,7.249759,-9.25932,7.655924,7.946788,-7.3364058,-4.6320324,-7.383545,-7.989422,-6.4775777,-9.8644905,-9.703929,9.99631,-7.1147285,8.91666,-7.1247883,-7.945148,-7.0246363,6.2465043,-1.6126499,3.6919112,-6.5085297,8.5488205,-4.975333,-7.5240407,-4.8950047,-8.094086,-7.2087827,-9.290306,0.08628163,9.469691,8.932049,-4.8969107,2.9561179,-5.4431467,-5.578209,-8.614312,7.2036057,-6.8891697,-5.5623302,6.4552703,7.7672377,-9.291552,7.3242435,-6.225843,-7.187514,8.450422,-9.059647,-2.5359135,-8.676553,-8.767968,-8.609997,-8.057826,-9.401289,-5.4015474,-7.211575,8.492266,8.386428,-1.5082263,7.2630925,-10.145064,6.778863,2.4345202,-8.181714,7.5657315,6.8479714,8.018814,6.8842173,-7.237205,-7.3020062,-2.5086954,4.029177,-9.3515625,2.2146308,-8.593795,-8.267152,3.71024,-8.628132,-9.890262,8.895055,7.8453784,-7.759289,-5.491686,-9.038683,-7.3318577,9.954814,-8.210153,-7.89428,-10.405726,-6.0857944,7.3080535,8.538316,-10.928672,-8.588175,5.9625063,-7.6920757,8.396556,9.770074,8.00636,9.71862,-6.936827,9.415578,8.30828
bani1255,-7.984353,7.791418,-9.369322,-3.3585184,-10.793635,-5.6209736,-4.124303,-7.887883,-10.411968,12.143544,-8.051222,-9.052882,6.952189,-11.4828205,-9.0785675,-6.016591,-5.784001,-9.632021,8.393203,-7.7753067,-7.9576526,6.282707,7.0534906,1.5297755,-8.673152,8.026668,-10.213261,-6.1826954,-9.6230545,-4.8573585,7.911814,-4.483883,3.7267392,-2.3153865,1.9315633,10.362461,11.642863,-5.359437,10.873286,7.442438,-7.011252,3.2260516,7.540781,5.038345,-6.878989,4.187855,-5.074699,8.191916,-6.1136646,7.1564894,-6.7822623,-6.086283,9.859018,-3.2553244,-8.973306,0.31983188,-9.425418,6.3090124,5.090065,-6.0961394,8.319174,8.412193,9.551028,10.002251,-6.998791,6.5602202,5.4889083,-7.980137,11.424187,-6.6876063,10.199609,-6.418807,-5.0945883,-7.799965,10.249695,3.8723993,-2.9540489,7.705614,-4.4768777,-6.01194,3.8114717,-8.776316,7.145094,-6.6201973,5.1597614,-10.586833,7.0203257,-7.7918553,-7.712484,-4.6938763,-8.603002,-4.689314,-6.697632,9.273071,-4.392586,-3.4439614,-9.142446,-5.0712767,-6.0039196,7.700787,8.489033,1.5825576,-9.252325,9.450121,-7.4609313,5.2109294,8.580369,-10.563147,6.0334044,-4.5041165,-5.689749,10.028728,-8.1739435,8.248168,4.268512,10.664628,8.747542,-9.003555,7.2547126,8.899609,8.861167,5.9371023,10.964885,-10.293223,8.222424,-5.864428,-3.0077517,3.5118234,-9.651407,5.6152344,6.8095045,8.746776,8.779992,-8.481829,-3.9088135,-7.4365206,7.356341,-6.0719995,5.545836,-0.79168123,6.648434,-9.363227,5.7753325,-7.104183,-7.0918145,4.6826444,5.377809,0.825153,3.8435278,-9.568598,-7.7367725,2.5079546,2.3096805,5.07961,6.1838074,-9.836024,4.968657,8.930576,-6.1103687,-1.9083534,-8.194352,-8.567187,-4.269756,-9.773931,-9.491524,10.023235,-4.4843407,9.656191,-6.375592,-7.112431,-5.582263,4.0359335,0.42441663,1.4802549,-5.7113166,7.1868286,-2.5136304,-5.7939663,-6.479203,-8.490706,-4.7958183,-10.386895,2.1457028,10.954864,6.6779275,-2.1879225,0.32412246,-7.1448526,-7.480716,-7.879819,8.023472,-4.5681458,-7.2787175,5.2647166,6.897362,-7.736117,8.257156,-3.8517997,-8.361079,7.982282,-8.57965,-4.4231334,-7.3366103,-6.906705,-9.653464,-7.4729786,-8.476298,-2.9215379,-7.2033772,7.576394,6.701533,1.0987498,8.404321,-8.886813,5.3211102,-0.06354549,-8.63968,7.4411244,8.633282,6.295647,6.2291803,-8.497163,-6.6685305,-5.233782,6.432298,-7.835245,0.027182706,-9.367493,-9.718894,0.5775943,-5.603941,-7.8560095,8.704619,8.984313,-4.9092355,-3.6869338,-10.367806,-7.2610755,7.960867,-7.0682726,-8.530542,-9.024002,-4.5312524,7.955357,6.627742,-8.985696,-10.073968,6.282389,-5.636235,8.099367,7.848855,5.956163,8.2687025,-4.567086,10.502985,10.043439
bara1380,-8.116966,7.856418,-9.540906,-3.2180154,-10.727174,-5.600004,-4.2988276,-7.8550167,-10.681125,12.385191,-8.104844,-9.246129,6.9850016,-11.618206,-9.300779,-5.8418922,-5.6910477,-9.638155,8.433474,-7.764287,-8.007233,6.183362,7.010047,1.7904394,-8.995238,8.147144,-10.391722,-6.1440954,-9.810635,-4.7077255,8.0294285,-4.460564,3.6304564,-2.1420193,1.7371997,10.542812,11.94138,-5.179034,11.059568,7.5483274,-7.0015917,3.1633155,7.717211,4.9474626,-6.767881,4.004208,-4.863098,8.298291,-6.1070266,7.0226517,-6.667533,-6.0753803,9.976546,-3.0358074,-9.010087,0.50612557,-9.447451,6.398345,5.0943565,-6.1208,8.281167,8.413621,9.772027,10.261841,-6.8018756,6.4820404,5.5064855,-8.219727,11.607404,-6.6081753,10.340221,-6.4019938,-5.013404,-7.87204,10.36419,3.7918496,-2.7831433,7.7760334,-4.4944353,-5.8697324,3.632302,-8.962137,7.217729,-6.4706764,5.197846,-10.777531,7.1911726,-7.878585,-7.9329247,-4.6303377,-8.744803,-4.708911,-6.7501388,9.441403,-4.3203998,-3.3278036,-9.163914,-5.100194,-6.0027785,7.7859144,8.752767,1.8327597,-9.388994,9.489648,-7.5014315,5.180967,8.747945,-10.761047,6.0058966,-4.4121118,-5.638628,10.167366,-8.269833,8.530137,4.0311275,10.6977005,8.947562,-8.972447,7.2308702,9.025942,9.021855,5.928211,11.080605,-10.473436,8.068407,-5.7581587,-2.8392696,3.3141043,-9.749036,5.8038645,6.688074,8.834336,8.825103,-8.585513,-3.9256074,-7.682175,7.535885,-6.1225424,5.423888,-0.508074,6.7085857,-9.566523,5.6655955,-7.0573974,-7.092243,4.521644,5.433148,1.0567217,3.669796,-9.770987,-7.7612886,2.3867958,2.142288,5.0405326,6.255351,-9.9719515,4.8366127,9.049537,-6.1251636,-1.8979229,-8.284778,-8.690582,-4.079056,-9.794345,-9.598046,10.04919,-4.257942,9.690239,-6.491033,-7.1057963,-5.542025,3.9269023,0.5310869,1.2480006,-5.6798983,7.2437615,-2.2673194,-5.727686,-6.6983714,-8.570996,-4.728605,-10.602373,2.3064008,11.177521,6.7273927,-2.0623724,0.21160641,-7.40824,-7.6592374,-7.8193855,8.169612,-4.5398827,-7.5050178,5.199294,6.89368,-7.593184,8.320271,-3.7292295,-8.50616,8.069684,-8.543866,-4.5774965,-7.3752394,-6.7884493,-9.846625,-7.483652,-8.37385,-2.7066808,-7.2862325,7.545998,6.6027308,1.2128861,8.512447,-8.884058,5.2690997,-0.25324202,-8.695494,7.5309296,8.782588,6.3773303,6.158606,-8.601969,-6.7033916,-5.4498587,6.669958,-7.8642383,-0.037603125,-9.422876,-9.878955,0.4037251,-5.356303,-7.767274,8.767145,9.093248,-4.7047596,-3.64974,-10.552981,-7.461966,7.875206,-7.108675,-8.577124,-9.158477,-4.385468,8.090626,6.4748144,-8.955919,-10.258035,6.47113,-5.617625,8.265747,7.8379283,5.9509606,8.214327,-4.415536,10.69652,10.39871
bare1276,-7.51901,7.2914076,-8.871142,-3.188399,-10.154234,-5.299078,-3.9531424,-7.385454,-9.942304,11.462281,-7.662265,-8.475387,6.579266,-10.885324,-8.575718,-5.658784,-5.4467535,-9.116552,7.9603953,-7.3424063,-7.55313,5.9137654,6.665969,1.3460925,-8.129158,7.5680137,-9.629248,-5.834109,-9.162278,-4.624101,7.4763837,-4.224728,3.564546,-2.2446108,1.924669,9.725535,10.991048,-5.0022674,10.1387,7.0739098,-6.594172,3.0726628,7.0616584,4.813251,-6.420534,3.9582384,-4.698093,7.7702327,-5.9882927,6.7841763,-6.322384,-5.7386327,9.424949,-3.1756659,-8.487374,0.36879233,-8.870264,5.9815035,4.8870387,-5.808129,7.8083525,7.905822,9.054683,9.344749,-6.527969,6.192969,5.2147913,-7.5307536,10.776156,-6.346936,9.596573,-6.034412,-4.835958,-7.371345,9.681238,3.6979828,-2.7835636,7.2982616,-4.1557117,-5.7065988,3.5310113,-8.240758,6.8424873,-6.171798,4.9528103,-9.993373,6.523299,-7.376158,-7.347141,-4.53848,-8.113873,-4.4613924,-6.37277,8.765031,-4.0576725,-3.266058,-8.631871,-4.891321,-5.693977,7.38438,8.02609,1.469963,-8.761315,8.807404,-7.0687556,4.872957,8.195707,-9.955283,5.768877,-4.2917385,-5.5116014,9.530264,-7.7422776,7.8380075,4.0135016,10.019245,8.31782,-8.435285,6.920501,8.336728,8.40556,5.7162685,10.306542,-9.680831,7.7794538,-5.451033,-2.8431346,3.278992,-9.058444,5.224305,6.4989085,8.294966,8.277672,-7.9582615,-3.7024453,-7.120472,6.888297,-5.83731,5.2434044,-0.72378653,6.3565135,-8.815333,5.5067735,-6.7457814,-6.705952,4.4484367,5.12745,0.7135356,3.7018864,-9.013855,-7.2764344,2.410521,2.2288346,4.803022,5.969534,-9.251134,4.7305727,8.433382,-5.8318186,-1.9296613,-7.7907085,-8.135483,-3.9957428,-9.22948,-9.085966,9.489343,-4.3285117,9.132528,-5.987724,-6.695614,-5.318229,3.8110695,0.2746191,1.3336016,-5.4133596,6.7165856,-2.2779894,-5.5613766,-6.1025057,-8.045999,-4.550777,-9.87802,1.9145437,10.34975,6.352131,-2.0735207,0.3497719,-6.704478,-7.052332,-7.361388,7.6151166,-4.337003,-6.849096,4.989466,6.604461,-7.137228,7.7562447,-3.7099156,-7.9143577,7.573612,-8.031003,-4.159138,-7.0132265,-6.406101,-9.120386,-7.0546284,-7.949895,-2.7377355,-6.7379174,7.0737357,6.2815843,0.86804426,7.9298615,-8.379263,4.9790044,-0.0087946355,-8.102039,7.041205,8.23081,6.015064,5.962652,-7.9962096,-6.3129797,-4.918593,5.944476,-7.4991903,0.05059009,-8.814323,-9.209451,0.5833172,-5.252834,-7.4072256,8.280433,8.371819,-4.621121,-3.5021644,-9.82702,-6.961796,7.457014,-6.7795744,-7.9664164,-8.537175,-4.2338424,7.4673495,6.149675,-8.538461,-9.554667,6.061255,-5.351334,7.6424727,7.374956,5.5712724,7.807687,-4.249154,9.938757,9.459736
baur1253,-4.666288,6.4313345,-6.209121,-5.698758,-10.4145,-6.371912,-1.9317911,-8.171066,-8.239936,9.14671,-6.9336524,-5.823306,7.285496,-8.200848,-6.4919205,-7.7532854,-6.542136,-9.568337,8.006339,-8.333085,-7.2830486,7.8104362,7.5084567,-1.7241592,-5.2588463,7.3058887,-7.4233756,-8.094077,-6.8685136,-6.484803,7.320405,-6.420894,5.8443,-4.793458,4.1619554,6.9996433,8.648177,-6.705702,7.55821,6.134736,-7.3823395,5.516351,4.8309865,5.7672424,-5.851036,5.450407,-6.680767,6.013682,-7.5854745,8.336005,-7.7798038,-6.2006974,8.3396435,-5.4285307,-7.127617,-2.7481544,-7.831207,6.3638573,6.7632375,-6.7667756,8.343853,7.9303236,7.206948,6.3025956,-8.332148,7.942108,6.311101,-4.862837,8.822159,-6.9742136,7.541519,-6.6685696,-6.492581,-6.6396003,7.741802,5.238396,-3.8191106,7.5887156,-4.623593,-7.4775352,5.948023,-5.9901943,6.4667535,-7.41065,5.177416,-7.822219,3.5427852,-5.846292,-4.7386227,-6.421458,-5.8268027,-5.3398104,-5.2554116,7.90613,-5.4769063,-5.9382744,-7.6702642,-6.7775936,-6.7760286,6.756084,5.480343,-1.6773715,-7.333259,8.310572,-6.7004757,6.228721,7.758412,-7.9174967,7.172595,-6.536814,-7.393534,6.973324,-8.089963,5.2622075,6.0368705,8.983242,7.025522,-8.119575,8.290953,6.3524413,7.1538725,7.1065955,7.9864664,-7.148595,8.875643,-7.3227305,-5.196983,5.7549286,-7.39246,2.92897,7.9824386,6.21964,6.5179615,-6.6933565,-3.4047444,-4.2126794,4.92476,-7.359551,7.164123,-3.559816,7.2498555,-6.3566236,7.4569607,-7.3574758,-6.2034817,7.0598154,6.3966947,-2.8565226,6.06214,-7.590379,-6.8217735,4.940241,4.176919,5.6702876,6.5410366,-7.749362,7.036276,6.7105966,-6.7145553,-4.57545,-6.194258,-6.8479204,-6.1441464,-8.5145855,-8.548577,8.692119,-6.794219,7.5084496,-6.2437043,-7.16106,-6.369666,5.8827705,-2.0496135,3.6578534,-5.8780346,7.3796873,-4.730274,-6.8699846,-3.9151216,-6.8676434,-6.7616215,-7.8662353,-0.66611594,7.7742047,8.18483,-4.665697,3.1740038,-4.193579,-4.254089,-7.6104403,6.1338806,-6.3876557,-4.476454,5.767427,6.841859,-8.299423,6.03379,-5.938505,-5.9686785,7.3641067,-7.779005,-1.6798519,-7.7042527,-7.844645,-7.056157,-6.966902,-8.28509,-5.28972,-6.053624,7.492748,7.5460377,-2.0989983,5.9158235,-8.878343,6.3708615,2.603487,-6.8264065,6.5476875,5.697626,7.1110883,6.1627645,-5.8832164,-6.425995,-1.6306655,2.8655446,-8.330367,2.4080958,-7.1432657,-6.7878194,3.9427538,-8.011021,-8.915368,7.8395834,6.524434,-7.211682,-5.155225,-7.613773,-6.311385,9.004217,-7.303129,-6.5201106,-9.136801,-5.490838,6.001411,7.6315417,-9.843425,-7.0764155,5.23462,-7.034546,7.2300053,8.758265,7.4117756,8.800055,-6.4836664,7.978678,6.672767
berb1259,-6.855726,6.7635603,-8.05717,-3.1295056,-9.435193,-5.0295725,-3.4777052,-6.8864365,-9.055644,10.412441,-7.003408,-7.5956445,6.175446,-9.935365,-7.775008,-5.493336,-5.1631346,-8.547313,7.2213354,-6.842431,-7.016665,5.7682743,6.157353,0.8861353,-7.3176484,7.0633264,-8.773817,-5.5190253,-8.343521,-4.5370526,6.958677,-4.1888924,3.6022727,-2.3394682,2.073443,8.765876,9.94589,-4.7810283,9.188464,6.4676895,-6.183919,3.1130195,6.3568063,4.6180487,-5.7964315,3.8401055,-4.667156,7.1256638,-5.5952888,6.449671,-5.955109,-5.394527,8.661528,-3.1842847,-7.8327656,0.024691079,-8.172124,5.689849,4.638205,-5.5050945,7.334124,7.314232,8.360136,8.235489,-6.139976,5.9384837,5.038171,-6.827215,9.796219,-5.9939485,8.68804,-5.712414,-4.6560965,-6.865538,8.866913,3.5722406,-2.6682909,6.7148695,-3.9904895,-5.4031706,3.5135796,-7.602377,6.3543735,-5.886938,4.6755953,-9.022463,5.8447504,-6.8948936,-6.6783886,-4.37991,-7.375125,-4.213746,-5.902025,8.071611,-3.9011583,-3.3101578,-7.9888353,-4.6968136,-5.2769403,6.950495,7.304137,0.97081184,-8.106516,8.2815485,-6.64017,4.6836905,7.641064,-9.223613,5.548645,-4.1852746,-5.185229,8.617605,-7.299085,6.9479604,3.8759158,9.179,7.7059817,-7.680667,6.542767,7.7362733,7.7525535,5.440284,9.300078,-8.747877,7.2190986,-5.2399263,-2.818683,3.2957938,-8.294879,4.6176386,6.224312,7.4778867,7.59474,-7.2625623,-3.3744035,-6.3358555,6.214917,-5.561913,4.9972506,-0.8937938,6.0510063,-8.056726,5.4754844,-6.3797584,-6.192399,4.4362273,4.990323,0.36261556,3.693337,-8.218791,-6.6679773,2.5439003,2.093449,4.5144796,5.4801664,-8.386357,4.5786643,7.7419653,-5.5452557,-2.1032584,-7.145718,-7.4912953,-3.9635875,-8.572044,-8.438261,8.712452,-4.2248545,8.383516,-5.5872636,-6.4021893,-4.9461784,3.63291,-0.0412409,1.5960189,-5.1572123,6.328851,-2.3236232,-5.250482,-5.523281,-7.4045568,-4.3621063,-9.088131,1.5107777,9.386368,6.055695,-2.1622682,0.5466819,-6.034706,-6.2767367,-6.827205,6.9190645,-4.2039533,-6.1127596,4.710959,6.2299213,-6.764188,7.0564146,-3.689538,-7.2725873,6.9478703,-7.4483356,-3.7084353,-6.553508,-6.081288,-8.256159,-6.566961,-7.429798,-2.9363568,-6.2434025,6.70547,5.890991,0.4507578,7.121514,-7.9283037,4.855033,0.14454883,-7.361671,6.54935,7.3574204,5.6555552,5.5317636,-7.1310635,-5.901686,-4.3592324,5.2133536,-7.085413,0.3087219,-8.098035,-8.303154,0.92922664,-5.201849,-7.038019,7.6063128,7.678004,-4.616179,-3.4706328,-9.075485,-6.3171062,7.0328455,-6.4529567,-7.267101,-8.031583,-4.0920873,6.8809385,5.8621316,-8.079795,-8.711982,5.5470467,-5.288266,7.133694,6.976241,5.466083,7.444293,-4.23195,9.159716,8.523517
beto1236,-8.533839,8.054708,-9.913929,-3.089067,-10.942772,-5.5917783,-4.452479,-7.8849697,-10.85134,12.719139,-8.215985,-9.692296,6.9590526,-11.973647,-9.4818945,-5.840651,-5.791297,-9.855152,8.464192,-7.758174,-8.276166,6.1497583,7.1014867,1.9414177,-9.241526,8.28718,-10.799476,-5.9395823,-10.125767,-4.6253266,8.180416,-4.3173423,3.491198,-1.918544,1.4629933,10.860287,12.258425,-5.2575283,11.529711,7.713625,-6.9929776,2.9936943,8.067911,5.0938845,-6.9999914,3.9422057,-4.995964,8.585159,-6.023775,7.0419264,-6.725471,-6.0355215,10.128861,-2.923597,-9.345057,0.7514055,-9.718341,6.442198,4.9941244,-6.004207,8.403083,8.576333,10.018921,10.551134,-6.827124,6.416163,5.483618,-8.574467,11.916713,-6.6003094,10.610519,-6.442128,-4.9453173,-8.079696,10.741067,3.6678503,-2.7971663,7.776331,-4.475802,-5.7875533,3.5696802,-9.170128,7.3541155,-6.5630636,5.2397604,-11.102093,7.677079,-8.115901,-8.17041,-4.5491877,-9.079772,-4.599278,-6.9314938,9.564649,-4.3338165,-3.0959847,-9.460752,-4.8947186,-5.852024,7.993808,8.9809885,2.0893004,-9.692976,9.826835,-7.6724105,5.066593,8.828774,-11.085477,5.8846188,-4.2028894,-5.4498525,10.641234,-8.306941,8.68125,3.9981694,11.004637,9.161285,-9.105729,7.2644887,9.450409,9.283107,5.8682284,11.489036,-10.853326,8.168483,-5.7031856,-2.6232734,3.2068794,-9.9481325,6.1241856,6.6691074,9.133737,9.07379,-8.841413,-4.0101695,-7.913423,7.814408,-5.9368353,5.3572865,-0.2775634,6.542663,-9.962436,5.577425,-7.1084323,-7.267223,4.4231358,5.3196898,1.3757746,3.664444,-10.031549,-7.931123,2.1861064,2.0057256,4.986725,6.189028,-10.232491,4.747896,9.279101,-6.1087513,-1.6370505,-8.501309,-8.989627,-4.0714273,-9.96021,-9.655076,10.340051,-4.222187,10.0860405,-6.4412665,-7.0850115,-5.37109,3.7301114,0.8049757,1.1920425,-5.7121315,7.2673364,-2.1968935,-5.7291822,-6.9400477,-8.942303,-4.600679,-10.852798,2.6446824,11.546831,6.4762173,-1.7079508,-0.10230434,-7.558399,-8.020016,-8.070002,8.350463,-4.4320765,-7.760948,5.239796,6.9231772,-7.7239137,8.661926,-3.6126657,-8.861534,8.104586,-8.720473,-4.9137135,-7.3629646,-6.829865,-10.073857,-7.5421686,-8.512095,-2.7035058,-7.4007926,7.5854096,6.6380873,1.5779488,8.788275,-8.978251,5.1847873,-0.3576721,-8.9948435,7.5443316,9.065636,6.3200035,6.2348266,-8.963352,-6.8323183,-5.7316065,7.0450435,-7.8831043,-0.23448238,-9.828584,-10.313992,0.09344208,-5.3035088,-7.6725483,8.835644,9.419662,-4.584606,-3.4899383,-10.996012,-7.5127563,8.013095,-7.1367054,-8.921592,-9.072598,-4.438007,8.363562,6.516594,-8.897587,-10.575712,6.4184923,-5.493878,8.296073,7.777955,5.8193974,8.289198,-4.4530096,10.988467,10.667983
bord1248,-9.401867,8.756124,-10.995146,-3.0958366,-11.9085045,-6.031313,-4.9751096,-8.395885,-12.015159,14.155873,-9.002224,-10.693058,7.5819097,-13.233977,-10.605386,-6.173837,-6.223014,-10.679198,9.295389,-8.355571,-8.974266,6.614994,7.5886407,2.627767,-10.436813,9.096319,-11.769444,-6.3902655,-11.141602,-4.8332696,8.942264,-4.449241,3.5959089,-1.905956,1.3230691,12.147238,13.610183,-5.4455137,12.761084,8.470336,-7.705592,3.0488183,9.069522,5.302515,-7.772829,4.1749797,-5.3228416,9.518626,-6.3275166,7.656461,-7.1545405,-6.6099634,11.121591,-3.051146,-10.242358,0.93020576,-10.774511,7.0239015,5.1780663,-6.4809003,9.17285,9.344627,10.984704,11.873612,-7.2482433,6.858764,5.8081517,-9.696345,13.176312,-7.146348,11.8233,-6.9657855,-5.169648,-8.879939,11.784296,3.7508297,-3.0649803,8.4955845,-4.870598,-6.0683026,3.7495837,-10.2339,7.9259806,-7.062149,5.6398997,-12.272152,8.63401,-8.963968,-9.013567,-4.7305818,-10.159874,-4.981476,-7.5508237,10.470784,-4.7327414,-3.1730757,-10.386616,-5.213179,-6.334252,8.638219,10.026247,2.5709634,-10.680154,10.6514225,-8.382012,5.480084,9.651195,-12.163897,6.3457565,-4.4501443,-5.70703,11.988108,-9.10709,9.807651,4.183303,12.188049,10.07668,-9.977659,7.8084545,10.467926,10.211142,6.247978,12.773938,-12.071506,8.879512,-6.1878376,-2.6361825,3.2040603,-11.019165,6.886127,7.054322,10.154401,9.979389,-9.744529,-4.3001723,-8.807673,8.825454,-6.207458,5.6886544,-0.14968517,7.1716847,-11.12912,5.910519,-7.6578746,-8.035292,4.412772,5.6975036,1.8647424,3.5954154,-10.998202,-8.791691,2.2504747,1.9581482,5.3465343,6.6592865,-11.321421,4.9759626,10.217452,-6.4690633,-1.4295886,-9.3828,-9.898818,-4.1657887,-11.118218,-10.641306,11.282422,-4.360528,11.016933,-6.8965716,-7.700167,-5.91996,3.9307275,1.1172717,1.1155055,-5.994962,7.97053,-2.2229562,-6.0782743,-7.712547,-9.719878,-4.901506,-12.000336,3.1536388,12.836355,6.997621,-1.7525905,-0.38670912,-8.574033,-9.063516,-8.893221,9.24461,-4.5942216,-8.692301,5.6207733,7.520998,-8.36357,9.583572,-3.6526656,-9.751231,8.98293,-9.708704,-5.481451,-7.915722,-7.4650865,-11.1704645,-8.1809635,-9.260629,-2.6123683,-8.14369,8.334392,7.1415343,2.1820128,9.788933,-9.757907,5.3265924,-0.5480242,-10.038316,8.241468,10.041477,6.8048034,6.8248596,-9.968136,-7.3038554,-6.509917,8.021619,-8.444441,-0.44221708,-10.837317,-11.422387,-0.27731755,-5.45053,-8.346523,9.726593,10.4750595,-4.699312,-3.5864055,-11.989387,-8.15772,8.59862,-7.6915054,-9.981974,-10.011777,-4.700021,9.146991,6.9190803,-9.769509,-11.875256,7.0798507,-6.0170207,9.133135,8.510445,6.188204,8.951286,-4.577025,12.114104,11.968341
boro1282,-4.222884,5.4694834,-5.3694634,-4.6176023,-8.762645,-5.3190613,-1.7444772,-6.8277526,-6.9914813,7.8639045,-5.939927,-5.014111,6.079118,-7.111997,-5.5488615,-6.427055,-5.347827,-7.9909363,6.525665,-6.8281636,-6.1856785,6.419852,6.256326,-1.493246,-4.4893007,6.039893,-6.3657284,-6.5857277,-5.9599113,-5.5563293,6.101184,-5.242635,4.7855635,-3.9061568,3.6044583,5.9851537,7.2633758,-5.588035,6.397165,5.0814877,-6.0231376,4.522817,4.2321243,4.870614,-4.841437,4.46752,-5.5511684,5.2253613,-6.3539004,6.880758,-6.3319073,-5.1889505,7.239757,-4.613618,-6.1708736,-2.204562,-6.6225004,5.4103856,5.602755,-5.6812096,6.8985267,6.6593027,6.2301025,5.345357,-6.7777205,6.549926,5.344021,-4.174436,7.495673,-5.906557,6.438113,-5.615819,-5.5043454,-5.631746,6.6037335,4.3906035,-3.097195,6.33187,-3.849813,-6.285486,4.7932205,-5.252859,5.571154,-6.0993757,4.3550267,-6.539255,3.0588715,-5.1575685,-4.2359586,-5.3549757,-5.0260973,-4.4535117,-4.624289,6.695223,-4.43565,-4.852175,-6.5587306,-5.5750327,-5.495908,5.924659,4.831483,-1.3954245,-6.332744,7.0380507,-5.682701,5.06185,6.540974,-6.8643303,6.019373,-5.463012,-6.1816545,6.0619836,-6.825849,4.501005,5.091298,7.598735,6.023224,-6.7616415,6.8793836,5.5159903,6.075518,5.9620123,6.8047256,-6.0835404,7.416088,-5.9380035,-4.21762,4.691237,-6.358593,2.4574962,6.8138857,5.4776497,5.807973,-5.716646,-2.8892672,-3.7020996,4.1945786,-6.1823716,5.857742,-2.8090005,6.2174835,-5.460764,6.23166,-6.193011,-5.1754913,5.884634,5.333132,-2.1823459,5.08999,-6.470942,-5.642174,4.084088,3.3494382,4.717458,5.4491863,-6.504819,5.6166644,5.930535,-5.6550293,-3.8131526,-5.3302236,-5.877257,-5.125299,-7.197351,-7.2654414,7.455595,-5.722047,6.4889526,-5.2856193,-6.133985,-5.232612,4.891328,-1.7052156,2.9873292,-4.904344,6.053597,-3.8353567,-5.811482,-3.3199298,-5.9235787,-5.5436726,-6.882805,-0.5095348,6.7011156,6.7243304,-3.8191874,2.5631104,-3.6214786,-3.6160274,-6.30804,5.2417793,-5.277572,-3.7764294,4.7911906,5.7937775,-6.8114223,5.165653,-4.9891357,-5.249223,6.191453,-6.4910846,-1.4399935,-6.5241218,-6.390159,-5.9885244,-5.853829,-6.99923,-4.4238424,-5.1192827,6.344743,6.324868,-1.8046029,4.993059,-7.5194106,5.359646,2.045503,-5.6769295,5.557328,4.9316273,5.853903,5.237618,-4.8802357,-5.366415,-1.7240691,2.5215673,-7.0602207,1.9611124,-6.1330476,-5.7922344,3.27044,-6.6102486,-7.484082,6.6068974,5.4313745,-5.892657,-4.3170824,-6.5930157,-5.307122,7.3304906,-6.194933,-5.4471946,-7.5639167,-4.495328,5.0965123,6.393239,-8.212436,-6.144777,4.5382986,-5.775847,6.123415,7.2147217,6.1955,7.3360834,-5.1939774,6.835215,5.73653
caca1249,-6.8465133,7.97482,-8.579466,-5.0869055,-11.746938,-6.7616463,-3.2520764,-9.028725,-10.332938,11.806215,-8.303824,-8.219812,8.063475,-10.690928,-8.645988,-7.7656746,-6.8562965,-10.721438,9.225807,-8.959045,-8.53914,7.902819,8.144045,-0.10164625,-7.6092935,8.593967,-9.687045,-8.106819,-9.019669,-6.41648,8.604997,-6.151555,5.4023447,-3.884391,3.1923509,9.542389,11.215117,-6.762556,10.254607,7.5079994,-8.0444,4.971441,6.8854923,5.9614077,-7.0745883,5.365977,-6.812726,7.876764,-7.6145654,8.600837,-8.107537,-6.7736735,10.007658,-5.0525947,-8.858732,-1.5005742,-9.639245,6.9945936,6.597825,-7.1604996,9.272256,9.119142,9.34846,9.084923,-8.735309,8.208349,6.432124,-7.2832246,11.126108,-7.4515157,9.813943,-7.4016104,-6.514712,-8.0822115,9.965148,5.0052996,-3.7830796,8.459337,-4.9272923,-7.641999,5.6799917,-8.0156555,7.5907173,-7.92893,5.758087,-10.005685,5.9027953,-7.3684225,-6.7669654,-6.2033324,-7.8994555,-5.5220747,-6.5830674,9.391707,-5.3828926,-5.3020463,-9.254759,-6.6996202,-7.148263,7.8679013,7.697194,-0.092607796,-9.121322,9.84356,-7.941014,6.4064636,9.150124,-10.272057,7.4723577,-6.2828712,-7.208153,9.565075,-9.174207,7.3756914,5.78522,10.838422,8.641987,-9.466768,8.625964,8.461821,8.905424,7.2237372,10.4624195,-9.636397,9.632725,-7.6003723,-4.552204,5.2917767,-9.379368,4.783019,8.209033,8.354315,8.387726,-8.475782,-4.0247126,-6.244054,6.9530973,-7.4613976,7.1986513,-2.4918573,7.704816,-8.705831,7.2997646,-7.99552,-7.3987346,6.558647,6.575763,-1.3105454,5.4771724,-9.457018,-8.047735,4.225316,3.6440864,5.9294257,7.006883,-9.746913,6.827347,8.70384,-7.144148,-3.7435179,-7.937252,-8.453491,-5.791966,-10.220829,-9.871771,10.274325,-6.2877097,9.455335,-7.1423264,-7.850468,-6.675309,5.501628,-0.9087507,2.9844422,-6.357015,8.280064,-4.1469355,-7.05631,-5.5898843,-8.544241,-6.4805384,-9.971517,0.94179726,10.365355,8.30342,-3.9724545,2.0215905,-6.2985606,-6.583133,-8.555999,7.793467,-6.1978164,-6.38843,6.1921134,7.6307316,-8.983046,7.9105153,-5.5298333,-8.003903,8.465482,-9.223726,-3.448271,-8.282156,-8.370203,-9.321397,-8.04375,-9.331903,-4.53987,-7.3567615,8.395041,8.016177,-0.46995813,8.051656,-9.946883,6.3417997,1.5905502,-8.696128,7.7261157,7.633318,7.5045342,6.8674035,-7.9903393,-7.2960763,-3.7181153,5.046675,-9.02255,1.4275827,-9.189894,-9.086487,2.5923178,-7.7505145,-9.3689995,9.133553,8.510739,-6.9316773,-4.8420053,-9.819128,-7.455464,9.4768505,-8.0205965,-8.443413,-10.205677,-5.6399283,7.7577195,8.030666,-10.549725,-9.449517,6.394227,-7.228009,8.513812,9.383483,7.5055494,9.448978,-6.222702,10.207705,9.168272
cald1236,-8.315693,8.70754,-10.044681,-4.4346137,-12.315521,-6.7762175,-4.2827883,-9.186457,-11.580783,13.456284,-8.931644,-9.872619,8.179271,-12.366677,-10.002505,-7.2803955,-6.9206986,-11.062272,9.769127,-9.06396,-9.058004,7.5108776,8.17646,1.3449906,-9.34441,9.272093,-11.187953,-7.610245,-10.438356,-5.893662,9.094589,-5.63026,4.751021,-3.0380552,2.2720947,11.332482,12.913093,-6.4577913,12.00326,8.308837,-8.302171,4.2554793,8.129176,5.8888006,-7.690511,4.9470243,-6.292594,8.936271,-7.3319187,8.440055,-8.016963,-6.926045,10.964521,-4.177248,-9.798354,-0.40779153,-10.431694,7.243488,6.329754,-7.126194,9.671757,9.6278515,10.537274,11.0106125,-8.352949,7.8502192,6.4133615,-8.706413,12.635323,-7.5995827,11.2302885,-7.5179834,-6.0899305,-8.794726,11.289009,4.5469894,-3.5227666,8.749597,-5.1520953,-7.1798024,5.08978,-9.34636,7.97689,-7.7859087,5.9019575,-11.551732,7.4789166,-8.412915,-8.064009,-5.6552315,-9.292253,-5.4841685,-7.28449,10.316245,-5.30384,-4.490238,-10.111899,-6.225277,-7.0774803,8.424982,9.20753,1.2569565,-10.201861,10.611869,-8.489446,6.285023,9.825129,-11.664074,7.1775265,-5.5852513,-6.8387218,10.922428,-9.467657,8.866166,5.2143307,11.943549,9.685982,-10.125631,8.627422,9.796777,9.871119,6.987529,12.106951,-11.300267,9.594293,-7.238326,-3.7448952,4.4084544,-10.521026,6.122587,7.8843417,9.494343,9.407851,-9.548077,-4.3358026,-7.8685136,8.153975,-7.2483497,6.76461,-1.4031881,7.686398,-10.305356,6.7809677,-8.109937,-8.023171,5.7649426,6.3916936,0.2349691,4.666733,-10.585004,-8.7935705,3.4121435,3.0954368,5.9716997,7.1553617,-10.848551,6.3002415,9.676819,-7.043596,-2.800535,-8.934149,-9.514593,-5.2711577,-10.844167,-10.556986,11.108707,-5.5421033,10.506217,-7.2918825,-7.9788256,-6.501663,4.9713254,0.055908464,2.029904,-6.405668,8.539767,-3.3605285,-6.872931,-7.0005875,-9.480935,-5.941565,-11.329721,2.0688894,11.94631,8.057699,-3.1130626,0.9841248,-7.697565,-8.079747,-9.090912,8.851216,-5.6805625,-7.7914696,6.074048,7.7984214,-9.10367,9.129059,-4.7137923,-9.075305,9.0651655,-9.790409,-4.5800643,-8.524599,-8.284007,-10.674765,-8.511125,-9.633695,-3.7376757,-8.098027,8.67344,7.880217,0.72333205,9.161365,-10.286452,6.126967,0.599735,-9.660704,8.311912,9.147023,7.567341,7.054647,-9.423542,-7.674661,-5.0601907,6.736998,-9.17412,0.5764624,-10.297245,-10.564193,1.2918106,-6.9357185,-9.172411,9.690825,9.838391,-6.072175,-4.4635644,-11.313529,-8.210506,9.407702,-8.096594,-9.575673,-10.540076,-5.4219537,8.871434,7.8746066,-10.573576,-10.990264,6.883212,-6.870823,9.142175,9.305346,7.161842,9.586188,-5.7399306,11.497112,10.99734
cams1241,-7.9397435,8.408245,-9.556608,-4.35952,-11.84118,-6.511691,-4.0325017,-8.912188,-11.048523,12.772615,-8.542735,-9.337814,7.8738465,-11.851231,-9.510611,-7.144493,-6.74853,-10.652861,9.225224,-8.704743,-8.700884,7.3480296,7.9182463,0.9950813,-8.863127,8.8781,-10.659952,-7.43421,-9.907663,-5.7313523,8.619572,-5.483353,4.685289,-3.0439825,2.3756793,10.6606655,12.264693,-6.3332033,11.387543,8.011889,-8.006898,4.202297,7.6891665,5.7307916,-7.409402,4.906304,-6.1707582,8.569519,-7.0857654,8.114075,-7.786635,-6.6522136,10.404462,-4.109324,-9.40433,-0.5063208,-9.93766,6.936393,6.1488476,-6.923622,9.28927,9.278906,10.027367,10.375104,-8.141722,7.682093,6.2481003,-8.199196,12.079083,-7.24613,10.665902,-7.1265364,-5.939103,-8.472413,10.711155,4.5099983,-3.4204743,8.418711,-5.006488,-7.035576,5.0173354,-8.8751,7.7260275,-7.6295323,5.7617188,-10.988486,6.9901,-8.0060625,-7.6164083,-5.5311575,-8.845144,-5.2535086,-7.0000925,9.880005,-5.1224675,-4.4065704,-9.715944,-6.021401,-6.8524537,8.147277,8.683259,1.0570501,-9.788698,10.217787,-8.066172,6.076638,9.32866,-11.207302,7.0086827,-5.4718633,-6.6594896,10.401144,-9.028387,8.40781,5.1249976,11.433005,9.242114,-9.744879,8.303998,9.326725,9.440212,6.7898407,11.441642,-10.71755,9.295751,-6.9903555,-3.7622476,4.3457847,-10.009117,5.7558603,7.690108,9.044813,9.027189,-9.105896,-4.2349563,-7.4324417,7.733105,-7.0657682,6.592475,-1.4215542,7.4212737,-9.826505,6.6324577,-7.8940763,-7.60793,5.723069,6.1571827,0.0214006,4.751508,-10.239098,-8.331259,3.3388298,2.9901204,5.760565,6.856533,-10.368603,6.0903196,9.196124,-6.9074383,-2.761428,-8.569534,-9.101074,-5.171362,-10.412986,-10.20507,10.567478,-5.5040884,10.135042,-7.041566,-7.7306066,-6.3043017,4.923378,-0.07032466,2.1259208,-6.31566,8.112437,-3.3186913,-6.714777,-6.587198,-9.087614,-5.8292255,-10.789216,1.9090536,11.309292,7.793158,-3.094217,1.0729281,-7.1894374,-7.5080314,-8.706118,8.3769245,-5.483834,-7.3125877,5.9610863,7.4651117,-8.747015,8.665758,-4.681912,-8.76018,8.664785,-9.374263,-4.304087,-8.195395,-7.995129,-10.1640625,-8.195274,-9.279827,-3.831932,-7.736905,8.394829,7.5536737,0.56913203,8.637576,-9.922561,6.0398564,0.7042379,-9.223616,7.9405656,8.703491,7.1861954,6.737234,-8.965642,-7.387225,-4.715409,6.332917,-8.837336,0.6643259,-9.877392,-9.96741,1.37053,-6.7906046,-8.902355,9.350477,9.41914,-6.069108,-4.4016647,-10.7394285,-7.818404,9.247048,-7.872001,-9.095613,-10.147087,-5.294426,8.402135,7.675669,-10.174338,-10.452457,6.6386795,-6.58885,8.653402,9.023858,6.986055,9.243473,-5.624285,11.033747,10.393052
cane1242,-4.08486,4.548452,-4.7382483,-3.3568635,-7.069215,-4.0179944,-1.7077508,-5.3505125,-5.9372296,6.6220202,-4.931883,-4.3803353,4.812708,-6.1765604,-4.744654,-4.8883877,-4.1113257,-6.2676487,5.020951,-5.338785,-4.960902,4.9702325,4.8958654,-0.8853565,-4.140277,4.902381,-5.491672,-4.962551,-5.125382,-4.2663903,4.8048983,-3.868617,3.5041542,-2.7129846,2.729711,5.1756387,6.111017,-4.1641874,5.4549093,4.2781653,-4.5871115,3.2716236,3.7116416,3.8600087,-3.914646,3.4392233,-4.1476336,4.4857345,-4.950964,5.32465,-4.7627745,-4.143669,6.0555434,-3.4240656,-5.246654,-1.3194566,-5.4704323,4.4074693,4.226566,-4.5012264,5.3960986,5.297986,5.3073645,4.66327,-5.1607904,4.92665,4.172805,-3.684744,6.3452864,-4.594816,5.442453,-4.4046645,-4.1245127,-4.6162243,5.643391,3.398867,-2.2756727,5.0670094,-2.9609997,-4.7971244,3.2896397,-4.6265774,4.559298,-4.773259,3.5149252,-5.5599093,2.8079638,-4.632624,-3.8539934,-3.9997272,-4.4024143,-3.4902825,-4.0105677,5.5542874,-3.2803185,-3.4760084,-5.447269,-4.2479196,-4.0209312,4.9737496,4.2537446,-0.70118046,-5.4432216,5.8286176,-4.611262,3.7779515,5.2298646,-5.926499,4.6854506,-4.0386806,-4.606585,5.2531834,-5.4173326,3.9513617,3.7817056,6.273214,5.177975,-5.31277,5.284351,4.6345367,5.0419183,4.7455144,5.7397656,-5.228001,5.735566,-4.366632,-3.115047,3.3874853,-5.334396,2.1207743,5.365925,4.7102566,5.026516,-4.7364597,-2.3213744,-3.4216254,3.6286833,-4.7178707,4.466527,-1.7863364,4.8668375,-4.688279,4.8917828,-4.944615,-4.302016,4.3068705,4.0717177,-1.3899049,3.8321157,-5.39965,-4.4941244,2.8892608,2.3057725,3.72881,4.2577114,-5.3390203,4.1672053,5.0793457,-4.455324,-2.7319903,-4.5905323,-4.936999,-3.7622414,-5.9973655,-5.995527,6.0969696,-4.2978845,5.5271506,-4.10775,-4.8806806,-4.0695643,3.7205875,-1.2661316,2.0567586,-3.890364,4.569121,-2.6075225,-4.5469284,-3.0185657,-4.981459,-4.0844913,-5.8828225,-0.10020903,5.774856,5.110507,-2.6415718,1.6574972,-3.2732801,-3.356366,-4.9732614,4.461646,-3.8254724,-3.3780265,3.6591291,4.6568775,-5.129192,4.370563,-3.6886032,-4.540848,4.9670863,-5.1016192,-1.4956712,-5.2573285,-4.7696757,-5.0153027,-4.611188,-5.5123467,-3.34626,-4.237098,5.0438366,4.87157,-1.1379099,4.2976937,-5.982643,4.1605763,1.2706449,-4.6667633,4.575422,4.3404083,4.501266,4.3043957,-4.1400948,-4.3813906,-1.9948488,2.4495354,-5.5148387,1.1958852,-5.3551445,-5.0842237,2.1393213,-5.016198,-5.8122864,5.44658,4.693969,-4.3320127,-3.2197363,-5.762079,-4.302748,5.7025876,-5.0110974,-4.498099,-5.968136,-3.3076718,4.335964,4.8442736,-6.2153015,-5.201319,3.8691578,-4.4565644,4.9637475,5.66494,4.768869,5.8030143,-3.846236,5.9193707,5.0595784
cani1243,-4.885684,6.5710454,-6.4526086,-5.6339893,-10.4256525,-6.3305078,-2.0724516,-8.239659,-8.459198,9.304206,-6.96201,-6.121036,7.1971517,-8.423975,-6.622275,-7.529742,-6.6281614,-9.669735,7.93487,-8.246736,-7.233322,7.643686,7.387109,-1.6539623,-5.4884295,7.390723,-7.557726,-7.993063,-7.066076,-6.2963133,7.3042865,-6.191679,5.684288,-4.62665,3.968226,7.097951,8.871435,-6.661379,7.633071,6.1153035,-7.229166,5.408789,4.8927107,5.762603,-5.8733006,5.3052974,-6.4392405,6.1506925,-7.4930024,8.12701,-7.6672344,-6.134201,8.336787,-5.134321,-7.2173386,-2.599889,-7.8706107,6.326377,6.785738,-6.7486567,8.337146,8.016683,7.3808985,6.6689525,-8.196935,7.771604,6.4022007,-5.022687,9.010529,-6.9115095,7.690319,-6.5280247,-6.357823,-6.764173,7.7867146,5.1219454,-3.686857,7.5463223,-4.6407866,-7.421758,5.854726,-6.09723,6.399995,-7.361942,5.1721907,-7.9178205,3.8315573,-5.8795404,-4.8918953,-6.343111,-5.9108486,-5.2259874,-5.321396,7.904292,-5.3805804,-5.714524,-7.7284966,-6.636803,-6.7012563,6.714541,5.6825595,-1.4235375,-7.4506454,8.460905,-6.684348,6.0487046,7.780772,-8.113819,7.076743,-6.469273,-7.3000813,7.013685,-8.10402,5.514949,5.90656,9.053795,7.048547,-8.197067,8.196446,6.346146,7.246142,7.0083466,8.137005,-7.3598166,8.864917,-7.1481676,-5.0128274,5.523088,-7.62991,3.1079774,7.9683766,6.382504,6.625099,-6.8297243,-3.418507,-4.3651323,5.128952,-7.3635373,7.0589433,-3.201807,7.1603084,-6.5101137,7.2165427,-7.284704,-6.204452,6.888872,6.235509,-2.6499255,5.9811554,-7.7739596,-6.803605,4.7521152,4.1000514,5.5993667,6.5869856,-7.859144,6.83317,6.8369327,-6.678055,-4.425855,-6.3233852,-6.9668827,-6.0398517,-8.512687,-8.6072235,8.721283,-6.5784965,7.58286,-6.392907,-7.0971203,-6.3330183,5.7816353,-1.9043642,3.4323597,-5.8692174,7.4089427,-4.643641,-6.8512244,-4.165571,-6.9750676,-6.642731,-8.02809,-0.50428164,7.970891,8.128735,-4.515933,3.0476375,-4.388375,-4.355543,-7.535903,6.1870804,-6.2931623,-4.618463,5.6974015,6.76815,-8.199053,6.2701063,-5.774809,-6.1470985,7.3284397,-7.728858,-1.918054,-7.7355375,-7.6727896,-7.18599,-6.994448,-8.217362,-5.1310873,-6.106742,7.492916,7.448364,-1.8993578,6.0339403,-8.815583,6.3245034,2.514913,-6.817244,6.657823,5.885807,6.9842663,6.055328,-5.998114,-6.4160566,-1.835478,3.1373367,-8.2741165,2.2409554,-7.2971854,-6.8001943,3.675679,-7.8484154,-8.812778,7.8306103,6.6120195,-7.0773077,-5.1797204,-7.704177,-6.4321365,8.919392,-7.32423,-6.5841975,-8.993637,-5.454872,6.1002336,7.568757,-9.766467,-7.18628,5.328924,-6.8059034,7.1048737,8.63341,7.373477,8.688754,-6.3100424,8.149357,6.929157
capa1241,-6.845996,7.827555,-8.46577,-5.0954475,-11.636258,-6.691916,-3.398072,-8.893186,-10.360434,11.747908,-8.128121,-8.251624,7.802674,-10.681661,-8.692555,-7.596059,-6.9535675,-10.514009,9.052455,-8.813079,-8.409734,7.662362,8.094,-0.03079551,-7.6041346,8.500988,-9.693195,-7.934576,-9.110558,-6.3154607,8.414771,-5.9492364,5.2476206,-3.8072057,3.1690564,9.50507,11.1370945,-6.623028,10.121212,7.488097,-7.975581,4.9144726,6.7909303,5.9160256,-7.0204887,5.206066,-6.542173,7.8173227,-7.591704,8.370453,-7.945059,-6.68152,9.930288,-4.8103385,-8.739101,-1.4592805,-9.403656,6.88806,6.6491814,-7.0865526,9.207867,9.03507,9.296159,9.1428995,-8.436237,7.9887877,6.457482,-7.1958256,11.158907,-7.3668885,9.674658,-7.2608547,-6.477401,-8.010343,9.795432,5.008826,-3.7557547,8.220632,-4.910805,-7.534687,5.616707,-7.976693,7.4641848,-7.6564965,5.698643,-9.954742,5.8846636,-7.3619637,-6.7109604,-6.1189766,-7.8659735,-5.5040126,-6.5674148,9.314537,-5.360682,-5.175046,-9.187655,-6.582114,-7.0485563,7.7939754,7.6919413,0.044246227,-9.076055,9.772334,-7.807764,6.3255587,9.000961,-10.1529045,7.257933,-6.1852746,-7.175457,9.428415,-8.96348,7.4330544,5.670552,10.821226,8.622805,-9.427746,8.507829,8.339472,8.823625,7.148398,10.375056,-9.596923,9.494761,-7.377127,-4.4208384,5.080928,-9.237357,4.807461,8.134593,8.199253,8.32359,-8.45495,-4.0021324,-6.2814107,6.967824,-7.4327745,7.0521812,-2.3062487,7.6504273,-8.761992,7.1360884,-7.8189588,-7.3139467,6.3340454,6.5468616,-1.294204,5.35057,-9.453522,-8.031584,4.1423926,3.6779025,5.886866,7.023205,-9.660465,6.7202487,8.52885,-7.033008,-3.6726522,-7.963779,-8.421156,-5.6934276,-9.998565,-9.738493,10.164066,-6.081597,9.340952,-6.9798675,-7.663508,-6.570986,5.4592624,-0.8173938,2.8275092,-6.185463,8.166634,-4.017032,-7.039089,-5.6643643,-8.366578,-6.33923,-9.977713,0.9234319,10.267604,8.17234,-3.9424322,1.8855665,-6.2538238,-6.5179887,-8.415483,7.770272,-5.984881,-6.377651,6.0455785,7.4319615,-8.766802,7.973131,-5.3574533,-7.728604,8.345302,-9.06532,-3.4458861,-8.293697,-8.115233,-9.243516,-7.9470415,-9.2316885,-4.549567,-7.3631163,8.23452,7.906015,-0.52619857,7.9156756,-9.790833,6.2845354,1.5065438,-8.50693,7.672472,7.764407,7.481856,6.6427817,-8.007064,-7.2401185,-3.6951756,5.0865717,-8.958957,1.3643036,-9.0706835,-9.019526,2.4465437,-7.402591,-9.271959,8.910109,8.461739,-6.6919584,-4.9044805,-9.699539,-7.496459,9.268516,-7.8568535,-8.432602,-10.027893,-5.447715,7.7441835,7.8464556,-10.495917,-9.437955,6.2612524,-7.046001,8.384722,9.1923275,7.4191685,9.277831,-6.0018616,10.059707,9.238466
